0.0377175398170948, 0.01309157069772482, 0.023849740624427795, 0.017611010000109673, -0.009677257388830185, 0.00992279127240181, 0.004374705255031586, 0.0132635198533535, 0.025787975639104843, -1.7562881112098694e-05, 0.007460104767233133, 0.00997651182115078, -0.003314414992928505, -0.02021348848938942, -0.03662744164466858, 0.006656385958194733, 0.005780860781669617, 0.0031433659605681896, -0.0020773308351635933, -0.02125321328639984, -0.0020425282418727875, -0.023069072514772415, -0.01761026121675968, 0.010673044249415398, -0.012273836880922318, -0.0003573433496057987, 0.011274813674390316, -0.014261003583669662, 0.011195629835128784, 0.00696007302030921, 0.00201552826911211, -0.001140938838943839, -0.029086841270327568, -0.0313645675778389, -0.016004612669348717, -0.005671576131135225, 0.019443675875663757, -0.011045148596167564, -0.0004089539870619774, -0.01241525448858738, -0.02140650898218155, -0.012525328435003757, 0.0022941180504858494, 0.023435987532138824, 0.017356043681502342, 0.04230138286948204, 0.00260550482198596, -0.008480727672576904, 0.012834930792450905, 0.030298730358481407