0.010491014458239079, -0.004687368869781494, 0.016694776713848114, 0.00037998706102371216, 0.007136672735214233, 0.002487197518348694, -0.008229612372815609, -0.0033040298148989677, -0.0018862895667552948, 0.0030260859057307243, -7.431348785758018e-05, -0.007630357518792152, -0.003905151505023241, -0.006303214468061924, -0.000536785926669836, -0.011149350553750992, -0.014287661761045456, -0.006327970884740353, -0.00954446941614151, -0.0027730176225304604, -0.0012634359300136566, -0.01182449609041214, -0.012122097425162792, -0.005915080197155476, -0.005127531010657549, 0.009204141795635223, 0.005121778696775436, -0.004981643054634333, 0.001889911014586687, -0.0028799520805478096, 0.0012566454242914915, 0.0009475694969296455, 0.003706681076437235, -0.002134709618985653, -0.0033577182330191135, -0.016052285209298134, 0.012712126597762108, 0.01949296146631241, -0.0032644979655742645, 0.016791099682450294, 0.01083978172391653, 0.003487246111035347, 0.014161146245896816, 0.03552084043622017, 0.04109112173318863, 0.04006693512201309, 0.041313983500003815, 0.04742659255862236, 0.04098206013441086, 0.06289617717266083