0.014419208280742168, 0.004255574196577072, 0.038256943225860596, -0.014006748795509338, 0.03769431263208389, -0.011964300647377968, 0.007131792604923248, -0.03358630836009979, 0.03593163937330246, 0.022065868601202965, -0.037533774971961975, 0.04925774037837982, 0.04235963895916939, -0.014667008072137833, 0.04706401750445366, -0.08057653903961182, 0.08441172540187836, 0.0022296318784356117, -0.06735222786664963, 0.010248998180031776, 0.025550788268446922, -0.016601745039224625, -0.014747504144906998, -0.030849331989884377, 0.0036522173322737217, -0.013593468815088272, 0.031352538615465164, -0.059864141047000885, -0.004174558445811272, -0.008050413802266121, -0.013981476426124573, 0.0011992976069450378, -0.003952043130993843, 0.007466480135917664, -0.014222081750631332, -0.003765096887946129, 0.041005492210388184, -0.02532404661178589, 0.01884729042649269, 0.023564349859952927, 0.010636817663908005, -0.021054983139038086, 0.014873094856739044, 0.03755376487970352, -0.0036151111125946045, -0.00983085110783577, -0.001965053379535675, -0.008227944374084473, 0.07419693470001221, 0.15745395421981812