-0.0005218234146013856, -0.0011212409008294344, -0.0015004724264144897, -0.005441396497189999, -0.0012526308419182897, 0.005236547440290451, -0.0021679364144802094, 0.0018745819106698036, -0.005466989241540432, -0.003798878286033869, -0.006304002366960049, 0.0036642125342041254, 0.005592206493020058, 0.003632614854723215, -0.004093615338206291, -0.012109310366213322, 0.004512380808591843, -0.002259987872093916, -0.012888994067907333, -0.007097132503986359, -0.0009030639193952084, -0.014850767329335213, 0.0017884778790175915, -0.0192030668258667, 0.0062931003049016, -0.003385529387742281, -0.0030402722768485546, -0.006273264531046152, 0.007690118625760078, -0.006471185013651848, 0.005339210852980614, -0.007823881693184376, 0.003334483364596963, 0.0024510198272764683, -0.001408582553267479, 0.001667472068220377, 0.0030264127999544144, 0.002744249999523163, 0.0023660878650844097, -0.0019318002741783857, -0.0025537535548210144, -0.00030518788844347, 0.0035422148648649454, -0.0013265302404761314, -0.002079358324408531, -0.0043827202171087265, -0.0019104769453406334, -0.005437585525214672, 0.0014697583392262459, -0.0005977633409202099, -0.0016707563772797585, -0.002869660034775734, -0.008718187920749187, -0.009074483066797256, 0.001817384734749794, -0.0003539430908858776, -0.00048511335626244545, -0.006582115776836872, 0.0007635799702256918, -0.004936852026730776, 0.001088489661924541, 0.00010647298768162727, 0.00276429345831275, -0.011078935116529465, 0.013074981980025768, -0.015532738529145718, 0.005696199834346771, 0.004913396202027798, 0.007232102565467358, -0.00041147321462631226, 0.002553400583565235, -0.007472663186490536, -0.002600152511149645, -0.007552159018814564, 0.010427137836813927, 0.001693295082077384, 0.0006053554825484753, -0.004899612162262201, 0.006585551425814629, -0.007155223749577999, 0.006108289584517479, 0.0051820226944983006, 0.003732919692993164, 0.004236781969666481, 0.014091851189732552, -0.006051589269191027, 0.011675437912344933, -0.0030344058759510517, 0.00027225352823734283, -0.007696318440139294, -0.0003325697034597397, 0.0020865746773779392, -0.0017053016927093267, 0.0016719545237720013, -0.0036277081817388535, 0.013198829255998135, 0.003927681595087051, 0.002339734695851803, -0.014145506545901299, -0.0013022106140851974, -0.017435546964406967, 0.007630860898643732, 0.007514268159866333, -0.003067842684686184, 0.0017362385988235474, -0.0034263189882040024, -0.007912475615739822, -0.006837094202637672, -0.00401141494512558, -0.0006330562755465508, 0.004909733310341835, 0.005592994391918182, -0.003108311677351594, 0.010140834376215935, 0.000645248219370842, 0.006977884564548731, 0.00109940639231354, 0.0026554344221949577, 0.001140526495873928, 0.006641944870352745, -0.0003141869674436748, 0.008383477106690407, -0.0042755878530442715, 0.0036827167496085167, -0.0010650188196450472, -0.0023823226802051067, 0.009020878933370113, -0.009042736142873764, 0.013295786455273628, -0.0018634789157658815, -0.0037209228612482548, 0.0005974373780190945, 0.005016302689909935, -0.0067881084978580475, -0.0012898400891572237, -0.008089904673397541, -9.178940672427416e-05, 0.002991468645632267, -0.0020757955498993397, -0.0015771265607327223, -0.005049287341535091, 0.0019894565921276808, -0.0068740625865757465, 0.004125201143324375, -0.010968266986310482, 0.001204132684506476, 0.0025813959073275328, -0.005263665225356817, -0.0068582333624362946, -0.0019371293019503355, -0.0014259013114497066, -0.008176973089575768, -0.001807734603062272, 0.0007570914458483458, 0.0019728741608560085, -0.013837197795510292, 0.00034625211264938116, -0.008732866495847702, -0.008757878094911575, -0.0035597458481788635, 0.00018329867452848703, 0.008080711588263512, -0.003049651626497507, 0.0034391814842820168, -0.010841160081326962, -0.0004979276563972235, 1.7635233234614134e-05, -0.0012340184766799212, -0.0028835097327828407, 0.003407294163480401, -0.004472124390304089, 0.004469707142561674, 0.01413748599588871, 0.01024166401475668, 0.004840054549276829, -0.005805939435958862, 0.005485848058015108, -0.0015952402027323842, 0.006352216936647892, -0.01061801053583622, -0.001615207176655531, 0.0001314196560997516, 0.005475303158164024, -0.001785662374459207, 0.008234620094299316, 0.0013127120910212398, -0.01640833541750908, -0.010189070366322994, -0.00030472560320049524, 0.0023548644967377186, -0.004656947683542967, 0.006253370549529791, -0.004727404098957777, 0.004555763676762581, 0.0024644159711897373, 0.0045822253450751305, -0.0025511200074106455, -0.0031096271704882383, -0.005831768270581961, -0.0030070326756685972, 0.007704201154410839, -0.0009596313466317952, 0.0017171615036204457, 0.005046590697020292, 0.00010782683966681361, 0.0048692189157009125, -0.001869826577603817, 0.0022108331322669983, -0.0009503971086815, 0.0004052079748362303, 0.007732493337243795, -0.006756368093192577, 0.009234525263309479, 0.0011193872196599841, -0.007336779497563839, -0.005351030267775059, 0.0016974197933450341, 0.001460995408706367, -0.0013161211973056197, 0.0041835857555270195, -0.00313163036480546, 0.0023224668111652136, -0.0020926210563629866, 0.0006279484368860722, 0.015270059928297997, 0.0004912588046863675, 0.013859493657946587, -0.0004460162599571049, 0.003609646577388048, -0.007021264173090458, -0.0037466243375092745, 0.002786839846521616, -0.017148178070783615, 0.004587773233652115, -0.01149967685341835, 0.0065009198151528835, 0.0019603304099291563, 0.0022962468210607767, -0.004529084078967571, 0.005152972415089607, -0.004447879735380411, 0.003409716999158263, 0.002617947058752179, 0.006082219071686268, 0.006991702131927013, -0.00467486958950758, 0.005233883857727051, -0.004249834921211004, 0.0034203894902020693, -0.0019060492049902678, 0.005326214246451855, -0.009690631181001663, 0.0072374846786260605, 0.0013978100614622235, 0.008863881230354309, -0.004174747038632631, 0.00046752113848924637, -0.00025262596318498254, -0.0007685982855036855, 0.0020050830207765102, -0.0007858544122427702, -0.00129582395311445, -0.0037987048272043467, -0.0031764165032655, -0.0054746465757489204, -0.0034634012263268232, -0.008210220374166965, -7.989563164301217e-05, -0.005251957103610039, -0.0014568343758583069, -0.0014767433749511838, -0.0012754956260323524, -0.002707727951928973, -0.0035312778782099485, 0.005332434084266424, -0.002019532024860382, 0.006354252342134714, -0.004579430446028709, -0.0022009729873389006, 0.004590086173266172, -0.013696480542421341, 0.008877039887011051, -0.00528493570163846, 0.00415931036695838, -0.00818584207445383, -0.006470572669059038, -0.0053766341879963875, 0.008598491549491882, 0.007732238620519638, 0.0040528979152441025, -0.0016261840937659144, -0.00983737874776125, 0.00047408719547092915, 0.0025408645160496235, -0.007050895597785711, -0.0007691337377764285, -0.008775490336120129, -0.003018612740561366, 0.002887989627197385, 0.011305602267384529, -0.0022656030487269163, 0.004892427008599043, -0.0020969342440366745, 0.003305481281131506, -0.0022951909340918064, 0.00447551254183054, 0.0002573408419266343, -0.000420870230300352, 0.011226575821638107, -0.0006971059483475983, 0.009688013233244419, 0.0014568665064871311, -0.0014806471299380064, 0.0023585986346006393, -0.0040673185139894485, -0.005132515449076891, 0.002780141541734338, -0.005635203327983618, 0.004756106063723564, -0.003064163029193878, -0.001902515534311533, 0.002478969981893897, 0.002379960846155882, -0.0024118178989738226, -4.9848167691379786e-05, 0.0010820755269378424, -0.005225759465247393, 0.0013722545700147748, -0.002048253547400236, 0.002884694142267108, 0.000927494780626148, 0.006024710368365049, 0.0006494992994703352, 0.00025535194436088204, -0.0009597096359357238, 0.001994999125599861, 0.005560781341046095, 0.005607889033854008, 0.002961208578199148, -0.003243817249312997, 0.0015614124713465571, 0.001302622607909143, 0.0003430797369219363, -0.003361180191859603, 0.004926919471472502, -0.0011476213112473488, 0.005120160989463329, -0.008035452105104923, -0.0005454604397527874, 0.004744155798107386, 0.0021064772736281157, -0.0012616193853318691, 0.005744299851357937, -1.3830023817718029e-05, -0.0065831677056849, 0.0010556681081652641, 0.0005058952956460416, 0.0031153785530477762, 0.004849279299378395, 0.001107667339965701, 0.006408109795302153, 0.00756895262748003, 0.007773763500154018, 0.005850662011653185, 0.0011427548015490174, -0.0020823534578084946, 0.00260534742847085, 0.0004963108222000301, -0.005158021580427885, -0.005047729704529047, 0.0037737474776804447, -0.0003319199604447931, -0.00814564898610115, 0.004226251505315304, -0.002567236078903079, -0.010330844670534134, -0.010288522578775883, -0.0014894993510097265, 0.011967823840677738, 0.0042976075783371925, 0.008829689584672451, 0.002898239530622959, -0.0038117393851280212, 0.001996588194742799, 0.002821441274136305, -0.0007817347068339586, 0.012841821648180485, -0.0015036684926599264, 0.004351695533841848, -0.002610644092783332, 0.0009587651584297419, 8.002426329767331e-05, 0.0013892599381506443, -0.004768977407366037, 0.0023228649515658617, -0.004388122819364071, -0.005494390614330769, -0.0032181653659790754, -0.002453106688335538, -0.00915494840592146, 0.005043223965913057, -0.00689319334924221, 0.003089879872277379, 0.0005370248109102249, 0.0016709684859961271, -0.0022248136810958385, 0.015502148307859898, -0.00075772765558213, 0.015529819764196873, 0.0003902725875377655, 0.000113792804768309, 0.0004179099341854453, 0.0066739097237586975, 0.0014461642131209373, -0.004587224684655666, 0.004926059395074844, 0.0026382075157016516, -0.0011854158947244287, 0.002114979550242424, 0.004603861831128597, 0.003455424215644598, -0.00539969839155674, 0.005031253211200237, -0.001405378570780158, -0.00042513059452176094, -0.0030475188978016376, 0.0025732102803885937, 0.009113690815865993, -0.0053215110674500465, 0.010891761630773544, -0.0026565154548734426, -0.0013239840045571327, -0.004704873543232679, -0.0010910540586337447, 0.02187022753059864, 0.012500707060098648, 0.02095114439725876, 0.011911713518202305, 0.002354236086830497, 0.0013404578203335404, 0.007555850315839052, 0.004259045235812664, 7.552292663604021e-05, 0.006660150829702616, -0.0033488364424556494, 0.009068201296031475, 0.005855712573975325, 0.0011335451854392886, -0.0014341092901304364, -0.00568385561928153, 0.0031617209315299988, -0.003013669280335307, -0.00802469439804554, -0.00020199301070533693, 0.006723075173795223, -0.002328671980649233, -0.0021615095902234316, 0.0009537301957607269, -0.0026394256856292486, -0.0009307467844337225, 0.0033606889192014933, -0.0036152435932308435, 0.004753859713673592, 0.0052046929486095905, 0.006932052318006754, 0.004337775520980358, 0.0026794506702572107, -0.0043069845996797085, 0.0018666989635676146, -0.00851964857429266, 0.0018686410039663315, -0.01056554727256298, -0.0015019492711871862, 0.009161300025880337, 0.0031057498417794704, -0.0011661036405712366, -0.009618704207241535, 0.0013463161885738373, -0.009529130533337593, 0.005567527841776609, 0.004775231704115868, 0.003961256239563227, -0.004141474608331919, 0.002957842079922557, -0.003790002316236496, 0.0038846503011882305, -0.002482145559042692, -0.005866289138793945, -0.005979492794722319, -0.001461202627979219, -0.0011814716272056103, 0.006567460019141436, -0.0019282479770481586, 0.00293206749483943, -0.007050554268062115, -0.0012517302529886365, 0.002200889401137829, 0.007589549757540226, 0.008604285307228565, 0.006441474426537752, 0.003562400583177805, -0.0017503842245787382, 0.004968817345798016, 0.004843452945351601, -0.0016255725640803576, 0.002739341463893652, -0.00038269045762717724, 0.004886622540652752, -0.006058248225599527, 0.004683682229369879, 0.00021661192295141518, 0.003011344699189067, 0.0017359101912006736, 0.005576776340603828, 0.0019148113206028938, -0.0009032958187162876, 0.0010755573166534305, 9.253728785552084e-05, -0.01646989956498146, 0.0035540563985705376, -0.011777522042393684, 0.009385990910232067, -0.011263451538980007, 0.0032611640635877848, -0.0037689742166548967, -0.008032790385186672, 0.0008986148168332875, -0.006102684885263443, 0.0008854558691382408, -0.0043772365897893906, -0.003223494626581669, 0.0008348201517947018, 0.0007966186967678368, 0.004921853542327881, -0.0019718350376933813, 0.007895288988947868, -0.0033996966667473316, -0.00025522802025079727, -0.0004352839314378798, 0.007574732881039381, 0.0035230726934969425, 0.009179557673633099, 0.0025991536676883698, 0.005484370514750481, -0.003929628059267998, 0.001758631318807602, 0.010709289461374283, -0.005029018968343735, 0.013394913636147976, -0.00037049112142995, 0.0014885814161971211, -0.009158378466963768, -0.0012310761958360672, -0.01435171253979206, -0.0033770170994102955, -0.01159314438700676, -0.005785362794995308, 0.004588194191455841, 0.004428970627486706, 0.0001820231118472293, 0.0026727064978331327, 0.012591290287673473, 0.0055127632804214954, 0.013636467978358269, 0.005038667004555464, 0.002106444677338004, 0.0022607804276049137, -0.011677706614136696, 0.007049415726214647, -0.013572903349995613, -0.0029990794137120247, -0.0028661538381129503, 0.008597048930823803, -0.0021940446458756924, 0.004327248316258192, -0.0033870344050228596, 0.0049896095879375935, -0.005275809671729803, -0.0048004016280174255, -0.0008749638800509274, -0.0073006656020879745, -0.002638256410136819, 0.0001094411127269268, -0.0011198497377336025, 0.005259407218545675, 0.007242216728627682, 0.0014651427045464516, 0.0027397749945521355, 0.010753823444247246, 0.0032596923410892487, 0.009191088378429413, 0.0008271887199953198, 0.001445999019779265, 0.0023077388759702444, -0.007529641035944223, -0.003485345281660557, -0.006206047255545855, -0.0006034700199961662, -0.007915209047496319, -0.015606967732310295, -0.014337608590722084, -0.0029096510261297226, 0.00212545576505363, -0.00036911817733198404, 0.006480996962636709, 0.009777135215699673, -0.0009117069421336055, -0.004205882083624601, 0.0018905011238530278, 0.004192250780761242, 0.005504650995135307, 0.0038742891047149897, 0.005899076350033283, 0.0006737700896337628, -0.0014187052147462964, 0.006924917455762625, 0.0073445504531264305, 0.0008651421521790326, 0.008161947131156921, 0.0012740393867716193, 0.005654134321957827, 0.0010909319389611483, 0.0013145031407475471, 0.0036485791206359863, 0.002099179197102785, -0.0044030677527189255, -0.00021150108659639955, 0.00944811012595892, 0.007941311225295067, 0.002912855241447687, 0.0004985054256394506, -0.007100922986865044, 0.002406192012131214, -0.0005925919394940138, -0.009794951416552067, -0.002842276357114315, -0.0008801102521829307, -0.0012083795154467225, 0.0039151436649262905, -0.004184772726148367, 0.0020170065108686686, 0.009185495786368847, -0.0029046181589365005, 0.00541652413085103, 0.0005130934296175838, 0.0017350579146295786, -0.002209031255915761, 0.0071033090353012085, -0.002720196731388569, 0.00017635570839047432, 0.0007865646039135754, 0.0046053980477154255, -0.011098753660917282, 0.0008130987407639623, -0.010545476339757442, -0.003234188538044691, -0.007677341811358929, -0.004243640229105949, 0.0008761696517467499, 0.002887091599404812, -0.0016599860973656178, 0.0019897143356502056, -0.0027668746188282967, -0.0020784824155271053, 0.0015648369444534183, -0.011014822870492935, -0.003508114255964756, -0.013063224963843822, 0.0002315506135346368, -0.007764199748635292, -0.005082176066935062, 0.0006774927023798227, -0.0008010325254872441, -0.003705384908244014, 0.003110867226496339, -0.006989937275648117, 0.00011965679004788399, 0.006269511301070452, -0.003432089928537607, -0.0007314882823266089, -0.0010850515682250261, 0.002692533191293478, 0.004151518456637859, 0.004696653690189123, -0.00140196003485471, -0.005776241421699524, -0.005956859327852726, -0.003496379591524601, -0.005021062679588795, -0.0027848961763083935, 0.011373868212103844, 0.008891302160918713, -0.005843047983944416, 0.0030255375895649195, -0.007219426799565554, 0.00029638403793796897, -0.0014096449594944715, 0.0012742569670081139, 0.0026170392520725727, 0.0029437935445457697, -0.0025563740637153387, -0.005296043120324612, -0.008142673410475254, -0.004496188368648291, 0.002993132220581174, 0.001730756601318717, 0.0021825586445629597, -0.007566655986011028, -0.0018306549172848463, -0.010279840789735317, -0.005010085646063089, 0.0025032395496964455, 0.006447829771786928, -0.003331984393298626, 0.001306100282818079, 0.004211087711155415, 0.003335043555125594, 0.0017031831666827202, 0.001558633171953261, -0.00558537058532238, -0.0026193938683718443, -0.004028848372399807, -0.002854301128536463, -0.002618587575852871, 0.003993446938693523, 0.0007003408391028643, -0.0026337909512221813, 0.008578311651945114, 0.0026097921654582024, 0.0012400047853589058, 0.0022232953924685717, -0.0032114912755787373, 0.013267682865262032, 0.0016661755507811904, -0.002854637335985899, 0.00324894767254591, -0.0057847630232572556, 0.003876385046169162, -0.006881775800138712, -0.009647158905863762, -0.0008956003002822399, 0.0006875403341837227, -0.0034201915841549635, 0.0020862980745732784, -0.0007147176074795425, 0.004677015356719494, -0.004434775561094284, -0.004009961616247892, 0.0023883525282144547, 0.0008259889436885715, -0.005393061321228743, 0.0035736248828470707, 0.0010776218259707093, 0.0029340030159801245, 0.0004921931540593505, -0.0026525340508669615, -0.005213246680796146, 0.0011124777374789119, -0.005535372532904148, 0.004327594302594662, -0.0028919032774865627, 0.0026790285483002663, 0.002758542774245143, 0.00852266140282154, -0.00034463999327272177, 0.009129056707024574, 0.0018315708730369806, -0.001109898672439158, -0.002286704024299979, -0.0009000436402857304, 0.0032215171959251165, 0.0009214437450282276, 0.000516790896654129, -0.0023266212083399296, -0.0017007370479404926, 0.005661812610924244, -0.009846089407801628, -0.005658185109496117, 0.0005637159338220954, -0.0024499911814928055, 0.00503569096326828, -0.014543869532644749, -0.005413201171904802, -0.0013636491494253278, 0.0026920761447399855, 0.004286340903490782, 0.004165962338447571, 0.003717052051797509, 0.0015414098743349314, 0.0023204481694847345, -0.0035404739901423454, -0.0034382566809654236, 0.002262057736515999, -0.004030415788292885, -0.006212424021214247, 0.0013312341179698706, 5.6558812502771616e-05, -0.002538258209824562, 0.008920100517570972, 0.0014399334322661161, 0.0063063008710742, 0.005665140226483345, 0.007471728138625622, -0.0019226205768063664, -0.0014734702417626977, 0.0011988383485004306, 0.0025814720429480076, 0.0005762302316725254, 0.004202581942081451, -0.0034614105243235826, -0.0096919359639287, -0.0009493380784988403, 0.003808127250522375, 0.007936093956232071, 0.003299826756119728, 0.0025364961475133896, -0.00718728918582201, -0.002147129736840725, 0.0019351249793544412, 0.010103302076458931, -0.007969162426888943, 0.010653866454958916, -0.0032734726555645466, -0.0023152714129537344, 0.004692760296165943, 0.0019034851575270295, -0.0016722154105082154, 0.0008341636857949197, -0.0008843144169077277, 0.0014785804087296128, -0.0032875509932637215, 0.0019100806675851345, 0.0020291218534111977, -0.0012346693547442555, 0.0050464803352952, -0.002417928772047162, 0.0023196320980787277, 0.0037369912024587393, 0.0037882819306105375, -0.0006752295885235071, -0.001595834968611598, -0.014738007448613644, -0.00019510614220052958, -0.0037768937181681395, -0.0003322011325508356, -0.0014893222833052278, 0.0016295179957523942, -0.0015927194617688656, -0.0008644202607683837, 0.005228769965469837, 0.0006379500264301896, -0.0016075789462774992, 0.0021107723005115986, 0.004613691009581089, 0.0004384381463751197, -0.0019532907754182816, -0.0018118228763341904, -0.002472065854817629, 0.006088371854275465, 0.0008949607145041227, -0.002071948489174247, -0.003500723047181964, 0.0013367279898375273, -0.007813344709575176, 0.00010091089643537998, 0.0012083202600479126, -0.0069757793098688126, -0.0019234531791880727, -0.0012052766978740692, -0.012310243211686611, -0.0032209865748882294, -0.003878251649439335, 0.009187070652842522, 0.00023542100097984076, -0.0029242124874144793, -0.009016857482492924, 0.000718159310054034, -0.007387225516140461, -0.0025297144893556833, 0.0059331320226192474, 0.0036482675932347775, -0.0005406004493124783, 7.112594903446734e-05, 0.0005613081157207489, 0.002820070367306471, 0.001985123148187995, 5.7322788052260876e-05, -0.000821221387013793, -0.002549867145717144, -0.0015341067919507623, 0.007965830154716969, -0.0043432447127997875, 0.0004344269400462508, -0.0036674451548606157, -0.0012201482895761728, -0.0017279988387599587, 0.005037184804677963, 0.008270634338259697, 0.004304582718759775, 0.004985274747014046, 0.004265005234628916, -0.0034303327556699514, -0.004223478492349386, -0.0032304327469319105, 0.006565803661942482, -0.004039736930280924, 0.0031914841383695602, -0.0003295698552392423, -0.004069878254085779, 0.0029304518830031157, -0.003900889540091157, 0.0073928264901041985, -0.007507678586989641, 0.002868800424039364, 0.002577925566583872, 0.0010529517894610763, 0.0020444169640541077, -0.00314898369833827, -0.004449510481208563, -0.003410462522879243, -0.0008561742724850774, 0.0041091106832027435, 0.005192439071834087, 0.0008307553944177926, -0.006784098222851753, 0.005483283195644617, -0.008044189773499966, 0.000868534087203443, -0.00419115275144577, -0.007819720543920994, -0.0058127776719629765, -0.004442298784852028, 0.008184221573174, -0.007093187887221575, 0.007989248260855675, 0.003520093858242035, 0.004632230848073959, 0.002196323126554489, 0.005772730801254511, -0.003861317876726389, 0.007041077595204115, -0.004079894162714481, -0.0016318934503942728, -0.004168943967670202, -0.004731984809041023, 0.0035294434055685997, 0.009763128124177456, 0.0036071729846298695, 0.010570153594017029, -0.004672293551266193, -0.00038114734343253076, -3.3146701753139496e-05, 0.006507967598736286, -0.00012335210340097547, 0.0069595747627317905, 0.009265556931495667, -0.0017702390905469656, -0.001774791395291686, 0.005014114081859589, -0.005522410850971937, -0.007031195797026157, -0.006803295109421015, -0.007554262410849333, 0.0076113129034638405, 0.004983150865882635, -0.006188959814608097, -0.00701136514544487, 0.003180545289069414, -0.0065741948783397675, 0.003898199647665024, 0.0008764624362811446, 0.0032789213582873344, 0.0009245639084838331, 0.0005703410133719444, 0.0024575325660407543, -0.002015249338001013, 0.00708557665348053, -0.003819746430963278, 0.00047979282680898905, 0.007254937198013067, -8.86802445165813e-05, 0.005190900061279535, 0.0023298170417547226, 0.004441952798515558, 0.00818108394742012, 0.000673428934533149, -0.0010412080446258187, -0.005832584574818611, 0.006809635553508997, -0.00370965339243412, 0.008940286934375763, -0.0017121047712862492, 0.007065316196531057, 0.0054312096908688545, -0.0026469379663467407, 0.01027001440525055, -0.007779366336762905, 0.004272776190191507, 0.008248871192336082, 0.004879632964730263, 0.005676941480487585, 0.0081615736708045, 0.007499119266867638, 0.009190395474433899, 0.00595459109172225, 0.00046634022146463394, 0.006029082462191582, -0.004811747930943966, -0.0006078376900404692, 0.0025030970573425293, -0.0009293472394347191, 0.002739161718636751, 0.003774112556129694, 0.002411207417026162, 0.0014330791309475899, -0.0018302355892956257, 0.0024805888533592224, 0.00021402773563750088, 0.0017370941350236535, 0.006445724982768297, 0.0022768548224121332, 0.004419289529323578, -0.0007335536647588015, 0.0001470860734116286, -0.0010363194160163403, 0.0061512114480137825, 0.0014214713592082262, 0.0043280706740915775, 0.00046384846791625023, -0.0010992999887093902, 0.0020641363225877285, -0.0032116761431097984, 0.003645943012088537, 0.005094265565276146, 0.012178963050246239, 0.0019572023302316666, 0.009591619484126568, -0.001378725515678525, 0.011983353644609451, 0.0033070531208068132, 0.006948002148419619, -0.004396531730890274, 0.002278437139466405, 0.0017271600663661957, -0.002648006659001112, 0.00018779304809868336, -0.0027416832745075226, 0.005542566999793053, -0.0020046881400048733, -0.004314968828111887, 0.005190479103475809, 0.007232049014419317, 0.005808199290186167, 0.00873084831982851, 0.008199738338589668, -0.002391825895756483, 0.009849190711975098, -0.00137129588983953, 0.0006458954885601997, 0.000701119948644191, 0.003565954277291894, -0.013200989924371243, -0.006503795273602009, 0.0009280898375436664, 0.0033651988487690687, -0.0022912875283509493, 0.007916535250842571, 0.004141097888350487, 0.00043218262726441026, 0.00848587416112423, -0.0009444580064155161, -0.005716322921216488, -0.0005977555410936475, -0.004565388895571232, 0.0017946804873645306, -0.004531502723693848, 0.005518058314919472, 0.006823633797466755, -0.0014629578217864037, -0.005643259268254042, -0.00546346977353096, 0.0020042320247739553, 0.006560101173818111, -0.0017510084435343742, 0.0015064034378156066, 0.007445518858730793, 0.001879221643321216, 0.007087879814207554, -0.0038648019544780254, 0.00178643933031708, -0.0009212050936184824, 0.001886066747829318, -0.006427079904824495, 0.006932822521775961, -0.008132204413414001, -0.000794036197476089, -0.0027583844494074583, 0.001449918607249856, 0.0007735418621450663, -0.00570010207593441, 0.0008949117618612945, -0.005287648644298315, 0.007841932587325573, -0.015556056052446365, -0.0032067028805613518, -6.303752888925374e-05, 0.0029602462891489267, 0.009785255417227745, -0.0063684782944619656, 0.007250805385410786, 0.01497404370456934, 0.0021998872980475426, -0.010852093808352947, 0.008317002095282078, 0.006815056316554546, 0.007461971137672663, 0.003029638435691595, 0.010986324399709702, 0.010332565754652023, 0.008683234453201294, -0.005311906803399324, 0.00037577931652776897, -0.00651160441339016, 0.0015119919553399086, -0.0007303177262656391, 0.0053659602999687195, 0.00036785792326554656, -0.0036074910312891006, 0.0035814116708934307, -0.003917265683412552, 0.000595002609770745, 0.009358406998217106, 0.004194098059087992, -0.0011629703221842647, 0.0024566473439335823, -0.0008101586136035621, 0.0029952803160995245, 9.778409730643034e-05, 0.0006631378782913089, -0.004576212260872126, -0.005146092735230923, 0.0011175735853612423, -0.0021006728056818247, 0.00012643491209018975, -0.006123227998614311, 0.005921359173953533, -0.0017836724873632193, -0.0016863268101587892, 0.007019969169050455, 0.005931310821324587, 0.004891947843134403, -0.001449478673748672, 0.013387623243033886, 0.002280409447848797, 0.0008440663805231452, -0.0063875578343868256, -0.004943308886140585, -0.0073265633545815945, 0.004623481072485447, 0.004626033827662468, 0.004179919138550758, 0.003426080569624901, 0.01179380901157856, 0.0021675345487892628, 0.011941424570977688, -0.0011855941265821457, 0.005581118632107973, -0.0019911571871489286, 0.00041573442285880446, -0.007143072783946991, 0.00851570162922144, -0.00949576124548912, 0.005381499417126179, -0.0015863787848502398, 0.0009614183800294995, -0.003607377177104354, 0.003029918298125267, 0.004540795460343361, 0.007947743870317936, 0.004515849053859711, 0.013146412558853626, 0.0019349881913512945, -0.0036779996007680893, 0.007635495159775019, 0.008047185838222504, 0.006756615824997425, 0.0018157396698370576, -0.009690131060779095, -0.0011848785215988755, -0.002580787055194378, -0.0023323579225689173, 0.004406352061778307, -0.007908950559794903, 0.0037107462994754314, -0.004271999467164278, 0.00106619275175035, -0.001771980314515531, 0.01028987392783165, 0.007775125093758106, 0.01154765859246254, 0.0021634837612509727, 0.0005323170335032046, 0.0002820887602865696, 0.004756796173751354, -0.0164759811013937, 0.010818537324666977, -0.021510832011699677, -0.0019458222668617964, -0.010003594681620598, 0.004498347174376249, -0.011096702888607979, -0.007005058228969574, -0.007288212422281504, -0.0045397114008665085, -0.0038072182796895504, -0.005903682205826044, -0.003754685167223215, 0.004825849086046219, -0.005659000016748905, -0.0015817147213965654, -0.007339112460613251, -0.0006370052578859031, -0.0075139799155294895, -0.007043179590255022, -0.003937366884201765, 0.0025121874641627073, 0.0014911084435880184, -0.0009166605304926634, 0.0007840005564503372, 0.007521825842559338, -0.0027480460703372955, -0.00028188645956106484, -0.002510563936084509, 0.00881250575184822, -0.00635954225435853, 0.007644957862794399, 0.003732439363375306, -0.0018782780971378088, -0.003203882370144129, -0.002844439120963216, 0.002015656093135476, -0.004157543648034334, 0.0041073341853916645, -0.006408257409930229, -0.004388445056974888, -0.004836424719542265, 0.014064081944525242, 0.006576265674084425, 0.013389952480793, 0.004459446296095848, 0.011855347082018852, 0.00297346618026495, 0.003911592531949282, -0.012878981418907642, 0.0065359435975551605, -0.013253044337034225, 0.0013944025849923491, -0.0010701954597607255, 0.005488392896950245, 0.007798322476446629, 0.004734619054943323, 0.00681401789188385, 0.00364708062261343, 0.013673156499862671, 0.004689534194767475, -0.0006870704819448292, 0.006211783271282911, 0.009901957586407661, -0.00860049668699503, 0.01663508452475071, -0.0038569022435694933, -0.01081544253975153, -0.0010272497311234474, 0.0015185666270554066, 0.006991832982748747, 0.007002774626016617, 0.006778467912226915, 0.002309159841388464, -0.0010877239983528852, 0.00021782575640827417, -0.002099184086546302, -0.007145963609218597, 0.002522794995456934, -0.0010438624303787947, 0.0037095656152814627, -0.007780245039612055, -0.005537823773920536, 0.0036155867855995893, -0.0020876594353467226, -0.00694493530318141, -0.0006710044108331203, -0.004106977954506874, 0.002610804047435522, -0.0023747903760522604, 0.0002723438374232501, 0.00245267478749156, -0.001993854995816946, 0.007167524192482233, 0.0011394498869776726, -0.000524068484082818, -0.003620717441663146, -0.0005472222110256553, -0.009414872154593468, 0.0017870152369141579, -0.015294999815523624, -0.0009062833851203322, 0.007588289678096771, -0.0004877672763541341, -0.002077138051390648, -0.0033580928575247526, 0.004659674130380154, -0.0073021757416427135, 0.006371464114636183, -0.0007070680148899555, -0.0001971304591279477, 0.003744265530258417, -0.0081161018460989, 0.007134533487260342, -0.006140383891761303, 0.003931547049432993, -0.010450475849211216, -0.0020729016978293657, 0.005804389715194702, -0.00013321783626452088, -0.006323648616671562, -0.0015054771210998297, 0.0006336475489661098, -0.000742946460377425, -0.0073187206871807575, 0.0008268283563666046, -0.004105584230273962, -0.004231207072734833, -0.00286566698923707, -0.0023506218567490578, 0.002331358613446355, -0.00011002569226548076, -0.0007200330728664994, -0.006589462514966726, -0.005146862007677555, -0.00949573889374733, -0.002928059548139572, -0.004354363773018122, -0.004531283397227526, 0.0009411679930053651, -0.007117954548448324, 0.012786579318344593, -0.006580159533768892, 0.009664192795753479, 0.002620111918076873, -0.0005890271859243512, 0.0006000341381877661, 0.0023942533880472183, -0.0017901149112731218, 0.002331235446035862, 0.0004063569358550012, -0.0023877208586782217, 0.0025404179468750954, -0.0007745542097836733, 0.003986915107816458, -1.40546471811831e-05, 0.004225478507578373, -0.006329796276986599, -0.0030278856866061687, -0.0017616742989048362, -0.00013346040213946253, 0.00020781607599928975, 0.0012536355061456561, -0.002868098206818104, 0.003474582452327013, 0.0018659599591046572, 0.0032859400380402803, -0.002403196645900607, -0.004872004967182875, -0.002258890774101019, 0.0006795299123041332, -0.0007830532267689705, -0.0006554345600306988, -0.0055105010978877544, -0.0017834921600297093, 0.00027062647859565914, 0.008302039466798306, -0.00158008374273777, 0.00945240631699562, -0.008121779188513756, 0.0030167964287102222, -0.004778236150741577, -0.006166755221784115, 0.006105966400355101, -0.001787579501979053, 0.0027541080489754677, -0.0063886442221701145, 0.0033557037822902203, 0.001082544680684805, 0.002515300177037716, 0.004537080880254507, 0.0045168520882725716, -0.003810667898505926, 0.013897939585149288, 0.004688700661063194, -0.003384576877579093, -0.00834641046822071, -0.009004724211990833, -0.012014931067824364, -0.0049039763398468494, -0.011218121275305748, -0.0035072406753897667, 0.0025417546276003122, 0.0019525671377778053, 0.0015583294443786144, -0.0030503927264362574, -0.0011572688817977905, 0.006366061512380838, 0.003855052636936307, -0.008298687636852264, 0.0021667033433914185, -0.009037128649652004, 0.0021973655093461275, 0.0011203023605048656, 0.005090782418847084, -0.001435422571375966, -0.0037049781531095505, -0.008195186033844948, -0.007333193439990282, -0.004994963761419058, -0.01180319581180811, -0.0008675702847540379, -0.0014441738603636622, -0.003537295386195183, 0.00048662401968613267, 0.002984320977702737, 0.002309523057192564, 0.005026162136346102, 3.7592020817101e-05, -0.0001595983630977571, 0.0017845452530309558, 0.008534582331776619, 0.007900322787463665, 0.009654863737523556, 0.00189691293053329, -0.002386875217780471, 0.0028175460174679756, -0.003351574996486306, 0.014421521686017513, -0.006925512570887804, 0.01523752510547638, -0.003914965316653252, -0.0002451265463605523, -0.008192687295377254, 0.001921274233609438, -0.016416283324360847, -0.0007497586193494499, -0.015580407343804836, -0.005686153192073107, 0.004781361203640699, 0.0050130183808505535, -0.004379553720355034, 0.020159728825092316, 0.013616684824228287, 0.01581317000091076, 0.005409660749137402, 0.0035096085630357265, -0.0011230837553739548, -0.001557022682391107, -0.007161147892475128, 0.002073399955406785, -0.005010366905480623, 0.0061033181846141815, -0.0011757852043956518, 0.003022375050932169, 0.007889216765761375, -0.0008191101951524615, 0.00235733506269753, -0.003593497211113572, -0.003975999541580677, 0.0030414252541959286, 0.0024370013270527124, 0.005809720605611801, -0.0013243632856756449, -0.0059828502126038074, 0.0010757865384221077, -0.003159165848046541, 0.0038819527253508568, -0.0035248654894530773, -0.0004343120672274381, 0.0033299068454653025, 0.0013522068038582802, 0.0060350289568305016, -0.005038282833993435, -0.003916004206985235, -0.0019167696591466665, -0.0028428416699171066, -0.004457963164895773, 0.004179536364972591, -0.0036470359191298485, 0.010606003925204277, 0.004906924441456795, -0.0023906228598207235, 0.0081548523157835, 0.0005648421356454492, 0.006125380750745535, 0.002308210125193, 0.007513884454965591, -0.0027864614967256784, -0.0019731582142412663, -0.000928840774577111, -4.366302164271474e-05, -0.0034502362832427025, 0.0014133622171357274, 0.0025120354257524014, -0.004888372961431742, -0.003151209559291601, -0.0031310224439948797, -0.006270959507673979, -0.0023480451200157404, -0.008778117597103119, -0.0027558354195207357, 0.010618933476507664, -0.002092562848702073, -0.005616615526378155, 0.009796163067221642, -0.002406950807198882, 0.011506964452564716, -0.0031624427065253258, 0.007358049042522907, -0.0008614608668722212, -0.0007015565643087029, -0.006891340017318726, -0.000638137455098331, -0.007548680063337088, -0.0038832034915685654, -0.0036708293482661247, -0.002499651862308383, 0.0005471090553328395, 0.0007952856831252575, -0.00026210834039375186, 0.002241505542770028, -0.002796722808852792, -0.007891478016972542, -0.004488200880587101, -0.007539988961070776, -0.000573622586671263, 0.0038248468190431595, 0.0016840037424117327, 0.004652026109397411, 0.0005179891595616937, -0.0046548801474273205, 0.002357659861445427, 0.009940902702510357, -0.0011667563812807202, 0.008880777284502983, -0.0005022092373110354, 0.00635916693136096, 0.002896270016208291, 0.0021895463578402996, 0.003028423059731722, 0.007301912643015385, 0.0015562028856948018, 0.005071586929261684, -0.007978989742696285, -0.002514153951779008, -0.0033003538846969604, 0.00178105931263417, -0.0017702530603855848, -0.0014142760774120688, -0.001610565115697682, -0.005983552895486355, 0.0004243282019160688, -0.005051332525908947, -0.00024252934963442385, -0.0015939467120915651, 0.002377378288656473, -0.00048218428855761886, -0.013639533892273903, -0.007123367395251989, -0.003742310218513012, 0.0019990575965493917, 0.0016262729186564684, -0.0006529171951115131, 0.004115280695259571, 0.010029259137809277, 0.0036210627295076847, 0.00241471198387444, 0.007577342446893454, 0.0053751603700220585, 0.005763811059296131, 0.0035368979442864656, 0.008572433143854141, 0.010663180612027645, 0.0012953284895047545, 0.0016070205019786954, 0.00036417762748897076, 0.0037013308610767126, 0.0026206006295979023, 0.012625366449356079, 0.0032466358970850706, 0.0016554229659959674, 0.010447358712553978, 0.006663765758275986, 0.007332096807658672, 0.004049129318445921, 0.006992811802774668, 0.006151795387268066, 0.0006982445484027267, 0.0014108968898653984, -0.008838062174618244, -0.0011825934052467346, -0.008329646661877632, 0.006582189351320267, -0.0038891928270459175, -0.0020703694317489862, 0.00786726176738739, 0.006331407930701971, 0.009008041583001614, 0.00577520253136754, 0.003822163213044405, -0.0007249267655424774, 0.006217947695404291, -0.004757625982165337, 0.013128899037837982, -0.0023334177676588297, 0.008208604529500008, -0.0013948848936706781, 0.0031434190459549427, -0.0006908020004630089, -0.004220621194690466, 0.0025558320339769125, -0.0030270274728536606, 0.0002375835319980979, -0.00308398250490427, -0.0018368000164628029, -0.0019830353558063507, -0.008859691210091114, -0.00454272935166955, -0.008802544325590134, -0.004588013049215078, -0.008389679715037346, 0.0009166633244603872, -0.0004858059110119939, -0.014098081737756729, 0.0031286689918488264, -0.012969848699867725, 0.0017388398991897702, -0.009167484939098358, 0.00027701398357748985, -0.0017039248486980796, -0.006218101363629103, 0.0014323664363473654, -0.005823067389428616, -0.00022204841661732644, -0.0014222521567717195, -0.003932176623493433, 0.011082536540925503, -0.001964373281225562, -0.006508211605250835, -0.0018520914018154144, -0.00628155842423439, -2.0324718207120895e-05, -0.0001814714923966676, -0.00010526600817684084, 0.0037654333282262087, 0.0004188355233054608, 0.005292658228427172, 0.0012813920620828867, -0.0018101782770827413, -0.0015758799854665995, 5.949934711679816e-05, -0.0028028502129018307, -0.003553205169737339, -0.001516381511464715, -0.004088371526449919, -0.0022973446175456047, -0.0032457399647682905, -0.0010778994765132666, -0.006134850438684225, 0.006718392483890057, -0.007045478094369173, 0.0038104525301605463, 0.0004982788814231753, 0.0028709410689771175, 0.0032547321170568466, -0.007522696163505316, -0.011260678991675377, -0.0022606325801461935, -0.00901141855865717, -0.008651907555758953, -0.006885587703436613, -0.005003652069717646, 0.01969301514327526, -0.003636118723079562, 0.021463332697749138, -0.0068008778616786, -0.007884008809924126, 0.0024969931691884995, 0.0016179959056898952, -0.001228520879521966, -0.0036499155685305595, -0.0005728791002184153, 0.0034117810428142548, -0.0035549558233469725, -0.005358939524739981, 0.004271198995411396, -0.010920950211584568, -0.002298368839547038, -0.008655626326799393, -0.003624996868893504, -0.0010230506304651499, -0.0062048486433923244, -0.0038209918420761824, 0.00443195179104805, -0.0004500980721786618, 0.002928381785750389, 0.0011096899397671223, 0.011954613029956818, 0.008466777391731739, -0.0014002862153574824, -0.010786033235490322, 0.0012996194418519735, -0.006219249218702316, 0.0049881949089467525, -0.009991931729018688, -0.0019508980913087726, -0.004542578011751175, -0.0010064519010484219, 0.004476811271160841, -0.00028772163204848766, 0.005125346593558788, 0.0014522609999403358, -0.0006412024958990514, -0.00031556072644889355, 0.0050088814459741116, -0.006255425978451967, 0.004191008396446705, -0.005346913356333971, -0.015752358362078667, -0.004469308070838451, -0.0034346880856901407, -0.0034975800663232803, 0.0056696985848248005, -0.00786446500569582, 0.006828398443758488, 0.008086616173386574, 0.0012345830909907818, -0.002070304937660694, -0.017940672114491463, -0.00461321696639061, -0.013220832683146, -0.004028609488159418, 0.0018330280436202884, 0.0013443855568766594, 0.0007919273339211941, 0.007870098575949669, 0.005885349586606026, 0.0066541703417897224, 0.003739601466804743, 0.007866094820201397, -0.0007203802815638483, 0.0004624519497156143, 0.0016881851479411125, 0.0032885968685150146, 0.000569008057937026, 0.006061974447220564, 0.004362036939710379, 0.0026557520031929016, -0.0005481637781485915, -0.006339242681860924, -0.0011499897809699178, -0.0006063350010663271, -0.0025606707204133272, -0.0004969063447788358, -0.003514365991577506, -0.004804966505616903, -0.0052933539263904095, 0.002618120051920414, -0.007786754053086042, 0.0014833270106464624, -0.009019032120704651, 0.005664602387696505, 0.003774078330025077, 0.005485917441546917, 0.005628208629786968, 0.0045646782964468, -0.0023133866488933563, -0.006213088985532522, 0.0005894664791412652, -0.004724751226603985, 0.015482851304113865, 0.00928951520472765, 0.014520146884024143, 0.008106101304292679, 0.02339894510805607, 0.005704261362552643, -0.0013402254553511739, 0.006548590026795864, 0.0007542734383605421, 0.007589326240122318, -0.003927044570446014, 0.003847018349915743, -0.0038467170670628548, -0.00158788135740906, -0.013497894629836082, -0.0029738135635852814, -0.01301103737205267, -0.006425104103982449, -0.001582643948495388, -0.0016945709940046072, 0.0032752433326095343, -0.00015060027362778783, 0.00027097095153294504, -0.0021423236466944218, 0.004375765565782785, -0.00205397792160511, 0.00196169619448483, -0.003483153646811843, 0.008557087741792202, 0.005975416395813227, 0.010968346148729324, 0.00035388069227337837, 0.004707229323685169, -0.00031822736491449177, -0.010143443010747433, -0.014763262122869492, -0.008140366524457932, -0.01535551343113184, -0.0009601361234672368, 0.0068444241769611835, 0.0006519316812045872, 0.007121445145457983, -0.0012671892764046788, 0.004298099782317877, -0.001967925112694502, 0.0003140728804282844, 0.007091710343956947, 0.0002104032173519954, 0.0024693922605365515, 0.004548663739115, 0.0016366471536457539, 0.005503411404788494, -0.0014719602186232805, 0.002268772106617689, -0.005260760895907879, -0.009479031898081303, 0.006733584683388472, -0.005641050636768341, 0.007600617129355669, -0.006919804494827986, -0.0005851646419614553, -0.002559380140155554, -0.005759491119533777, 0.0008795277681201696, -0.010072149336338043, 0.0034637474454939365, -0.0031018403824418783, -0.005280360113829374, -0.0032477204222232103, 0.000900867918971926, 0.005596748553216457, 0.004546521231532097, 0.002927713794633746, 0.0065156822092831135, 0.005756483878940344, 0.002167547820135951, 0.007815554738044739, 0.005598549731075764, 0.008894908241927624, 0.00424592662602663, 0.006588180083781481, 0.00440750690177083, 0.0029553300701081753, -0.0023082029074430466, -0.002746454905718565, 0.0027500982396304607, 0.0008273469866253436, 0.0012646317481994629, 0.0027854901272803545, 0.0011506127193570137, 0.002720842370763421, 0.005302009638398886, -0.0006141947815194726, 0.0055494848638772964, -0.0069327144883573055, 0.0016149366274476051, -0.0021160398609936237, -0.005153339821845293, 0.0030289050191640854, -0.00039412546902894974, 0.0044018421322107315, -0.006193054374307394, -0.007788165472447872, -0.001619674963876605, 0.00011994806845905259, 0.01495988480746746, 0.0002825118717737496, 0.01841091178357601, 0.0017597607802599669, -0.005527598783373833, -0.005691212601959705, -0.0009138383902609348, 0.0036120563745498657, 0.0030814846977591515, 0.006004890892654657, -0.0002785368706099689, 0.0124592836946249, 0.002523919567465782, 0.0015251340810209513, 0.0012908721109852195, 0.00433806236833334, 0.0021548671647906303, 0.0014538969844579697, -0.006687421817332506, -0.002804031129926443, -0.0035421878565102816, 0.004635104443877935, -0.002609880641102791, 0.0044756378047168255, -0.002304920693859458, -0.0035864354576915503, -0.0038827857933938503, -0.000541160290595144, -0.008979986421763897, -0.0030720627401024103, -0.008033639751374722, -0.0015201607020571828, -0.0007764924666844308, 8.556505781598389e-05, -0.0023569113109260798, 0.007383376359939575, -0.006757569499313831, 0.005684440955519676, -0.0061968290247023106, 0.005047278944402933, -0.0012127221561968327, -0.004573826212435961, -0.0013880775077268481, -0.0026852781884372234, 0.007068177685141563, 0.00305197318084538, -0.001560764852911234, 0.0015109177911654115, 0.0034084187354892492, -0.0015538705047219992, -0.007198290899395943, 0.0010640178807079792, -0.014464429579675198, -0.015520352870225906, 0.00333125377073884, -0.00043754695798270404, 0.006416941061615944, -0.008838565088808537, 0.007842626422643661, -0.002881215885281563, -0.011980833485722542, -0.005064730532467365, 0.001796996220946312, -0.012424986809492111, -0.00697168055921793, -0.0072708455845713615, 0.002230308251455426, -0.011752909049391747, -0.006848372984677553, -0.0013379274168983102, -0.005972127430140972, -0.0029294064734131098, -0.006351956166327, -0.008934271521866322, -0.0025416892021894455, -0.0009547934168949723, -0.004641361068934202, -0.0034996464382857084, 0.00467835646122694, -0.0017314304132014513, 0.00010587651922833174, 0.001973299775272608, -0.0019868300296366215, -0.0042457845993340015, 0.004451310727745295, -0.0006154103903099895, 0.000468954152893275, -0.003136723767966032, 0.0008361448999494314, -0.003962086979299784, 0.0018734474433586001, 0.009346943348646164, -0.00494820112362504, 0.0069139013066887856, -0.006046751048415899, 0.002459542592987418, -0.003856613300740719, -0.002579650841653347, 0.003674703184515238, 0.002826686017215252, -0.0020400797948241234, 0.0031018818262964487, 0.015240827575325966, 0.004121449775993824, -0.001816404052078724, 0.0025758231058716774, 0.005554143339395523, -0.0003056321293115616, -0.00657682353630662, 0.00906558521091938, -0.0031250978354364634, -0.003536864649504423, -0.0038311046082526445, -0.002180801471695304, -0.005591350141912699, 0.004753156565129757, 0.0025564469397068024, -9.330688044428825e-06, 0.005997934844344854, -0.00687198294326663, 0.002829295117408037, -0.007594313472509384, 0.006881830282509327, -0.008049032650887966, -0.002542132278904319, 0.001747888047248125, 0.004964266903698444, -0.0028903591446578503, 0.001829652232117951, -0.00547395134344697, 0.008000507019460201, 0.0002816979540511966, 0.0021922660525888205, 0.005683476105332375, -0.006426054984331131, 0.003103589406237006, -0.004468746483325958, 0.009652785956859589, 0.003970502410084009, -0.004789627157151699, 0.0015103707555681467, -0.0038058864884078503, 0.005592504516243935, -0.0043077534064650536, -0.008314492180943489, 0.003959060180932283, 0.0017824491951614618, 0.012879676185548306, -0.005499092396348715, 0.01888464018702507, -0.012101489119231701, -0.009590337052941322, -0.00320486375130713, -0.0016601559473201632, -0.011280902661383152, -0.000380596611648798, -0.014292431995272636, 0.0021970460657030344, -0.0076971035450696945, -0.005702271591871977, 0.0025513076689094305, 0.021119218319654465, 0.0031414388213306665, 0.016786949709057808, 0.005058177746832371, 0.008719292469322681, 0.0007533092284575105, 0.004592284560203552, -0.01963912695646286, -0.003175449324771762, -0.02241675555706024, -0.003056637942790985, 0.004114262294024229, 0.003985685296356678, 0.0018410795601084828, 4.620617255568504e-05, 0.002429340733215213, -0.0032125439029186964, 0.0001093213795684278, 0.008873960003256798, 0.006615027319639921, 0.0019453437998890877, 0.0035577453672885895, -0.004501338116824627, 0.005269203335046768, 0.004224586766213179, -0.006785961799323559, 0.004430027678608894, 0.012616248801350594, 0.0032230974175035954, -0.0038055020850151777, 0.005699502769857645, -0.00275234947912395, 0.0037035795394331217, 0.0003511480172164738, 0.003583631943911314, 0.0062947929836809635, 0.006882567889988422, 0.004984002094715834, 0.00794267188757658, -0.007680433802306652, 0.0013678560499101877, 0.0028511120472103357, -0.008014671504497528, -0.0013997788773849607, -0.010745064355432987, 0.002695821225643158, -0.01094546914100647, -0.0015664352104067802, -0.0021189788822084665, -0.0035895812325179577, -0.00630963547155261, -0.00435459753498435, -0.010977337136864662, 0.006840608548372984, 0.007752906531095505, 0.0017116190865635872, 0.003112182952463627, -0.0043494319543242455, 0.0014609459321945906, -0.002508876845240593, -0.00373615394346416, -0.0014220916200429201, -0.008603671565651894, -0.005556529387831688, -0.008326776325702667, -0.009017959237098694, -0.008117233403027058, -0.0004218874382786453, -7.31373147573322e-05, 0.0005707668024115264, -0.004658189602196217, -0.011001824401319027, 0.0011935848742723465, -0.008676502853631973, -0.015713656321167946, -0.006327596493065357, -0.004736105911433697, 0.006269817240536213, -0.001472174422815442, 0.013949280604720116, 0.0005515232332982123, 0.0003805444575846195, -0.002665265230461955, 0.0033540306612849236, -0.00046071631368249655, 0.012118283659219742, -0.0015522278845310211, -0.0007351612439379096, 0.004268882796168327, 0.00668066181242466, -0.0009792253840714693, 0.009006334468722343, -9.497563587501645e-05, 0.005645125173032284, -0.0014939892571419477, 0.007220589555799961, 0.0021494675893336535, -0.00033178014564327896, -0.007611495908349752, -0.00012535481073427945, -0.005167846567928791, -0.002666159998625517, -0.011671237647533417, -0.007017015479505062, -0.00301214586943388, -0.005231866147369146, 0.003519701538607478, -0.004605266265571117, 0.002029710914939642, 0.004667920991778374, 0.003936660010367632, -0.004030915442854166, 0.0040296283550560474, -0.0067426543682813644, 0.0025390221271663904, -6.068273796699941e-05, -0.0009480962180532515, -0.0035964909475296736, 0.0034724068827927113, 0.001686795148998499, -0.01050498802214861, -0.002055455930531025, -0.007137020584195852, 0.010337462648749352, -0.002675269963219762, 0.0024268473498523235, -0.0033976014237850904, 0.0005986329051665962, -0.003527090884745121, 0.000229818862862885, -0.01288685668259859, 0.0007690479978919029, -0.0031705196015536785, 0.002351208124309778, 0.006817029323428869, 0.0013707205653190613, 0.004823586437851191, 0.0012860643910244107, 0.0039938162080943584, -0.0006142495549283922, -0.014961444772779942, -0.004261719062924385, -0.01610572449862957, -0.004034814890474081, -0.004318134859204292, -0.0019342615269124508, 0.00035776704316958785, -0.00330760283395648, -0.0027900056447833776, -0.0015007787151262164, 0.003537686076015234, 0.0006558535969816148, 0.0026085609570145607, -0.005270879715681076, 0.008643710985779762, -0.008356371894478798, 0.005996288266032934, -0.006228041369467974, 0.01112620159983635, 0.0034074990544468164, 0.0025248799938708544, 0.0009812206262722611, -0.0022665783762931824, 0.0016793261747807264, 0.004480923525989056, -0.0035516663920134306, -0.0018624153453856707, 0.007110779173672199, 0.004135771654546261, 0.007235098630189896, 0.0023189380299299955, 0.0008707810193300247, 0.010240463539958, 0.0008951328927651048, 0.001739473082125187, -0.009740483947098255, 0.0015877573750913143, -0.0127269197255373, -0.0033574665430933237, -0.00557909207418561, 0.002779144560918212, -0.002698057796806097, 0.0027714285533875227, -0.005370207130908966, 0.007123864721506834, -0.008236264809966087, 0.0010263004805892706, 8.80779989529401e-05, -0.00402430072426796, -0.0015592114068567753, 0.00888809747993946, -0.0007003680802881718, 0.003252438735216856, 0.004120368976145983, -0.0023961886763572693, 0.0036338469944894314, -0.0016632998595014215, -0.004622745327651501, 0.00017207604832947254, 0.0009478878346271813, -0.00024373643100261688, -0.0014998681144788861, -0.00016888690879568458, -0.00791396014392376, -0.0021749441511929035, -0.005517813842743635, -0.004346539732068777, -0.00344291515648365, 0.0076935263350605965, -0.001677915919572115, 0.009236742742359638, 0.0029047720599919558, 0.010207372717559338, -0.009479421190917492, 0.011182841844856739, 0.004010380245745182, -0.001771424780599773, -0.0010924242669716477, 0.0005172747187316418, -0.002972997725009918, 0.0014938963577151299, -0.001582048600539565, -0.005044272635132074, -0.007349714171141386, -0.004096858203411102, -0.011189563199877739, -0.002616320038214326, 0.00032005319371819496, -0.0065915524028241634, -8.045067079365253e-05, 0.003029793966561556, -0.001126947347074747, 0.003318930510431528, 6.639610364800319e-05, 0.0016143863322213292, 0.010931809432804585, 0.0053030336275696754, 0.0043294476345181465, 0.0065556117333471775, -0.0012682079104706645, 0.007761415559798479, 0.00031777936965227127, -0.006504590157419443, -0.0016862723277881742, 0.0015865947352722287, -0.0066799260675907135, 0.0022917003370821476, -0.003586801700294018, 0.005190632306039333, -0.007434312719851732, 0.000272918667178601, -0.001740449108183384, -0.0018100941088050604, 0.007505198009312153, -0.0012156597804278135, 0.0062148068100214005, 0.00036195776192471385, 0.001063210773281753, 4.286467446945608e-05, -0.0014810669235885143, -0.003942809998989105, -0.0011957663809880614, -0.007391402497887611, -0.0011595626128837466, 0.0010094300378113985, -0.0018199934856966138, -0.0091806435957551, 0.004539173562079668, -0.010250816121697426, 0.0042035458609461784, -0.007826078683137894, 0.0025657382793724537, -0.00032671549706719816, -0.005254144314676523, 0.004744169767946005, -0.0023162374272942543, 7.411721162497997e-05, -0.004240216687321663, -0.008533313870429993, -0.0008412364986725152, -0.012620961293578148, 0.006072969641536474, -0.01344616524875164, 0.008454345166683197, 0.00800248607993126, -0.004284248687326908, -0.0007491152500733733, 0.0025645277928560972, 0.0009947544895112514, 0.007977171801030636, -0.0004342748725321144, -0.00014328793622553349, -0.0005767376278527081, -0.00020685067283920944, 0.008297638967633247, 0.008279064670205116, 0.007374265231192112, 0.003691295627504587, -0.005768744740635157, 0.0020359486807137728, 0.00021690683206543326, -0.013084801845252514, 0.0010349007789045572, -0.010040394961833954, 0.002004078356549144, -0.002555252518504858, 0.0020362974610179663, 0.0023140492849051952, -0.0023547951132059097, -0.0037096734158694744, -0.001072417013347149, -0.007225751876831055, 0.003294315654784441, -0.005057637579739094, -0.004522185772657394, 0.007136609870940447, 0.005181819666177034, 0.00700942799448967, -0.0035635654348880053, 0.0004951494629494846, 0.005249037407338619, -0.0074015213176608086, -0.0006222523516044021, 0.006850449834018946, 0.0012388909235596657, 0.005042965058237314, -0.0062527526170015335, -0.0020157305989414454, 0.0021445471793413162, -0.02226104773581028, -0.00731250224635005, -0.019105752930045128, 0.00664899405092001, -0.002008619252592325, -0.00023170036729425192, 0.005289383698254824, 0.007146353367716074, 0.005369953811168671, 0.002662800019606948, 0.0070596192963421345, 0.017065050080418587, 0.0020279684104025364, 0.004210038110613823, -0.000811319681815803, 0.0007671833736822009, -0.000509004108607769, 0.006538527552038431, -0.009462067857384682, -0.007810930721461773, -0.0012653786689043045, 0.005256992764770985, -0.002267269417643547, 0.0047578150406479836, -0.0020984397269785404, -0.0020845660474151373, -0.0031260205432772636, -0.0015306543791666627, 0.008897107094526291, 0.0036584087647497654, 0.004656761884689331, 0.0024527981877326965, 0.006462874822318554, 0.008577403612434864, 0.007827560417354107, -0.0023828798439353704, -0.005130887031555176, -0.005824676249176264, -0.00928245298564434, 0.004724545869976282, -0.0001343924959655851, -0.00144516013097018, -0.005062843672931194, 0.007967134937644005, -0.004866337403655052, 0.0007211014744825661, 0.00932414922863245, 0.005741115193814039, 0.0028677897062152624, -0.004349125549197197, -0.004227474797517061, -0.005660234950482845, -0.00597015768289566, -0.009071219712495804, -0.0038843126967549324, -0.003299704287201166, -0.006991080939769745, -0.00130196544341743, -0.004397125914692879, -0.002444615587592125, -0.006695792078971863, -0.0073735881596803665, -0.005957302637398243, -0.0012469799257814884, -0.0014033287297934294, -0.0026835729368031025, -0.006419154349714518, -0.008978718891739845, -0.0024973293766379356, 0.0012835203669965267, -0.003750464878976345, 0.0035998153034597635, -0.0043943533673882484, -0.0003890704829245806, -0.006708458997309208, 0.001512644812464714, -0.004370544571429491, 0.0015496114501729608, 0.0017806823598220944, 0.0017561792628839612, 0.0014628112548962235, 0.003230801085010171, -0.0036529607605189085, 0.004237188957631588, -0.0052393400110304356, -0.0006299901870079339, -0.00299230613745749, 0.006370152346789837, -0.006227621342986822, -1.9816143321804702e-05, 0.006014526356011629, 0.009221447631716728, 0.00143109867349267, 0.009391313418745995, -0.0018579632742330432, 0.012519746087491512, -0.0009263001848012209, -0.0034829003270715475, 0.00415575597435236, -0.00498428987339139, 0.004483495838940144, -0.0022952863946557045, 0.00020084541756659746, 0.004490017890930176, 0.0036859922111034393, 0.0007967639248818159, 0.007454195525497198, -0.00026816644822247326, 0.001259808661416173, 0.003485484980046749, 0.008760415017604828, -0.005837674252688885, 0.00012947991490364075, 0.0005987738259136677, -0.0002504188450984657, -0.0037000938318669796, 0.0010753340320661664, -0.0010744609171524644, 0.0014335823943838477, -1.6642967239022255e-05, -0.003654684405773878, -0.005859780125319958, -0.011151873506605625, -0.002386388136073947, -0.0005619526491500437, -0.00748090585693717, 0.0011848966823890805, 0.00032830884447321296, 7.319211727008224e-05, 0.0015875597018748522, -0.008838092908263206, 0.0055460878647863865, 0.005510048475116491, -0.0030847126618027687, 0.0008925284491851926, 0.0005784687818959355, 0.0014236667193472385, -0.008395751938223839, 0.001499202917329967, 0.00216158339753747, 0.0002692861598916352, 0.006603708025068045, -0.0009706187411211431, -7.760143489576876e-05, -0.0027826628647744656, -0.004308260045945644, -0.004402577877044678, -0.0035165613517165184, 0.006215491332113743, -0.006926292087882757, 0.004217064473778009, 0.008628170005977154, 0.004798419773578644, 0.004065479151904583, 0.0008780101779848337, 0.003831706941127777, 0.003375000786036253, 0.0041049811989068985, 0.011172128841280937, 0.006731691304594278, 0.005829886998981237, 0.0068452199921011925, -0.001888446626253426, 0.0069870902225375175, 0.0008874265477061272, 0.0022900437470525503, 0.003429500851780176, 0.0039024543948471546, -1.2249452993273735e-05, -0.001368788187392056, -0.0009458474814891815, -0.0034454227425158024, 0.0077388714998960495, 0.0037589347921311855, 0.00349133531562984, -0.003303256817162037, -0.007135402876883745, -0.005474634002894163, -0.012955144979059696, 0.010643793269991875, 0.0021171467378735542, -0.004537480417639017, 0.0038754120469093323, -0.00626291474327445, 0.003161800792440772, -0.0023182614240795374, -0.0026980892289429903, -0.0030092692468315363, 0.004475293215364218, -0.010241147130727768, -0.005206814967095852, -0.011523231863975525, -0.007640879601240158, -0.004035228863358498, 0.0050348942168056965, 0.0005516494857147336, -0.006691892631351948, 0.0004956835182383657, -0.006539595779031515, 0.0005239500314928591, 0.003470740281045437, 0.001373501494526863, -0.004729319363832474, 0.0019557802006602287, 0.001840357668697834, 0.0006446251063607633, 0.007740274537354708, 0.011590485461056232, -0.0010860385373234749, 0.00554504431784153, 0.005711687263101339, 0.002134148497134447, 0.008681976236402988, 0.001388472504913807, 0.005122798960655928, 0.008695514872670174, 0.0039705755189061165, -0.003360423492267728, 0.0021643545478582382, -0.0044418335892260075, 0.013232942670583725, -0.00237869075499475, -0.003537760814651847, 0.0030656198505312204, 0.0023470292799174786, -0.006068894173949957, 0.000953194685280323, -0.0025663070846349, 0.00495612807571888, 0.0014243924524635077, 0.0030297073535621166, -0.001066485419869423, -0.002415763447061181, -0.004761832300573587, -0.0006060746964067221, 0.009149270132184029, 0.0075026317499578, 0.009532788768410683, -0.0015569557435810566, -0.0012801454868167639, -0.0011840350925922394, 0.005306740291416645, 0.0006073159165680408, 0.0020884093828499317, 0.0007310109212994576, -0.00042759309872053564, -0.0038942478131502867, 0.0017435329500585794, -0.009246353060007095, -0.007516694255173206, -0.005709158722311258, -0.00870409794151783, -0.004837387707084417, 0.004544652532786131, -0.00865550059825182, -0.0009713902836665511, 0.01396305300295353, 0.0073035117238759995, -0.0074230218306183815, -0.011754391714930534, 0.0037692394107580185, -0.012747028842568398, 0.002546404954046011, 0.0002033138880506158, 0.00132897833827883, 0.0009884200990200043, 0.006399575155228376, -0.01050255075097084, 0.0037550770211964846, -0.01777883805334568, 0.01600349135696888, -0.0005512645584531128, -0.004077824763953686, 0.009429264813661575, -0.003748931223526597, 0.00983131118118763, 0.0023995779920369387, -0.007055798079818487, 0.0013845587382093072, 0.001996600069105625, -0.0071675437502563, -0.0007713579689152539, -0.007668392267078161, 0.0005655033164657652, 0.011482404544949532, 0.005915145855396986, 0.0037815480027347803, 0.013069210574030876, 0.0032495108898729086, 0.01611650548875332, -0.00019301974680274725, -0.005262714345008135, -0.001263884361833334, 0.003694825805723667, 0.006971239577978849, -0.00019729803898371756, 0.0065798070281744, -0.004197271540760994, 0.0009459230350330472, 0.004916737787425518, -0.0012575724394991994, -0.008694113232195377, 0.0032747655641287565, -0.013284695334732533, -4.568888107314706e-05, -0.0031244088895618916, 0.0002692419511731714, 0.003909680526703596, 0.006392248906195164, 0.0002937726676464081, 0.008763137273490429, 0.0021918187849223614, 0.007490513846278191, 0.003020256059244275, 0.004175094421952963, -0.008930487558245659, 0.0010105128167197108, -0.0012246781261637807, 0.0018691534642130136, -0.006317834369838238, -0.0024973242543637753, -0.0010171853937208652, -0.001318461960181594, 0.01611543819308281, -0.0010835558641701937, 0.01431853137910366, -0.006286790128797293, 0.007998907007277012, 0.0032699699513614178, 0.002784621436148882, 0.004585972521454096, 0.003412846941500902, 0.002643386134877801, 0.0006666926201432943, -7.993720646481961e-05, 0.005319553893059492, -0.009019230492413044, 0.006582639180123806, -0.007322425022721291, 0.0023827047552913427, 0.0042746723629534245, -0.002271857811138034, 0.0006830539787188172, -0.020391421392560005, 0.0013457601889967918, -0.01908230036497116, 0.008043868467211723, -0.0007345059420913458, 0.0024642155040055513, -0.0008947491878643632, 0.012537353672087193, -0.006633354816585779, 0.014366013929247856, -0.00713361706584692, 0.006668861955404282, 0.00607077544555068, -0.0023033812176436186, -0.006381417624652386, -0.00032802167697809637, -0.0035143836867064238, -0.006672212388366461, -0.006824925076216459, -0.0030398904345929623, 1.2810196494683623e-05, 0.0011657261056825519, -0.009707765653729439, 0.0054784128442406654, -0.004147987812757492, -0.003024691017344594, -0.004047219641506672, -0.0013308305060490966, -0.00632691802456975, 0.0007693689549341798, -0.005930089857429266, -0.0027238125912845135, -0.0031301435083150864, -0.001709348289296031, -0.0003006652696058154, 0.0014275616267696023, 0.0074860104359686375, -0.0004257652908563614, 0.004741555079817772, 0.011573972180485725, 0.004126700572669506, 0.0037588845007121563, 0.001541939447633922, -0.0006466208724305034, 0.0007282726583071053, -0.002223963849246502, 0.00850588083267212, -0.003985842224210501, 0.0027607823722064495, 0.00829386804252863, 0.006497548893094063, 0.006092595402151346, -0.0022661585826426744, 0.005542423110455275, 0.0026228257920593023, -0.0066748810932040215, 0.0031438316218554974, -0.010836463421583176, 0.0001505297259427607, -0.005315321963280439, -0.00870334729552269, -0.0036274793092161417, 0.0010261943098157644, 0.0028496088925749063, -0.006872895173728466, 0.0007598017691634595, -0.0008638300932943821, 0.005666427779942751, -0.0007528733694925904, -0.0004537331114988774, -0.007139313500374556, -0.005108898505568504, -0.002948204055428505, -0.005929046776145697, 0.0016136409249156713, 0.002920928644016385, 0.001508296118117869, -0.0038225434254854918, 0.0036397704388946295, -0.0012065561022609472, 0.010319256223738194, -0.0021163439378142357, -0.003964475356042385, 0.008198603056371212, 0.00124122085981071, -0.002497568028047681, 0.0003787261084653437, -0.001105480594560504, -0.003486736211925745, 0.002160162664949894, 0.004724718630313873, 0.0025284751318395138, 0.0002977838448714465, 0.002826700685545802, -0.0024644441436976194, 0.0004978131619282067, -0.0032824864611029625, -0.002279184525832534, -0.0035597756505012512, 0.0004987342981621623, -0.0034349604975432158, 0.0022016933653503656, -0.007962534204125404, -0.007406005170196295, -0.0022750752978026867, 0.00542445620521903, 0.00143274269066751, 0.0036367233842611313, -0.002410690765827894, -0.00412106653675437, 0.0033167582005262375, -0.006950245704501867, 0.002437179908156395, 0.0007469477714039385, 0.0002859947271645069, -0.004342287313193083, 0.0096446443349123, 0.00663586612790823, -0.004606804344803095, 0.005114787258207798, -0.005054663401097059, 0.004267947748303413, -0.008384356275200844, 0.00419619819149375, 0.00278176530264318, -0.0021539030130952597, -0.008529409766197205, -0.001049521379172802, -0.015628589317202568, -0.004467406310141087, 0.003692569211125374, -0.0035591155756264925, -0.002152349567040801, 0.002466310514137149, 0.0014588646590709686, 0.008102291263639927, 0.0024910597130656242, -0.009927750565111637, 0.0030195447616279125, 0.002098401077091694, -0.001389599172398448, -0.0016428445233032107, 0.003217020770534873, -0.0050573344342410564, -0.004855649080127478, -0.0005936798406764865, -0.006230214145034552, 0.0019098538905382156, 0.003748711897060275, -0.00032360953628085554, 0.009070605039596558, -0.0002976821269840002, 0.0054771145805716515, 0.006855472922325134, 0.00155495828948915, -0.001535777933895588, 0.0014532450586557388, -0.00502292113378644, -0.007381132338196039, 0.0010348476935178041, -0.00016566275735385716, -0.01138232834637165, -0.006907376926392317, -0.007835221476852894, -0.0004180623509455472, 0.01027094665914774, -0.0010205962462350726, 0.0021781630348414183, 0.0002847121504601091, -0.002866677474230528, -0.0016275087837129831, -0.0015712114982306957, -0.008671026676893234, -0.0031018464360386133, 0.00016961120127234608, -0.0004379372112452984, 0.003907781559973955, -0.002911844290792942, 0.0020335388835519552, 0.0005203744512982666, 0.004921887069940567, -0.0034749871119856834, 0.0018277026247233152, -0.0014595328830182552, 0.0015487878117710352, -0.0020697787404060364, 0.007954400964081287, -0.0005755233578383923, -0.0040364316664636135, -0.00042121013393625617, -0.00815499946475029, 0.0037764031440019608, -0.012860939837992191, -0.010526876896619797, -0.007104735355824232, -0.0009024064638651907, 0.003999803680926561, 0.0016469042748212814, 0.006122097838670015, -8.62603192217648e-05, 0.0021942926105111837, -0.0019042431376874447, -0.00296869408339262, 0.001991181168705225, -0.0014389086281880736, 0.00327801750972867, 0.0012149089016020298, -0.003948026802390814, -0.004409431014209986, 0.00037232786417007446, 0.010618249885737896, -0.008507939986884594, 0.010252888314425945, -0.007579283323138952, 0.00495292479172349, 9.309180313721299e-05, -0.0012990284012630582, -0.0014665971975773573, -0.005626645404845476, -0.0015068850480020046, 0.0003720551903825253, -0.0007173340418376029, 0.002247974742203951, 0.0016465837834402919, 0.006372519303113222, -0.000634127005469054, 0.003996961284428835, -0.0028589542489498854, 0.0020958250388503075, 0.0019366611959412694, -0.0024486645124852657, -0.010063045658171177, -6.379044498316944e-05, -0.005128487478941679, -0.003896465990692377, -0.010126672685146332, 0.0011268414091318846, -0.0064964257180690765, 0.008255576714873314, 0.0027223164215683937, 0.009120437316596508, 0.007142167072743177, 0.0011957593960687518, -0.0053696283139288425, 0.0026986044831573963, 0.01152841281145811, 0.0005302401259541512, 0.009052123874425888, -0.0023411971051245928, -0.0015235450118780136, -0.0005534745287150145, -0.00583050400018692, 0.003992817830294371, 0.002595159225165844, 8.229419472627342e-05, 0.0072684502229094505, -0.008086425252258778, -0.013015608303248882, -0.0055352128110826015, 0.0038434313610196114, 0.010852622799575329, 0.00454528396949172, 0.007966890931129456, 0.005490501411259174, 0.0020065971184521914, 0.0007154137128964067, -0.00013337552081793547, -0.002369728870689869, -0.0006011618534103036, -0.003631500992923975, -8.010782767087221e-05, 0.0033036815002560616, 0.003210054012015462, 0.013177390210330486, -0.00479509262368083, 0.014132034033536911, -0.0010855498258024454, 0.0038664001040160656, 0.003832729533314705, 0.0010579719673842192, -0.006442873738706112, 0.00034845047048293054, -0.0032495115883648396, 0.005520247854292393, 0.0027835718356072903, 0.00015961320605129004, -0.0033988654613494873, -0.0009127722587436438, -0.0005246012005954981, 0.0033248448744416237, -0.0032669738866388798, -0.005131433717906475, -0.004314985126256943, 0.001364169642329216, -0.005180855747312307, 0.0030508460476994514, -0.004271880257874727, -0.0010208894964307547, -0.005175105761736631, -0.003762986045330763, -0.003715706756338477, 0.00033788406290113926, -0.003070192877203226, 0.0015365456929430366, -0.0032458100467920303, 0.0031108909752219915, -0.003328231628984213, -9.700440568849444e-05, -0.010597031563520432, -0.001607011305168271, -0.0139453811571002, -0.00735815754160285, 0.005049028433859348, -0.003390077268704772, -0.006965251173824072, -0.0009084887569770217, -0.0013778737047687173, 0.002788884099572897, 0.0007517519406974316, -0.004605545662343502, -0.0018202844075858593, 0.0005015023052692413, 0.0035640953574329615, 0.0043365079909563065, 0.003030773950740695, -0.0011050112079828978, -0.002623574109748006, -0.0040152063593268394, -0.0006189321866258979, 0.00025534810265526175, -0.00548711558803916, -0.0027159396559000015, -0.013274221681058407, 0.000705034239217639, 0.010482228361070156, 0.0016080864006653428, 0.0034656364005059004, 0.003751202952116728, 0.00411865534260869, 0.003420628374442458, 0.00619994243606925, 0.0005821670056320727, -0.0019457836169749498, -0.0036319391801953316, -0.006064536981284618, -0.0037270113825798035, -0.006082095671445131, 0.00620661536231637, 0.006725603248924017, 0.0022257226519286633, 0.0035599428229033947, 0.001043161959387362, 0.0004955681506544352, 0.007793006487190723, 0.010581479407846928, 0.005492659285664558, 0.0042670173570513725, 0.002324056113138795, -0.010942674241960049, 0.0012953842524439096, -0.005349551793187857, 0.008559925481677055, 0.0009751410689204931, 0.005463128909468651, 0.00010818877490237355, -0.00263125728815794, 0.0020005383994430304, -0.009981462731957436, -0.009093581698834896, -0.004445826169103384, -0.0017175113316625357, -0.00728183938190341, 0.00024417307577095926, -0.001845162594690919, -0.0023816425818949938, 0.006872650235891342, -0.002692705485969782, 0.002722725737839937, -0.004309346899390221, -0.0014878311194479465, -0.0059668924659490585, -0.0019175111083313823, 0.0030794364865869284, 0.001862416509538889, -0.00047578473458997905, 0.00929333083331585, 0.003860179102048278, 0.004654536955058575, -0.004299505148082972, 0.005346348043531179, -0.0013372001703828573, -0.0037733956705778837, 0.0047738561406731606, 0.005296419374644756, 0.0036048381589353085, 0.003079991787672043, 0.008500576950609684, 0.006261471193283796, -0.007479589898139238, 0.0075029949657619, -0.005307315848767757, 0.009234223514795303, -0.0019807186909019947, -0.003043500240892172, 0.0009283180115744472, -0.002960186218842864, -0.008717672899365425, -0.0004433499416336417, -0.009195709601044655, 0.008997885510325432, -0.003508541965857148, 0.0036354963667690754, 0.006141921505331993, 0.0007734514074400067, 0.0016566640697419643, -3.6208031815476716e-05, -0.0019259622786194086, 0.006913831923156977, -0.0005041341064497828, -0.002720415825024247, -0.002009329153224826, -0.016807876527309418, -0.0011161129223182797, -0.008272038772702217, -0.0005986389587633312, -0.0018803193233907223, 0.00010722498700488359, -0.012561215087771416, -0.0009063109755516052, -0.01964275911450386, 0.002091700443997979, -0.005763449240475893, 0.0011525668669492006, -0.00522961188107729, 0.0013755420222878456, -0.0010461903875693679, 0.002632478717714548, -0.002880492014810443, -0.0010094274766743183, 0.002809345256537199, 0.00026226340560242534, 0.0025437651202082634, -0.0002278704778291285, 0.0026961169205605984, 0.0019225559663027525, -0.013008726760745049, -0.003519208636134863, 0.0005249662790447474, 0.002867502626031637, -0.005254541058093309, 0.005947212688624859, -0.005906627047806978, -0.006443532183766365, 0.0008644854533486068, -0.0009421888389624655, -0.007755851373076439, -0.0005520809208974242, -0.006471020635217428, 0.0009107599616982043, -0.004000874236226082, -0.0012773014605045319, 0.0010397282894700766, -0.007243866100907326, -0.00839268323034048, -0.01256993506103754, -0.004590053576976061, 2.6096313376910985e-05, 0.0027995966374874115, 0.003535657888278365, 0.006196844391524792, 0.0008612007368355989, 0.007044303696602583, 0.005752491299062967, 0.0005984288291074336, 0.0021581463515758514, -0.0015113354893401265, 0.001879333984106779, 0.0036555423866957426, -0.0003496896824799478, -0.001085510361008346, 0.010478663258254528, 0.005575909744948149, -0.00308164837770164, -0.0009661526419222355, -0.0011308756656944752, 0.0005696332082152367, -0.0035658341366797686, -0.008215134032070637, -0.006161006633192301, -0.0023227718193084, 0.011274805292487144, 0.011047841981053352, 0.008886664174497128, 0.012494117021560669, 0.0027292859740555286, 0.002084090607240796, 0.001821075682528317, 0.0030890326015651226, 0.006590635981410742, 0.007769363932311535, 0.0009411455830559134, -0.0015865502646192908, 0.002372364979237318, 4.614790668711066e-05, 0.0006682333769276738, -0.000307440641336143, -0.00330420583486557, 0.0036616160068660975, -0.00025605104747228324, 0.0015610329573974013, 0.004206567071378231, 0.0020475084893405437, -0.00806181225925684, -0.0022089097183197737, -0.008274994790554047, -0.013707103207707405, -0.006715589668601751, -0.006525888107717037, 0.012912292033433914, -0.003980167210102081, 0.011472819373011589, -0.00964865181595087, 0.002566615352407098, 0.002178665716201067, -0.0005643552867695689, -0.0035614490043371916, -0.004595852456986904, 0.0061492398381233215, 0.0007736440747976303, -0.011647364124655724, -0.008610143326222897, -0.00281155644915998, 0.011229770258069038, -0.004509462509304285, 0.007132220081984997, 0.0021769467275589705, 0.004705663770437241, -0.0017746876692399383, -0.002117494586855173, 0.0071679591201245785, -0.004394040443003178, 0.007737387903034687, -0.005307810381054878, -0.0009663780801929533, -0.006517308298498392, -0.0011662074830383062, -0.0022956221364438534, -0.013210793025791645, -0.0011222294997423887, -0.004403259139508009, 0.00480923056602478, -0.003872120287269354, 0.007736493833363056, -0.002601830055937171, 0.0006012727390043437, -0.0031880910973995924, -0.004549535922706127, -0.0013416185975074768, 0.004500182811170816, 0.0017012099269777536, -0.0011941714910790324, 0.0008774343295954168, -0.0016128981951624155, 0.0039359708316624165, -0.00026781525230035186, -0.0025667562149465084, -0.00035842080251313746, 0.005651651881635189, -0.0021897878032177687, 0.004065105225890875, -0.003873921697959304, 0.006531912367790937, 0.003307770937681198, -0.00712805800139904, 0.008417277596890926, -0.009053396061062813, 0.009217138402163982, -0.006650574505329132, -0.008943527936935425, -0.000449090963229537, 0.0023387628607451916, 0.00017982162535190582, -0.0035229246132075787, -0.005482142791152, -0.0022601813543587923, -0.0019506782991811633, -0.0031378110870718956, -0.004528692923486233, -0.007604524027556181, -0.0024062390439212322, -0.010201106779277325, 0.005166780669242144, -0.004477112088352442, 0.00030969284125603735, -0.002982195932418108, -0.00861765444278717, -0.0038664150051772594, -0.01219524722546339, 0.000726856233086437, 0.011133775115013123, -0.006239601876586676, 0.0039011677727103233, -0.010796126909554005, -0.0006155099254101515, -0.012262754142284393, 0.006240461487323046, 0.00023936544312164187, -0.005710591562092304, 0.00314962025731802, 0.009493531659245491, -0.009026439860463142, 0.003503520507365465, -0.00892422441393137, 0.004017896018922329, 0.0006525368662551045, 0.002929023467004299, -0.0010774668771773577, -0.000498162698931992, 0.00017527001909911633, -0.0028486247174441814, -0.002739522373303771, 0.004367311485111713, 0.0016718971310183406, 0.007991884835064411, -0.0029528357554227114, 0.003616137895733118, -0.0011186761548742652, 0.012150587514042854, 0.009478321298956871, 0.006188924424350262, -0.009628036990761757, 0.008856592699885368, -0.007052628323435783, 0.013982685282826424, -0.0012925030896440148, 0.0008475043578073382, 0.0099510932341218, 1.685053575783968e-05, -0.001105545088648796, 0.0010998089564964175, -0.0007141447858884931, -0.0018170748371630907, -0.0020039633382111788, 0.000900016981177032, -0.008851448073983192, 0.006973502691835165, -0.003389267483726144, 0.009265253320336342, -0.00177611387334764, 0.0039056232199072838, -0.0005665418575517833, -0.004625724162906408, 0.00921235978603363, -0.007626720704138279, 0.003636916633695364, -0.00527877127751708, -0.001250796252861619, 0.0009057390852831304, -0.006741428282111883, 0.0005372037412598729, -0.006976218894124031, -0.0010511495638638735, 0.0036213849671185017, 0.005949291866272688, -0.0013023987412452698, -0.0031429030932486057, -0.0021247491240501404, -0.000633707910310477, 0.0018797474913299084, -0.00945222843438387, -0.0005097988760098815, 0.000981169636361301, -0.005077195353806019, 0.0012084642658010125, -0.00580060388892889, -0.0016509382985532284, 0.004191909451037645, 0.00406360300257802, -0.001976137747988105, 0.003124997718259692, -0.0004482502117753029, 0.007572974544018507, 0.0032848482951521873, -0.0055328551679849625, -0.0009467409690842032, -0.004390070680528879, 0.003255456918850541, 0.007202586159110069, 0.003264129161834717, 0.003660659771412611, -0.003833651077002287, 0.004857609048485756, -0.004222366493195295, 0.006499175447970629, -0.007378617767244577, 0.006276194471865892, -0.007954975590109825, 0.007722109090536833, -0.006505575496703386, -0.004935166798532009, 0.010607928037643433, -0.0003166480455547571, 0.008798816241323948, 0.003256438998505473, 0.0051074218936264515, -0.0035015724133700132, -0.004270084202289581, -0.002326682675629854, 0.0007105108234100044, -0.004596066661179066, 0.0029937918297946453, 0.010576697066426277, 0.0006406282773241401, 0.005095266737043858, -0.0036409329622983932, -0.0011921725235879421, -0.004119175486266613, 0.0026773964054882526, 0.006299640983343124, -0.004049522802233696, -0.0016577433561906219, 0.006738843861967325, -0.007897118106484413, 0.003992641344666481, 0.0006186607060953975, 0.003285611979663372, -0.004004591144621372, 0.0012208042899146676, -0.0036812182515859604, 0.0027734090108424425, -0.007291938178241253, -0.003680889494717121, 0.01055337768048048, 0.003625596407800913, -0.001192000461742282, -0.008763741701841354, -0.004412553738802671, -0.007099887356162071, -0.0022242695558816195, 0.0023573795333504677, 0.00303695653565228, 0.000582124397624284, -0.002298880834132433, -0.0025992656592279673, -0.0032947640866041183, 0.0014757080934941769, -0.011818993836641312, -0.006922792177647352, 0.0016481787897646427, 0.010895292274653912, -0.010221785865724087, 0.012311961501836777, -0.003426584415137768, -0.01011370774358511, -0.015689603984355927, -0.0037581981159746647, 0.0006767682498320937, -0.006217884831130505, -0.0008321157656610012, -0.007111027371138334, 0.0077348072081804276, -0.002439818810671568, -0.0020882422104477882, -0.009007364511489868, -0.003409113036468625, -0.009908080101013184, 0.00583493011072278, -0.01621488854289055, -0.004290509037673473, 0.001439749961718917, 0.0036339189391583204, 0.006108258850872517, 0.007532900664955378, 0.0030638067983090878, 0.00600551487877965, 0.006418627221137285, 0.005845107138156891, -0.004755989648401737, 0.00986604392528534, -0.008787039667367935, 0.00048644276103004813, 0.0029048193246126175, 0.0039503807201981544, 0.0009082832839339972, -0.0062120333313941956, -0.002628304762765765, -0.003938260022550821, 0.002478464972227812, -0.006276345811784267, -0.0034480371978133917, -0.002182695083320141, -0.007998484186828136, -0.0005301474593579769, -0.008194905705749989, 0.0005480826366692781, -0.013065431267023087, -0.003173095639795065, -0.0017157606780529022, -0.002001407090574503, -0.0018741011153906584, -0.004752789158374071, -0.006481183227151632, -0.0111862663179636, 0.003234130097553134, -0.0025456734001636505, 0.012521018274128437, 0.00684617692604661, 0.014109211973845959, 0.0023812740109860897, -0.0005545433377847075, 0.00023789159604348242, 0.0032053175382316113, 0.005111777223646641, -0.010518382303416729, 0.00583761977031827, -0.005289656575769186, -0.0005571990623138845, -0.005308761261403561, -0.00028305809246376157, 0.0008148857159540057, -0.0029124896973371506, -0.004727653227746487, -0.008832115679979324, 0.0031056690495461226, -0.0034780162386596203, -0.0017889334121719003, 0.003141652327030897, 0.0013490484561771154, 0.006156228948384523, 0.00043547613313421607, 0.0019544241949915886, -0.0002130293578375131, -0.00013998287613503635, -0.003945250995457172, -0.0011855310294777155, -0.0025230846367776394, 0.0019973949529230595, -0.01228285115212202, -0.0012504037003964186, 0.0035223746672272682, -0.005151696037501097, -0.0077370572835206985, -0.005414716899394989, -0.0038411556743085384, -0.006372641306370497, 0.002042874228209257, 0.00323943211697042, 0.0017135965172201395, 0.0010707566980272532, 0.0014782019425183535, 0.0026794085279107094, -0.012508438900113106, -0.003660990856587887, -0.004641754552721977, 0.004133256617933512, 0.0038575828075408936, 0.0067950957454741, 0.0024166414514184, -0.009585434570908546, 0.0030028019100427628, 0.006068751215934753, 0.0008425783016718924, 0.012591593898832798, -0.0028172950260341167, 0.000955979514401406, 0.0074235619977116585, 0.014993349090218544, -0.033298198133707047, 0.0002650065580382943, 0.007912315428256989, -0.0010435869917273521, 0.004108328837901354, -6.782525451853871e-05, 0.0054880413226783276, -0.0002346331166336313, -0.0019350574584677815, 0.005889974534511566, -0.0036980994045734406, 0.0031839022412896156, 0.005142423324286938, 0.0027506330516189337, -0.0013241574633866549, -0.004221003968268633, -0.011988252401351929, -0.005126972682774067, -0.001169636962004006, -0.0012650666758418083, -0.00604667142033577, 0.0060034580528736115, -4.4056447222828865e-05, -0.004878432024270296, -0.006050709635019302, -0.004660692997276783, 0.0005281028570607305, -0.0043150451965630054, 0.000714887457434088, 0.008392510004341602, 0.0007830120157450438, 0.009647473692893982, -0.005612384062260389, 0.006665087305009365, -0.0009679541690275073, -0.0004970520967617631, 0.0015461931470781565, 0.00499888276681304, 0.00019832677207887173, 0.005140942987054586, -0.011524916626513004, -0.004569662269204855, 0.0013934989692643285, -0.0057587395422160625, -0.003062778152525425, -0.005793958902359009, 0.0014459984377026558, 0.0020477138459682465, -0.0019149796571582556, -0.005178077612072229, -0.000790160265751183, -0.003118589287623763, -0.0037940219044685364, -0.005523253697901964, 0.004946489818394184, 0.002909204224124551, -0.00755672762170434, 0.008443607948720455, 0.007658018730580807, 0.013467999175190926, 0.005482232663780451, 7.778487633913755e-05, 0.004123774357140064, 6.418047996703535e-05, -0.0068185701966285706, 0.00379667105153203, -0.005912839435040951, 0.002213631756603718, 0.003573409514501691, 0.005776974838227034, -0.0035317307338118553, 0.003083814401179552, -0.001548432046547532, 0.004184653051197529, -0.003318259259685874, 0.0017001189989969134, -0.005269673652946949, -0.0034332952927798033, 0.0008855985943228006, -0.001103148446418345, -0.002694048685953021, -0.0016080907080322504, 0.012806384824216366, 0.0009049453074112535, 0.0016130699077621102, 0.0069536082446575165, 0.004181386437267065, 0.0025133283343166113, 0.005892070010304451, 0.012925525195896626, 0.001248446642421186, 0.005974345840513706, -0.007262912578880787, 0.009380674920976162, -0.0022596472408622503, 0.004397896118462086, 0.0057734958827495575, 0.002397360512986779, -0.0005870505701750517, 0.0005912548513151705, -0.008410975337028503, -0.00396781275048852, 0.0013650336768478155, 0.01606588438153267, -0.0007410678663291037, 0.006658909842371941, 0.0008114277734421194, -0.007398691494017839, -0.00032746742363087833, -0.005710011813789606, 0.005119043402373791, -0.0008910676697269082, -0.0038574980571866035, -0.0025556988548487425, 0.001118867308832705, -0.007449440658092499, 0.004386148881167173, 0.00941096805036068, 0.008710376918315887, 0.0025332469958812, 0.0012743413681164384, 0.0059653399512171745, 0.0009703293326310813, 0.0019787079654634, 0.01475594099611044, 0.0035623470321297646, 0.0014015435008332133, 0.0034642727114260197, -0.0012059274595230818, 0.006016922648996115, 0.0006440089782699943, -0.003426451003178954, 0.00035087313153780997, -0.0010476638562977314, -0.005920981988310814, 0.012073480524122715, -0.010346519760787487, 0.0075030080042779446, 0.010183654725551605, -0.002539995824918151, 0.006005150731652975, -0.0016165267443284392, 0.0012850889470428228, 0.0021857116371393204, -0.0007172590703703463, -0.0032884026877582073, 0.001944989082403481, 0.0035852468572556973, -0.007594146765768528, 0.0019043416250497103, -0.007882077246904373, 0.0008889169548638165, -0.0006221372168511152, -0.002917318604886532, 0.0015195176238194108, -0.0030292836017906666, 0.0011851672315970063, -0.008889217860996723, 0.005520451348274946, 0.010507093742489815, 0.0020066373981535435, 0.01108692679554224, 0.006870326120406389, 0.00743767200037837, 0.009954340755939484, 0.008556980639696121, -0.020114898681640625, -0.009118684567511082, 0.0037955925799906254, 0.0009240155341103673, 0.010445932857692242, 0.0005865738494321704, 0.009242996573448181, 0.003634456545114517, -0.0023159014526754618, -0.003792570438235998, -0.005210080649703741, -0.0015063112368807197, -0.005518735386431217, 0.004478741437196732, 0.0010295542888343334, 0.0016950861318036914, 0.0003840011777356267, 0.00291655957698822, -0.007525542750954628, -5.7323602959513664e-05, -0.002037946367636323, 0.0013559965882450342, -0.0036816999781876802, 0.0025715224910527468, -0.007646614219993353, 0.005672897677868605, -0.007717483676970005, 0.004894683603197336, 0.01185052189975977, 0.0036417017690837383, -0.0021565137431025505, -0.004921938758343458, 0.0021883698645979166, -0.0090408306568861, 0.0028602175880223513, 0.008598721586167812, 0.0024554908741265535, 0.0015122340992093086, -0.0008539148839190602, 0.0028387068305164576, -0.004733935464173555, 0.002280629938468337, 5.46332448720932e-05, -0.0032001109793782234, -0.0013412528205662966, 0.0002454988134559244, -0.012450071051716805, 0.006150256376713514, -0.004242660477757454, -0.004216065630316734, -0.010275366716086864, -0.0013967282138764858, 0.0004828266683034599, -0.00047977021313272417, -5.604035686701536e-05, -0.0002755304449237883, 0.008750485256314278, 0.0008264718926511705, -0.008460589684545994, -0.005773632321506739, 0.009865691885352135, -0.005688175093382597, 0.008789087645709515, -0.004424057435244322, -0.005460802465677261, 0.00455470522865653, -0.001545093604363501, -0.006723507307469845, -0.0003246937121730298, 4.024543159175664e-05, -4.3068546801805496e-05, -0.002786224242299795, 0.0014963250141590834, 0.008172866888344288, 0.0027695263270288706, 0.003464047098532319, 0.0032587747555226088, 0.00989370048046112, 0.005063382443040609, 0.005033261142671108, -0.006950046867132187, -0.0002713649009820074, -0.006863883230835199, -0.004883641377091408, -0.006114793010056019, 0.005343484692275524, -0.0032976195216178894, -0.0021592348348349333, -0.001983070746064186, -0.0022891953121870756, -0.0018780096434056759, -0.003597542643547058, 0.0004490089777391404, -0.0042674122378230095, -0.012341431342065334, -0.007502678781747818, -0.014410250820219517, -0.005417580716311932, -0.006115236319601536, -0.0048555550165474415, -0.0002320206112926826, 0.004022776614874601, 0.010068520903587341, 0.0038918498903512955, 0.0014072321355342865, 0.016512520611286163, 0.01003381609916687, 0.0030395041685551405, -0.0014157922705635428, -0.00826021283864975, -0.0012842279393225908, -0.003608760889619589, 0.006468113977462053, 0.004096482414752245, 0.002200080780312419, -0.002344469539821148, 0.006312868557870388, -0.0031062341295182705, 0.0009618353797122836, 0.011053708381950855, 0.006746557075530291, -0.0015651726862415671, 0.00459365313872695, 0.0035197357647120953, 0.006326337810605764, -0.0031404958572238684, -0.003947333432734013, 0.00042917701648548245, -0.0033200320322066545, -0.004170267842710018, -0.0023583455476909876, -0.004897683393210173, 0.0037440757732838392, -0.0005227349465712905, 0.004161805380135775, 0.0007122170645743608, 0.009496418759226799, 0.0040734391659498215, 0.0102804284542799, 0.011650411412119865, 3.0232477001845837e-06, -0.002709857188165188, 0.007830984890460968, 0.008915317244827747, -0.0014016118366271257, 0.010282128117978573, 0.00698369974270463, -0.0027502761222422123, 0.0013126281555742025, 0.0014554415829479694, -0.004362511448562145, 0.0008288575918413699, -0.00285166222602129, 0.0006044275360181928, -0.00643919687718153, -0.001444100635126233, 0.008641787804663181, 0.0049235401675105095, -0.0049094283021986485, 0.005482751876115799, -0.0030965683981776237, -0.005353045649826527, 0.0034000216983258724, -0.0035076080821454525, 0.0011187761556357145, -0.00836024060845375, -0.0006831353530287743, -0.006025465205311775, 0.0005601071752607822, 0.00402027415111661, -0.0024918317794799805, 0.009248312562704086, 0.0015323113184422255, 0.009028290398418903, -0.0006286590360105038, -0.004648090805858374, -0.002581023145467043, -0.004572947975248098, 0.01184611115604639, 0.006862392649054527, 0.012553992681205273, -0.006080860737711191, -0.0043414258398115635, 0.0011994841042906046, -0.0035403738729655743, 0.003607893129810691, 0.0036491588689386845, 0.005409517791122198, 0.0013979909708723426, 0.0006188064580783248, 0.0003901658928953111, 0.0032776398584246635, 0.013478335924446583, 5.177778075449169e-05, 0.015438585542142391, -0.0050902836956083775, -0.0029783020727336407, 0.00183200859464705, 0.007131888996809721, -0.00026368876569904387, -0.0036726854741573334, 0.001825043116696179, -0.008599387481808662, 0.000991036999039352, -0.0016994404140859842, 0.003353577572852373, 0.0019192356849089265, -0.0054490030743181705, -0.0017776619642972946, -0.004128136672079563, -0.004687613807618618, -0.0073548248037695885, 0.004823582712560892, -0.009189795702695847, -0.006582213100045919, -0.007192854769527912, -0.0012561473995447159, -0.0048143560998141766, -0.002473760861903429, 0.0009928583167493343, 0.004200115334242582, 0.005906641483306885, 0.006632412783801556, 0.003917223308235407, 0.003133461344987154, 0.003968459088355303, -0.0053002187050879, -0.003539574798196554, -0.0029161800630390644, 0.002717873314395547, -0.003216214943677187, -0.0004623612039722502, -0.0002782766241580248, 0.0007724447641521692, 0.004696800373494625, 0.002735902089625597, 0.004992686212062836, -6.488047074526548e-05, 0.005650866776704788, -0.0009616650058887899, 0.0033029201440513134, -0.007603848353028297, -0.009095588698983192, -0.007737788371741772, -0.008374057710170746, 0.0026911653112620115, 0.0005197102436795831, 6.67677668388933e-05, -0.002529480028897524, -0.0007720590219832957, 0.0008953858050517738, 0.0014147189212962985, 0.00048120488645508885, -0.0022762108128517866, 0.008058193139731884, 0.0037819163408130407, -0.007539516314864159, 0.0015632312279194593, -0.0024719901848584414, -0.0035587232559919357, 0.001618270529434085, -0.0019278423860669136, 0.012660568580031395, 0.004625507164746523, 0.008552130311727524, 0.005180214531719685, -0.006058509927242994, -0.007222364656627178, -0.0023158586118370295, 0.02075243927538395, 0.0002445957507006824, 0.020857520401477814, 0.0002598492428660393, 0.000307273818179965, 0.00022084329975768924, 0.004332100506871939, 0.005864378996193409, -3.23739368468523e-05, 0.008513424545526505, -0.00632006861269474, 0.0012848590267822146, -0.0029193086083978415, 0.0026298256125301123, -0.005167321301996708, 0.0037953993305563927, -0.0039726849645376205, 0.0024289607536047697, 0.008071391843259335, 8.751938003115356e-05, -0.001823797938413918, 0.004769446328282356, 0.0015092527028173208, 0.0039768945425748825, 0.0018765898421406746, -0.002690158551558852, -0.0004884236259385943, -0.0011097586248070002, -0.0028279356192797422, -0.0019604426342993975, -0.0016911225393414497, -0.0006745984428562224, -0.0068256789818406105, -0.007222117390483618, 0.002997729694470763, -0.001967747462913394, -0.007834451273083687, -0.0024173844140022993, -0.0060111782513558865, 0.005597107112407684, 0.0022319615818560123, -0.005135651677846909, -0.005654779728502035, 0.0011734487488865852, -0.0063817244954407215, -0.0022834823466837406, 0.004317508544772863, 0.008214947767555714, -0.0012804206926375628, -0.010865709744393826, 0.006305009126663208, -0.007844828069210052, 0.006009881850332022, -0.014297012239694595, -0.008472983725368977, 0.005764357279986143, 0.009778027422726154, -0.00012930395314469934, 0.008231233805418015, -0.003752888645976782, -0.00450271088629961, -0.0013576950877904892, -0.0011989354388788342, -0.001652098260819912, -0.0018490757793188095, -0.004255800973623991, 0.002932438626885414, -0.005019953474402428, -0.003897163551300764, 0.0031485266517847776, -0.0013021312188357115, 0.002160332165658474, 0.0032140938565135, 0.0013941433280706406, 0.0018226845422759652, 0.006393491756170988, 0.005191420204937458, -0.008906159549951553, 0.00133597815874964, -0.014621587470173836, -0.003637803951278329, -0.0038353842683136463, 0.0011525568552315235, -0.002006992232054472, 0.010991271585226059, -0.004726620856672525, 0.010903789661824703, -0.006645971443504095, 0.011840886436402798, 0.0036073136143386364, -0.006017334759235382, 0.004405018407851458, 0.0012254579924046993, 0.00700869457796216, 0.0025089713744819164, 0.0058736177161335945, -0.00158441043458879, -0.0030952165834605694, -0.0015185815282166004, 0.001018075505271554, 0.0004744345787912607, 0.003575769020244479, 0.00024224526714533567, -0.0029897275380790234, -0.004444371443241835, 0.0005512101342901587, -0.0009577653836458921, -8.521480776835233e-05, -0.004805979318916798, -0.001143193687312305, -0.00598685909062624, 0.0025503600481897593, 0.002690541557967663, -0.0024537125136703253, 0.003701786044985056, 0.00013741484144702554, 5.820664227940142e-05, -0.0013473775470629334, -0.0003192253061570227, 0.003632008098065853, 0.0006790063343942165, 0.005215765442699194, -0.00022018421441316605, 0.005933479405939579, 0.002781314542517066, 0.0017396677285432816, 0.011708258651196957, 0.002504727803170681, 0.008823531679809093, 0.0012280724477022886, 0.010861977934837341, 0.0037614689208567142, -0.0041403574869036674, -0.0029417257755994797, -0.0027551038656383753, -0.001783072017133236, -0.0036713816225528717, -0.0044467868283391, 0.00384697993285954, -0.006535738706588745, 0.0007821513572707772, 0.003966671414673328, 0.001445024972781539, 0.001958283595740795, -0.014367843046784401, -0.00803268700838089, -0.0018573321867734194, -0.007705613970756531, 0.0014583587180823088, -0.002163419034332037, 0.00352018722333014, -0.006164032965898514, -0.00047362095210701227, 0.0013555372133851051, 0.003179113380610943, -0.004681176505982876, 0.003694665851071477, -0.00625630933791399, 0.009769287891685963, 0.002456772606819868, 0.0029138943646103144, -0.002044638618826866, -0.005642285570502281, 0.004169939085841179, -0.004156761337071657, -0.018824974074959755, -0.006513884756714106, -0.004113791976124048, -0.008310507982969284, 0.000854525831528008, -0.009290860965847969, 0.003939520101994276, -0.0008086473681032658, -0.004708029795438051, 0.007978399284183979, 0.009405168704688549, 0.005514154210686684, 0.008794264867901802, 0.001538870856165886, 0.0017220588633790612, 0.0015243812231346965, -0.0011255082208663225, -0.008186894468963146, 0.0024734274484217167, -0.009821114130318165, 0.0018127872608602047, 0.007467252667993307, 0.006981923710554838, -0.00015685867401771247, -0.0016081779031082988, -0.0026430345606058836, -0.005778640508651733, -0.0004043686203658581, 0.0019371445523574948, 0.003981865011155605, 9.300766396336257e-05, -0.00889440905302763, -0.010097379796206951, -0.013177572749555111, -0.006960605271160603, -0.005174996331334114, -0.0011740147601813078, 0.005535401403903961, 0.006332732271403074, 0.006395021453499794, 0.007187499199062586, 0.005701396148651838, 0.010564987547695637, -0.0019660606049001217, -0.0008796884212642908, 0.011654502712190151, -0.004461660515516996, 0.011722174473106861, -0.0016757164848968387, 0.0032171534840017557, -0.0019090439891442657, 0.006707591935992241, 0.0015755812637507915, 0.001123672118410468, -0.0004414061550050974, -0.0017412090674042702, 0.005577171221375465, -0.001497849472798407, -0.0006901260931044817, -0.0005612722015939653, 0.003301115008071065, 8.991558570414782e-05, 0.004211754072457552, -0.011280450969934464, -0.006251336075365543, 0.0014849723083898425, -0.0037213542964309454, -0.0029785041697323322, -0.0008569485507905483, -0.0024684788659214973, -0.0011276551522314548, -0.004781487863510847, 0.010713620111346245, -0.009694691747426987, -0.007299054879695177, -0.007969783619046211, -0.011682874523103237, -0.01147066056728363, 0.010213286615908146, -0.0027298317290842533, -0.0015955872368067503, 0.00648971414193511, -0.004499860107898712, 0.006165488623082638, -0.0033133362885564566, -0.002695699455216527, 0.005978159606456757, -0.002100232057273388, 0.0065681179985404015, -0.0016538401832804084, -0.004348888993263245, -0.00047812412958592176, 0.008484473451972008, 0.0018863040022552013, 0.01072478573769331, -0.006638702936470509, 0.007947759702801704, -0.00490955775603652, -0.0032878462225198746, 0.003054544096812606, 0.006101513281464577, 0.008495292626321316, 0.0013463208451867104, 0.00437111547216773, 0.0018555440474301577, -0.002320398110896349, -0.006438601762056351, 0.004553917795419693, 0.0010428039822727442, -0.00249218731187284, -0.001635824446566403, -0.004988402593880892, 0.004365772008895874, 0.004713674075901508, -0.0013789773220196366, 0.003832714632153511, 0.006030001677572727, 0.002653782721608877, 0.002509739948436618, 0.003097758861258626, -0.003514932468533516, 0.0014613845851272345, -0.0054282695055007935, 0.000599541119299829, -0.0027714120224118233, 0.004672916140407324, -0.0037679970264434814, 0.0014746611705049872, 0.0023313150741159916, 0.005283215083181858, 0.004769321996718645, 0.006068355869501829, -0.005464355461299419, 0.012531495653092861, -0.0011384317185729742, 0.0015818220563232899, -0.0011268724920228124, 0.010233149863779545, -0.003841089317575097, 0.005450139753520489, 0.007287904154509306, 0.0013655306538566947, 0.0030410669278353453, -0.0007275438401848078, -0.005651441402733326, 0.0005022885743528605, -0.002191253937780857, -0.008223319426178932, -0.004404968116432428, 0.0023361851926892996, 0.006711777299642563, 0.0014244753401726484, 0.004786306526511908, 0.0014277815353125334, -0.00431101443246007, -0.003525101114064455, -0.0007940364303067327, -0.0021407760214060545, 0.006749127060174942, -0.000556291313841939, 0.0061276680789887905, -0.0030430364422500134, -0.0017056685173884034, 0.00011237368016736582, 0.0072195883840322495, 0.0039342124946415424, 0.006208791863173246, 0.003329487517476082, 0.006646282505244017, 0.005873211193829775, -0.002067401073873043, -0.0006808340549468994, 0.004395993892103434, -0.00016998639330267906, 0.006207143887877464, -0.012082844972610474, 0.003758119884878397, 0.001275754300877452, -0.005886782426387072, 0.0016748374328017235, -0.006856090389192104, 0.0014712335541844368, -0.003797034500166774, 