0.004476197529584169, 0.0034001644235104322, 0.002637166529893875, 0.0018368324963375926, -0.0076097771525382996, -0.0003892898093909025, 0.0007987199351191521, 0.003359505208209157, 0.012420160695910454, -0.0038275541737675667, 0.003550976514816284, 0.007636485155671835, 0.008976469747722149, -0.0016887541860342026, -0.0076260045170784, -0.005484770983457565, -0.011168045923113823, -0.006121965125203133, -0.01726142130792141, -0.0017670213710516691, -0.004483741242438555, -0.007463454268872738, -0.014772441238164902, -0.0028088195249438286, -0.013875854201614857, -0.009163026697933674, -0.0060720560140907764, -0.004498988855630159, 0.0061190165579319, -0.0010319352149963379, 0.00505015067756176, -0.004306014161556959, 0.008571791462600231, 0.008035842329263687, -0.003259333549067378, -0.002944632899016142, -0.00019538309425115585, -0.001769909169524908, 0.0048715476877987385, 0.012179160490632057, -0.005115750711411238, 0.00183109100908041, 0.0006709396839141846, 0.00293654203414917, 0.0063178641721606255, 0.0007282138685695827, 0.0014436999335885048, -0.005570786073803902, 0.0029307259246706963, 0.0021239230409264565, -0.0026253818068653345, 0.0074120573699474335, -0.006366252899169922, -0.00041813869029283524, -0.0044875554740428925, 0.005310886539518833, 0.0018052756786346436, -0.002371980808675289, 0.008300443179905415, 0.008277138695120811, 0.010340999811887741, -0.0013979473151266575, -0.0008358634077012539, -0.0037434156984090805, 0.0012010892387479544, -0.0018570870161056519, -0.0010767430067062378, 0.0026062389370054007, -0.003703768365085125, 0.0030918833799660206, -0.002179481089115143, -0.012938524596393108, -0.005890954285860062, -0.01612621359527111, -0.002343837171792984, 0.0033711851574480534, 0.0028015710413455963, 0.00857426505535841, 0.002678264630958438, 0.0033403513953089714, -0.004830478224903345, 0.01023318711668253, 0.011197386309504509, 0.001891138032078743, 0.004204124677926302, 0.004412530921399593, 0.005737125873565674, 0.006083348765969276, -0.004831791389733553, -0.016636816784739494, -0.0009536454454064369, -0.00892904307693243, -0.0018289750441908836, -0.014548394829034805, -0.0032844627276062965, 0.006550616584718227, 0.004930113907903433, -0.0033360226079821587, 0.0024019163101911545, 0.002003466710448265, 0.002436535432934761, 0.0043283370323479176, -0.0026842777151614428, -0.005900493822991848, -0.002136748284101486, -0.009267101064324379, -0.0009729363955557346, -0.007888775318861008, -0.0009223821107298136, -0.003799587721005082, -0.006374209187924862, -0.006503512151539326, 0.0016970792785286903, 0.0017011831514537334, 0.002446816535666585, -0.0012090499512851238, -0.0005495613440871239, -0.00027839280664920807, 0.0008310042321681976, 0.004974455572664738, -0.001734791323542595, 0.0009047655039466918, -0.006232033018022776, -0.008021379821002483, 0.0010227086022496223, 0.0009291823953390121, 0.004868481308221817, -0.0035153604112565517, 0.009069106541574001, 0.00039263610960915685, 0.0020272228866815567, -0.0022316505201160908, -0.002438080031424761, -0.0014224250335246325, -0.0028365568723529577, -0.004420745652168989, -0.006013494450598955, -0.00677478825673461, 0.0025994412135332823, -0.001715716440230608, -0.006770603824406862, 0.0006802576826885343, -0.009713143110275269, 0.0029897389467805624, 0.004381423816084862, -2.0366860553622246e-06, -0.005052763037383556, -0.008246240206062794, -0.00804191268980503, -0.005024310667067766, -0.007039493415504694, -0.003533810842782259, 0.0004663697618525475, -0.0024025579914450645, -0.00474338186904788, 0.004206596873700619, -0.0018117211293429136, 0.0013296038378030062, -0.005731723736971617, 0.0027268079575151205, -0.00311316829174757, -0.015194385312497616, 0.01190393790602684, -0.015973607078194618, 0.011384339071810246, 0.012866197153925896, 0.010097650811076164, 0.010102072730660439, -0.0051873899064958096, 0.007954484783113003, -0.006685947999358177, 0.0016419239109382033, -0.005256774835288525, -0.005755621939897537, -0.0007670384366065264, 0.0001799974124878645, 0.002752428874373436, 0.001950482721440494, -0.0005965220043435693, 0.002754680812358856, 0.010280592367053032, 0.0005313992733135819, 0.0066642011515796185, -0.0017311114352196455, -0.0005530263879336417, -0.000252178666414693, 0.0041594491340219975, 0.009871379472315311, 0.0038222945295274258, -0.017262496054172516, 0.002895666752010584, -0.014989151619374752, 0.0036661841440945864, 0.004498939495533705, 0.002373849041759968, -0.003240406047552824, -0.007158900611102581, 0.00019099179189652205, -0.008875621482729912, 0.005995997693389654, 0.00367597583681345, -0.006265315227210522, -0.0004957062774337828, 0.0023471389431506395, -0.0047056470066308975, -0.00656636618077755, -0.008267313241958618, -0.0021941070444881916, -0.002845688257366419, -0.0003997761523351073, 0.004230988211929798, -0.0078618498519063, 0.007022833917289972, -0.004815676715224981, 0.006588899530470371, 0.004217251669615507, 0.0018746897112578154, 0.008226733654737473, -0.007932146079838276, 0.007282671052962542, -0.0065407827496528625, 0.005768182687461376, -0.009064851328730583, -0.0018810135079547763, -0.0018623888026922941, 0.0012569326208904386, -0.003945577424019575, 0.0054219551384449005, 0.007299638818949461, -2.73766927421093e-05, -0.0021446130704134703, -0.0026924589183181524, -0.0010830594692379236, -0.002466253936290741, -0.006429016124457121, -0.007043151650577784, 0.005745660047978163, -0.005386364180594683, -0.009775402955710888, 0.004634232725948095, -0.012509556487202644, 0.001847036648541689, -0.0007057289476506412, 0.004411947913467884, -0.0021070789080113173, -0.0030116152483969927, 0.00410970114171505, -0.0022815344855189323, 0.00039734109304845333, 0.009748472832143307, 0.005902182776480913, 0.003816849086433649, -0.004168552812188864, 0.008146940730512142, 0.0007278555422089994, 0.015621832571923733, -0.002738150767982006, -0.004137183539569378, 0.005275523290038109, 0.006478158291429281, 0.0005079436814412475, 0.010061277076601982, 0.0009430014761164784, 0.004481974057853222, -0.0044572362676262856, 0.0024848293978720903, -0.014076769351959229, -0.0024986686185002327, -0.014446795918047428, -0.005755722057074308, -0.008141132071614265, -0.005638438742607832, -0.008349340409040451, -0.007739146240055561, 0.0033648202661424875, -0.0010938768973574042, 0.0010197723750025034, 0.0007054595043882728, -0.0024361980613321066, -0.0007257537799887359, 0.0073845041915774345, 0.0055516683496534824, 0.002488616853952408, 0.003520465223118663, 0.0001264598686248064, -0.004316429141908884, 0.0018904838943853974, 0.004842265974730253, 0.003782696323469281, 0.002705893013626337, 0.0032562152482569218, 0.0027068406343460083, 0.0013944604434072971, -0.002977783791720867, -0.006724715698510408, 0.002531440230086446, -0.00890168733894825, 0.002480031456798315, -0.009229736402630806, 0.0020443755201995373, -0.0008640690357424319, 0.003588893450796604, -0.001342009287327528, 0.003863088320940733, -0.002344382693991065, -0.0028135059401392937, -0.003278640564531088, -0.0008656400023028255, 0.001957586267963052, -0.005089892540127039, 0.00558781623840332, 0.0020877548959106207, -0.010639119893312454, -0.004220684990286827, -0.0024182621855288744, 0.00486747594550252, -0.0030357628129422665, 0.0053204018622636795, -0.0016209897585213184, 0.00201719650067389, 0.0013727309415116906, 0.0006116260774433613, -0.010944051668047905, 0.0006855000974610448, -0.011015747673809528, -0.00487989978864789, -0.00034287964808754623, 0.0034879741724580526, -0.0016619134694337845, -0.00324338860809803, 0.006328682415187359, -0.0015837197424843907, 0.007331422064453363, 0.0006142958300188184, -0.0012897743145003915, 0.0007605303544551134, 0.0055472878739237785, -0.001412451732903719, 0.007677746936678886, -0.0016302764415740967, 0.005944392178207636, 0.004249602556228638, 9.133214189205319e-05, -0.0018948896322399378, 0.005633452907204628, -0.0033375280909240246, 0.001800422091037035, 0.0021596120204776525, 0.0023873671889305115, 0.0020374529995024204, -0.008277060464024544, 0.0002966671600006521, -0.00830974243581295, -0.001267475774511695, -0.013449572026729584, 0.007274460047483444, 0.0002708928950596601, -0.0013378635048866272, -0.004752940498292446, -0.0029331897385418415, -0.0032418174669146538, 0.00140336062759161, 0.0022334980312734842, 0.0020271220710128546, 0.011016422882676125, -0.0012872307561337948, 0.013067781925201416, 0.0005234257550910115, 0.01790926791727543, 0.001522638718597591, -0.00330009195022285, 0.017601773142814636, -0.0020667111966758966, 0.013776402920484543, -0.0022457644809037447, 0.0007242369465529919, -0.0017495384672656655, -0.0006151159177534282, 0.0012193536385893822, -0.0026720918249338865, 8.439661178272218e-05, 0.0003528211382217705, 0.0053773969411849976, -0.003021608106791973, -0.000882822903804481, 0.0006077972939237952, 0.0019358701538294554, 0.0037428035866469145, 0.003946281503885984, 0.006896169390529394, 0.0013407879741862416, 0.0017473483458161354, 0.004235922358930111, -0.013164062984287739, -9.207148104906082e-05, -0.015130012296140194, 0.007148175034672022, 0.004726152867078781, 0.0015845553716644645, 0.007314238231629133, 0.004020853899419308, 0.003431460354477167, 0.0010594837367534637, 0.0015173059655353427, 0.007809574715793133, 0.0013157469220459461, 0.0023888389114290476, -0.002076260047033429, 0.006133345887064934, -0.000728260725736618, 0.0055053504183888435, -8.37818079162389e-05, 0.002763086464256048, -0.00180563994217664, 0.00352010247297585, -0.006615373771637678, 0.009584843181073666, -0.0039766281843185425, -0.004019065760076046, 0.005021428689360619, -0.013943410478532314, 0.006155097857117653, -0.018471330404281616, 0.007731302175670862, -0.00827294122427702, -0.0005684774951077998, -0.0004319732543081045, 0.006570826750248671, -0.003716755425557494, 0.010668656788766384, 0.0025334891397506, -0.004847693257033825, -0.0011555241653695703, 0.0005182714085094631, -0.010381575673818588, 0.000556508544832468, -0.0052162036299705505, 0.004636932630091906, -0.007071531843394041, -0.0016390231903642416, -0.0010491564171388745, -0.001823758240789175, -0.003816745011135936, -0.003075137035921216, -0.0020147275645285845, -0.006771729327738285, 0.0031750877387821674, -0.002958177123218775, -0.013628368265926838, 0.0067000314593315125, -0.01390719786286354, 0.0042589446529746056, 0.005194840952754021, 0.0035200188867747784, 0.0035311400424689054, -0.0004420904442667961, -0.0019968408159911633, -0.004501647315919399, -0.0003316345682833344, 0.009243695065379143, 0.007831435650587082, 0.0007050581043586135, 0.020940257236361504, -0.003925121854990721, 0.019823284819722176, -0.001906443852931261, -0.003490275237709284, 4.473654553294182e-05, 0.0044071557931602, -0.006578815169632435, 0.0007262863218784332, -0.009067670442163944, 0.004327607806771994, 0.015778403729200363, 0.003267969936132431, -0.0022360498551279306, 0.006233758293092251, 0.0028966637328267097, 0.004529137630015612, 0.0007283310405910015, 0.0030054945964366198, -0.0012184834340587258, 0.0013352197129279375, 0.008458243682980537, -0.005073243286460638, 0.006340100429952145, -0.009503151290118694, -5.100942507851869e-05, 0.013831712305545807, 0.005358811933547258, 0.015455447137355804, -0.005832033231854439, 0.017502183094620705, -0.00622826162725687, 0.006455140188336372, -0.005771085154265165, 0.002231721533462405, -0.001165598863735795, 0.008668339811265469, -0.00042175292037427425, 0.008547386154532433, 0.000411289744079113, -0.0009735510102473199, 0.002274561207741499, 0.007344038225710392, 0.003677148837596178, 0.003016853705048561, 0.0025904744397848845, 0.004633639939129353, 0.00213777762837708, -0.006266453769057989, 0.0048997183330357075, 0.00536022474989295, 0.003987931180745363, -0.001237031421624124, -0.011345533654093742, -0.003935868386179209, -0.0038554479833692312, 0.004967829212546349, -0.0020825196988880634, 0.00511965062469244, -0.003369295271113515, -0.004792587831616402, 0.0020790286362171173, -0.004487469792366028, -0.009877114556729794, 0.006757400464266539, -0.011089863255620003, 0.0017700102180242538, -0.008147113025188446, -0.003653022926300764, -0.002096126787364483, -0.005401234142482281, -0.005312890280038118, -0.007059590891003609, -0.003639159956946969, 0.004188180901110172, 7.068979903124273e-05, 0.000758139998652041, 0.005828805733472109, -0.005452040117233992, 0.0001934657630044967, -0.007051256485283375, 0.001971394754946232, -0.000691100605763495, 0.0025899962056428194, -0.00404598843306303, 0.006175022106617689, -0.0008987766923382878, 0.006124876439571381, -0.011146397329866886, -0.008287910372018814, -0.0009949490195140243, -0.00825527124106884, 0.010182649828493595, -0.006570397410541773, 0.008136777207255363, -0.007764030713587999, 2.6868365239351988e-06, -0.0032041543163359165, -0.0042513529770076275, -0.0012566677760332823, -0.0014885141281411052, -0.002627976005896926, 0.0023446055129170418, 0.00713789789006114, 0.0013930851127952337, -0.0059806425124406815, 0.005446348339319229, -0.009208859875798225, 0.00516217015683651, 0.003478278173133731, -0.006413189694285393, 0.005364338401705027, 0.00290923984721303, -0.0036410384345799685, 0.00024656823370605707, -0.003305997233837843, 0.012117770500481129, -0.010147922672331333, 0.0008667047368362546, -0.007188466377556324, 0.003132039913907647, -0.008549470454454422, 0.0021952574606984854, 0.0021233404986560345, 0.004804495722055435, 1.9047874957323074e-06, 0.0029214282985776663, 0.0025994679890573025, -0.0039441147819161415, 0.001971278339624405, -0.0015485573094338179, -0.0048345765098929405, 0.009247799403965473, -0.0021342975087463856, -0.007464610040187836, 0.0071608019061386585, 0.0022641837131232023, 0.005013972520828247, -0.009588045068085194, -0.0007431635749526322, -0.007118362933397293, -0.006199351046234369, -0.005096741486340761, -0.005527096800506115, -0.001639904105104506, -0.001027407357469201, -0.0037378754932433367, -0.0005862053949385881, 0.00153529760427773, -0.001843044301494956, 0.002979287412017584, 0.00017299583123531193, -0.0008324719965457916, -0.002008976647630334, 0.011890383437275887, 0.001961005385965109, 0.012512884102761745, -0.0011945434380322695, -0.003153628669679165, -0.00023365997185464948, 0.000315298413624987, 0.0016360640292987227, 7.412215927615762e-05, 0.0005274798022583127, 0.004513474181294441, -0.0035144491121172905, -0.0001256356481462717, 0.00559410871937871, 0.0011577110271900892, -0.0036448556929826736, -0.004307600203901529, -0.003810557536780834, -0.009834540076553822, -0.001122751971706748, -0.004409885965287685, -0.002608400071039796, -0.0008872785838320851, -0.0003677431959658861, -0.004137466661632061, -0.00394030986353755, -0.00017550427583046257, 0.004747000057250261, -0.0034291082993149757, -0.002789614722132683, -0.0013318441342562437, -0.004139027092605829, 0.008206898346543312, -0.00014169594214763492, 0.0019571403972804546, -0.002737695351243019, 0.010964727960526943, -0.007678974885493517, 0.011591299436986446, -0.003911604173481464, -0.0014614502433687449, 0.00410973746329546, 0.0002083878789562732, 0.00473677646368742, -0.0011896549258381128, 0.005566503386944532, -0.00393638713285327, 0.006752812769263983, 0.0034275755751878023, -0.005574056413024664, -0.005599225405603647, -0.007443859241902828, -0.004084438551217318, -0.0015618494944646955, 0.006237393245100975, -0.0033924076706171036, -0.002207308541983366, -0.0018430969212204218, -0.0035590925253927708, -0.005657915957272053, 0.008488919585943222, -0.0022530362475663424, 0.0004684204759541899, -0.001539183547720313, 0.0058881728909909725, -0.0002061885315924883, 0.007453891448676586, -0.009004678577184677, -0.0027496288530528545, 0.0030689951963722706, 0.0018553363624960184, 0.0061365775763988495, -0.006430585868656635, 0.003710726508870721, -0.002330056857317686, -0.00013912416761741042, 0.0059983921237289906, 0.0007688336772844195, 0.00658210925757885, 0.0013269127812236547, 0.004436915274709463, -0.0054972171783447266, 0.004460128489881754, -0.002464062301442027, -0.0013019314501434565, -0.00878042820841074, -0.0018997668521478772, -0.009173835627734661, -0.011007849127054214, -0.002131104003638029, -5.481162224896252e-05, -0.001706739654764533, 0.0036395906936377287, 0.0020594527013599873, 0.006359147373586893, -0.0007667257450520992, -0.005088252015411854, -0.0009820651030167937, -0.003010426415130496, -0.007225198671221733, -0.004833976272493601, -0.0015296912752091885, -0.0039048795588314533, -0.004913256503641605, -0.004667443223297596, 0.0011777442414313555, -0.004069373942911625, -0.0005421144887804985, 0.0018994774436578155, -0.004186042118817568, -0.005744517780840397, -0.00555087486281991, -0.006073420867323875, 0.0022110550198704004, -0.006101032719016075, 0.002302119042724371, 0.009911133907735348, 0.0016283938894048333, -0.00022944455849938095, 0.006710209418088198, -0.0010895772138610482, 0.0016878213500604033, -4.104338586330414e-06, 0.010111028328537941, -0.0014146054163575172, -0.006789093371480703, 0.0010479404591023922, -0.007045394275337458, -0.002090603346005082, -0.008822409436106682, 0.0008731560665182769, 0.0007679677219130099, 0.002199250739067793, -0.004126235377043486, 0.00017713368288241327, -0.0011895161587744951, 0.002317278878763318, 0.0017306013032793999, 0.005749334115535021, -0.004853455349802971, 0.0035809010732918978, 0.0033612872939556837, 0.0033569608349353075, 0.003355305874720216, 0.00022042749333195388, 0.0037489794194698334, 0.0035916108172386885, 0.0011208762880414724, 0.0016430257819592953, 0.003579705720767379, -0.001374399638734758, 0.002975097391754389, 0.007700648624449968, -0.0011105644516646862, 0.0006577938329428434, -0.003331451676785946, 0.003487934824079275, 0.00022673886269330978, -0.014425846748054028, -0.007787827402353287, -0.0005583748570643365, 0.002028916496783495, 0.005971916019916534, 0.0029233333189040422, 0.005624246317893267, -0.0036741886287927628, 0.0005784527165815234, 0.0021135297138243914, 0.0007882794598117471, 7.651369378436357e-05, 0.004132116679102182, 0.0005108314217068255, -0.0016462841304019094, -0.005581056699156761, 0.001423645531758666, -0.00812062993645668, 0.002538081258535385, -0.009978809393942356, -0.00014418551290873438, -0.0011522413697093725, 0.0063396054320037365, 0.003724468871951103, -0.0030072012450546026, -0.0028434109408408403, -0.0009346207953058183, -0.003913291729986668, 0.0047173872590065, -0.001739490544423461, 9.810159099288285e-05, -0.008172614499926567, -0.0003134247672278434, -0.008324126712977886, -0.0002480546827428043, -0.0023933108896017075, -3.384766750968993e-05, 0.0005062197451479733, -0.002383116167038679, 0.007616767194122076, -0.003221095772460103, 0.008078056387603283, -0.008310801349580288, -0.0026606800965964794, -0.0025835938286036253, 0.0007334007532335818, 0.0002748736005742103, 0.0006621999200433493, 0.003398355795070529, -0.010243963450193405, -0.0003078039444517344, -0.004497160669416189, -0.0010804582852870226, 0.005479202605783939, -0.0011543321888893843, 0.004176577087491751, -0.0015444946475327015, -0.005412737838923931, 0.0018723292741924524, 0.0006101239705458283, -0.004043898545205593, -5.328441329766065e-05, -0.009991809725761414, -0.005609387066215277, 0.0003988133685197681, 0.00897904671728611, 0.013401676900684834, -0.008126079104840755, 0.015170498751103878, -0.007226390764117241, 0.00043468447984196246, -0.0016810540109872818, 0.003044099546968937, -0.009056586772203445, 0.002827177057042718, -0.003972761798650026, 0.00943269208073616, 0.015852464362978935, -0.008981307037174702, -0.0009135956643149257, -0.004883904941380024, 0.0028108619153499603, -0.003294513328000903, 0.003337348811328411, -0.007983002811670303, -0.0027122008614242077, -0.004747110418975353, 0.007195104379206896, 0.0017433606553822756, 0.006932949647307396, 0.006074346601963043, 0.0028025247156620026, -0.0005363851087167859, 0.0007901594508439302, -0.000807544041890651, 0.002474896376952529, -0.005623513832688332, 0.002285247901454568, 0.014501147903501987, 0.013358291238546371, 0.001853100024163723, -0.0005440387176349759, 0.009005720727145672, -0.0021111266687512398, 0.005130032077431679, -0.01040309201925993, 0.0032702533062547445, -0.0037752403877675533, -0.009955007582902908, -0.001532658003270626, -0.007145098876208067, 0.0015454706735908985, -0.001228943932801485, -0.0018691746518015862, 0.001204339088872075, -0.003366496879607439, 0.006503854878246784, 0.00288239773362875, 0.0034201452508568764, 0.004943100735545158, 0.0020502922125160694, 0.0046572270803153515, 4.724250175058842e-05, -0.004082134459167719, -5.0745089538395405e-05, -0.009277847595512867, 0.008677748963236809, 0.004446850158274174, 0.006493092514574528, -0.004327802918851376, -0.007739454507827759, 0.00014520817785523832, -0.007591404020786285, 0.010251481086015701, -0.0012700522784143686, 0.0009956869762390852, -0.01687011308968067, 0.00036994926631450653, -0.01861288771033287, 0.005168186500668526, -0.0014285917859524488, 0.001222347724251449, -0.0009038802818395197, 0.007494108285754919, 0.0007755341939628124, 0.0023062522523105145, 0.004945920314639807, -0.004348359070718288, -0.0004951918381266296, -0.00598649587482214, 0.005397616419941187, -0.0010341182351112366, 0.0041144657880067825, 0.0002181273594032973, -0.002079853555187583, -0.0031269921455532312, 0.008135990239679813, -8.702353807166219e-05, 0.006902794353663921, 0.0008397046476602554, 0.0010959220817312598, -0.007025574333965778, 0.006426944397389889, 0.007131488993763924, -0.00030201958725228906, 0.01235140673816204, 0.00012693635653704405, 0.008248146623373032, -0.006312534213066101, 0.0015562429325655103, 0.008197534829378128, -0.004523213487118483, 3.774469951167703e-05, -0.00651521934196353, -0.0014614100800827146, 0.006225214339792728, 0.011811458505690098, -0.0038615046069025993, -0.0025397955905646086, -0.0009824477601796389, -0.001159054460003972, -0.002549091586843133, 0.009363249875605106, 0.00015861458086874336, -0.0033492506481707096, 0.014448982663452625, 0.007529710419476032, 0.015216800384223461, 0.007472323253750801, -0.0029405425302684307, -0.002743943128734827, 0.0016863879282027483, -0.00195868406444788, -0.006887148134410381, -0.0009717833600006998, -0.006013417616486549, 0.004224213771522045, -0.004525942727923393, 0.0013228231109678745, 0.004880374763160944, 0.00024154419952537864, 0.007421595044434071, 0.004692078568041325, 0.010610914789140224, 0.0016424411442130804, 0.004485492594540119, 0.003852949943393469, -0.002226973185315728, 0.006049518473446369, -0.0022766825277358294, 0.006350751034915447, 0.0056702205911278725, -0.003926386591047049, 0.0020976972300559282, 0.0066160885617136955, 0.004156296607106924, 0.0073350719176232815, -0.006538886111229658, 0.0044953119941055775, -0.0016684046713635325, 0.004514710046350956, 0.006122814491391182, 0.00027052362565882504, -0.00014568702317774296, 0.0061690290458500385, 0.0007075886242091656, 0.0009455541148781776, 0.011424318887293339, 0.003348354250192642, 0.012989367358386517, -0.0009961948962882161, 0.0016156507190316916, 0.00629652151837945, 0.0048100766725838184, 0.019640816375613213, -0.0016389507800340652, 0.01369771733880043, -0.00418586703017354, -0.000988801708444953, 0.0013853751588612795, -0.004169944208115339, -0.016519904136657715, -0.004143632482737303, -0.01051346305757761, -0.0037810825742781162, -0.0010594777995720506, 0.0041325511410832405, -0.0009750775643624365, 0.0015674877213314176, -0.0055104210041463375, 0.0019638938829302788, -0.004176782444119453, 3.1264746212400496e-05, 0.003450096119195223, -0.00016543017409276217, -0.007993914186954498, 0.0201547984033823, -0.002267667558044195, 0.016290143132209778, 0.0018483053427189589, 0.012446742504835129, 0.004422202240675688, -0.014038420282304287, 0.0017640450969338417, -0.017570175230503082, 0.004555061925202608, 0.004863712936639786, -0.000490332895424217, -0.0074693928472697735, -0.00794872548431158, -0.006426695734262466, -0.007298486307263374, -0.0015141991898417473, 0.018026765435934067, -0.003260586643591523, 0.003918762318789959, -0.009911376982927322, 0.0026451563462615013, -0.012738436460494995, 0.0010906874667853117, -8.330936543643475e-05, -0.0011267414083704352, -0.005186731927096844, -0.007695426698774099, 0.002209868747740984, -0.009183811023831367, 0.00016683073772583157, -0.0009703141986392438, 0.0020399042405188084, 0.002854395192116499, 0.008588794618844986, -0.007406781427562237, 0.007292823400348425, -0.0016972117591649294, 0.0018840220291167498, -0.009586643427610397, 0.001054759370163083, 0.0018626992823556066, -0.004964401945471764, -0.0005189225194044411, -0.004429836291819811, -0.00401809997856617, -0.00020583803416229784, -0.005058665759861469, -0.0016796533018350601, 0.004437176510691643, -0.002660171128809452, 0.003942013252526522, -0.0009693051688373089, -0.004483248572796583, 0.0033954011742025614, 0.000487207667902112, 0.003891072003170848, -0.008391959592700005, 0.005174583289772272, -0.0013194449711591005, 0.006582758855074644, -0.002076508942991495, 0.0017517060041427612, 0.0033011690247803926, 0.004200141876935959, 0.004647208843380213, 0.004781052004545927, -0.010003047995269299, 3.7299541872926056e-05, 0.005027392413467169, 0.003045004792511463, 0.007125037722289562, 0.001723000779747963, 0.0037066310178488493, 0.003005441278219223, 0.004006048198789358, 0.013654828071594238, -0.01125311478972435, 0.014970755204558372, -0.0055993059650063515, -0.004650619346648455, -0.006092985160648823, 0.004920532926917076, 0.005274737253785133, -0.011724702082574368, 0.004185456782579422, -0.005053666885942221, -0.00016423960914835334, 0.001436796155758202, -0.003208755049854517, 0.0009029146167449653, -0.005570936948060989, 0.007960866205394268, -0.0012370594777166843, 0.0033889925107359886, -0.003609845181927085, -0.003607602324336767, 0.017112011089920998, -0.007218027021735907, 0.015341480262577534, -0.009562291204929352, -0.004327920265495777, -0.0008687001536600292, -0.004711039364337921, 0.001557825831696391, 0.0019073451403528452, 0.0006859139539301395, -0.002745827892795205, -0.0019230154575780034, 0.00376261118799448, -0.0021081804297864437, -0.006168999709188938, 0.004141299985349178, -0.006549411453306675, 0.001266159350052476, 0.0007373677799478173, -0.004617711063474417, 0.0011685340432450175, 0.004869270138442516, 0.002829613396897912, 0.0023596868850290775, -0.0011999555863440037, 0.0051120067946612835, 0.0027724115643650293, -0.002850803080946207, 0.007834982126951218, 0.0038263050373643637, 0.011400917544960976, 0.006765181198716164, -0.00041704875184223056, 0.0032996039371937513, -0.002291438402608037, -0.012412261217832565, 0.006208999548107386, -0.019331760704517365, 0.0025980682112276554, -0.006402032915502787, 0.004906398244202137, 0.0033820709213614464, 0.017734820023179054, 0.0001626556331757456, 0.018232781440019608, 0.0007205738802440464, 0.01153634861111641, 0.00039839139208197594, -0.005594773218035698, -0.009778762236237526, -0.003187421942129731, -0.01300548855215311, -0.0069661689922213554, -0.008958063088357449, 0.0157741941511631, 0.0017247326904907823, -0.006631932687014341, 0.0015482502058148384, -0.00346579821780324, 0.0035147517919540405, -0.0010853101266548038, 0.004989142995327711, 0.002342824824154377, -0.0015307441353797913, 0.00108192244078964, -0.002221113769337535, -0.0062325140461325645, 0.011226069182157516, 0.001648905104957521, 0.0062142545357346535, 0.01937156170606613, 0.00521671399474144, 0.009810145013034344, -0.006182418670505285, 0.009623819962143898, 0.0036957007832825184, -0.005411970429122448, 0.02654428407549858, -0.005989670753479004, 0.02593284472823143, -0.013530287891626358, -0.004377880599349737, 0.004027583170682192, 0.0007077812333591282, -0.003530123271048069, 0.00835048221051693, -0.004528838209807873, 0.006181022152304649, 0.004340632352977991, 0.005585389211773872, 0.001388314412906766, 0.010161167941987514, -0.0009982981719076633, 0.006559575907886028, 0.0001752219395712018, 0.004959910176694393, 0.0018040590221062303, -0.0006783640710636973, 0.006650280207395554, 0.0007847308297641575, 0.004928257316350937, 0.003332192311063409, 0.0003842574078589678, -2.7475180104374886e-05, -0.0010144797852262855, 0.0037356154061853886, -0.0012108521768823266, 0.0067085218615829945, -0.0004002220230177045, -0.003126563038676977, -0.001191136660054326, 0.0002674771239981055, -0.00555483577772975, 0.007191947195678949, -0.005487782880663872, 0.0003315744106657803, -0.0035384432412683964, 0.0023490895982831717, 0.0014861670788377523, -0.003996211104094982, 0.004475062247365713, -0.008778277784585953, -0.004342515487223864, 0.005117953754961491, -0.0004503704549279064, 0.0017729821847751737, 0.005791025701910257, 0.002319521736353636, 0.008588078431785107, 0.00728570343926549, 0.000249033619184047, -0.002896552439779043, 0.0002992567606270313, 0.004134166985750198, 0.002578344661742449, 0.004746161866933107, 0.004111528396606445, 0.005742395296692848, 0.004184281453490257, -0.002343339379876852, -0.016798492521047592, 0.01148435939103365, -0.017467055469751358, 0.00880235992372036, -0.016757922247052193, -0.0021710917353630066, 0.00038718918222002685, -0.0009405714808963239, -0.008606970310211182, -0.001521160127595067, -0.004115878604352474, -6.924773333594203e-05, 0.009644457139074802, 0.0007779286243021488, 0.005218004807829857, 0.001998246181756258, 0.003981864079833031, -0.0005279289907775819, -0.001069954945705831, 0.0032996991649270058, 0.0007320533040910959, -0.004632368218153715, 0.00806906446814537, -0.0028579148929566145, 0.011865106411278248, 0.0029573007486760616, -0.0012532621622085571, -0.0029360607732087374, 0.004396832548081875, 0.0007979519432410598, -0.00111516029573977, 0.002635977230966091, 0.007218159735202789, 0.0074297282844781876, 0.0001385855139233172, -0.0027798707596957684, -0.005740669555962086, -0.002978722797706723, -0.005380858667194843, -0.00042025087168440223, -0.0030741924419999123, 0.0014723073691129684, 0.00446388591080904, 0.0030623506754636765, 0.009396668523550034, 0.001295636873692274, 0.008948120288550854, -0.005266264546662569, 0.0012024706229567528, -0.0004738181596621871, -0.0026527000591158867, -0.004260906018316746, -0.006718265824019909, -0.011480994522571564, 0.009482641704380512, -0.0010009880643337965, 0.00041155953658744693, 0.007681515067815781, -0.002331443829461932, 0.007720472756773233, 0.001611608313396573, 0.001687818905338645, -0.004442684352397919, -0.0035759478341788054, 0.0017776224995031953, -0.008347144350409508, 0.00012860994320362806, 0.01375563908368349, 0.006659527309238911, -0.004327550530433655, 0.00013063353253528476, 0.009448115713894367, -0.0020730141550302505, 0.0046044643968343735, 0.004189849831163883, 0.002834415528923273, 1.2828968465328217e-05, -0.00201184069737792, 0.013491332530975342, -0.00044970843009650707, 0.014609385281801224, 0.0015939248260110617, 0.0033549137879163027, 0.0074780951254069805, -0.0001910637365654111, -0.007199772633612156, 0.0018774275667965412, -0.0023808483965694904, -0.004680268932133913, -0.012312373146414757, 0.0012901646550744772, -0.0016097177285701036, 0.005540618672966957, -0.0003246325650252402, 0.00055527756921947, 6.259339716052637e-05, 0.0040909359231591225, -0.0020685349591076374, -0.006881588604301214, -0.0009166030213236809, -0.003283381462097168, 0.0005394970066845417, 0.0009623111691325903, -0.006151794455945492, -0.0003218254423700273, -0.004340088926255703, -0.007210913579910994, -0.0027675798628479242, -0.0055437758564949036, -0.0031781282741576433, 0.008075796067714691, -0.00293939677067101, 0.0014882524264976382, -0.008929525502026081, -0.00040448454092256725, -0.0052980054169893265, -0.006484193727374077, -0.0016909067053347826, 0.006091355346143246, -0.006167881656438112, 0.0033338877838104963, -0.001189502771012485, 0.0018157442100346088, 0.004816525150090456, 8.975676610134542e-05, 0.007762756198644638, -0.0025698579847812653, 0.0022793931420892477, -0.0032645869068801403, -0.0003364630974829197, 0.0009626828832551837, -0.008598060347139835, -0.0007189377211034298, -0.0003244782274123281, -0.006525539793074131, 0.0011395500041544437, -0.008415237069129944, -0.010620883665978909, -0.0015384007710963488, -0.0027745163533836603, -0.0031990306451916695, 0.00200828118249774, -0.003245150437578559, -0.0016812284011393785, -0.0010510319843888283, -0.0022814511321485043, -0.00492459163069725, -0.0001437200407963246, -0.0015061061130836606, 0.0025863477494567633, 0.0036984391044825315, -0.006142954807728529, 0.000918410369195044, 0.010590992867946625, 0.0013621810358017683, -0.0030500206630676985, -0.0007912208675406873, -0.007880185730755329, -0.0038883094675838947, 0.0031843348406255245, -0.008688287809491158, 0.007717791013419628, -0.0024835329968482256, 0.004524683579802513, -0.0018409158801659942, -0.006477649323642254, -0.006793380714952946, -0.0023875748738646507, -0.0060602817684412, 0.00041070603765547276, -0.0026845703832805157, 0.0005670934915542603, 0.0007529716822318733, 0.00048404361587017775, 0.002400403842329979, -0.004781161434948444, 0.0001224487496074289, -0.0009800370316952467, 0.00031014063279144466, 0.0056381686590611935, -0.003974062856286764, -0.0035950152669101954, -0.010983387008309364, -0.00488170376047492, -0.007336069364100695, -0.008702008053660393, 0.00354030542075634, 0.0021936690900474787, 0.0033090554643422365, 0.00968108605593443, -0.009336241520941257, 0.011846776120364666, -0.008251877501606941, 0.01376989297568798, -0.006384598091244698, 0.0028519276529550552, -0.001480448991060257, -0.00727946637198329, 0.005344827193766832, -0.009426257573068142, -0.005507263820618391, 0.0024835499934852123, 0.004636389669030905, 0.010287826880812645, 0.005468753166496754, 0.007358842063695192, -0.0022829018998891115, 0.006951512303203344, 0.006902983877807856, -0.00341469282284379, -5.5880664149299264e-05, -0.005790020804852247, 0.0024273672606796026, 0.00037900140159763396, 0.005251782480627298, -0.0007261886494234204, -0.00549180805683136, -0.0007228204631246626, 0.006650097202509642, -0.0010522888042032719, 0.006345884874463081, 0.003208929905667901, -0.001840722979977727, 0.0019216985674574971, -0.0058030798099935055, -0.0019645795691758394, -0.005933626554906368, 0.0015350894536823034, -0.00728052482008934, 0.00047579710371792316, 0.00199204427190125, 0.016906369477510452, -0.0020291751716285944, 0.01940865069627762, -0.001966575626283884, 0.005985270254313946, 0.0033797691576182842, -0.005003042984753847, -0.014314550906419754, 0.0035107089206576347, -0.013865647837519646, 0.0036528129130601883, -0.010045972652733326, 0.0015984668862074614, -0.001555945840664208, 0.00956005696207285, 0.009013799019157887, 0.008052663877606392, 0.00848044827580452, -0.007056384813040495, -0.00779178598895669, 0.003594557987526059, -0.0002703758073039353, -0.009107180871069431, -0.0011423032265156507, -0.006115710828453302, 0.0045371586456894875, -0.0016657622763887048, -0.0022704130969941616, -0.0034786458127200603, 0.0032942406833171844, -0.008334500715136528, 0.00165723473764956, -0.002797948196530342, -0.0036550185177475214, -0.0019838891457766294, 0.008007997646927834, 0.00047988721053116024, 0.007343238685280085, -0.0008584413444623351, -0.004657278768718243, -0.002879332285374403, -0.003189125331118703, -0.009147345088422298, 0.0029271054081618786, -0.006676152348518372, 0.0061180368065834045, -0.007534343283623457, -0.002583382185548544, -0.0026144669391214848, 0.008592833764851093, 0.009130635298788548, 0.007079374976456165, 0.003965010400861502, 0.00555539270862937, 0.007899971678853035, 0.002516887616366148, -0.004663090221583843, -0.007800685241818428, 0.0009325266582891345, -0.004690664354711771, -0.0030782443936914206, -0.013433256186544895, 0.002633766271173954, 0.0016070507699623704, 0.0021334823686629534, 0.0027198593597859144, -0.0038904999382793903, -0.0019730785861611366, -0.003530701156705618, 0.004129793960601091, 0.0007269107736647129, 0.005042703356593847, 0.0031011197715997696, 0.005278360098600388, 0.0022073653526604176, -0.007342486642301083, -0.0012768348678946495, -0.005099263973534107, -0.005194806959480047, -0.005784312263131142, -0.008707752451300621, -0.01224686298519373, 0.0010550847509875894, -0.00497397780418396, 0.001889620441943407, 0.004676705226302147, -0.00022794201504439116, 0.009674319066107273, -0.008559716865420341, 0.003058790462091565, 0.0036068963818252087, 0.005236644297838211, 0.0005263781058602035, 0.010113392025232315, -0.00015517231076955795, 0.007384103257209063, 0.0036996675189584494, 0.00026909058215096593, -0.0015153682325035334, 0.005314013920724392, -0.004076720215380192, 0.0023858097847551107, 0.010534086264669895, 0.0032633505761623383, -0.0031546507962048054, -0.008288118988275528, -0.005475485231727362, -0.005037348717451096, -0.003831833600997925, 0.002937426557764411, -0.006848613265901804, 0.0007450502598658204, -0.0012758332304656506, 0.005495882593095303, 0.0012408243492245674, 0.008373182266950607, -0.003320335876196623, -0.004473838489502668, -0.000671913439873606, -0.0075087836012244225, 0.00254195393063128, -0.007607661187648773, 0.002103123813867569, -0.0027042911387979984, 0.0054667042568326, 0.004410801455378532, -0.0011361923534423113, -0.004504668992012739, -0.005254283081740141, -0.009126563556492329, -0.000521626730915159, -0.0004388502275105566, 0.0036527086049318314, -0.0027119796723127365, 0.008417092263698578, -0.002996207680553198, 0.006235192995518446, -0.01132767554372549, -0.007568525616079569, -0.007206841837614775, -0.0019485198426991701, -0.00021715008188039064, 0.004626651294529438, 0.008425942622125149, -0.007122286129742861, -0.001155596342869103, -0.0030276391189545393, 0.004055740777403116, 0.006730269640684128, 0.001602973323315382, 0.0017908423906192183, 0.010185766965150833, 0.005612603388726711, -0.0027236277237534523, -0.0003300957032479346, 0.0037188208661973476, 0.0010693947551771998, -0.0017843958921730518, 0.0022236055228859186, 0.0040470510721206665, -0.004462782293558121, -0.00011434234329499304, -0.004902893677353859, -0.0011464139679446816, 0.000936391472350806, 0.009977118112146854, -0.00010012189159169793, -0.0019857618026435375, -0.0010810031089931726, 0.003406879957765341, -0.005370459984987974, 0.00485613476485014, 0.0027919106651097536, 0.00451470073312521, -0.0035081563983112574, -0.0024640189949423075, -0.0032510154414922, 0.003049291204661131, -0.002880092477425933, -0.0002948045148514211, -0.0016011539846658707, -0.003352716099470854, 0.0009938676375895739, 0.003285933518782258, -0.0016458784230053425, -0.007353485096246004, 0.0018360629910603166, 0.006163863465189934, 0.010071405209600925, 0.008760818280279636, -0.0028792729135602713, 0.00906103104352951, -0.002357103629037738, -0.0071654655039310455, 0.0004666664754040539, 0.0006223049713298678, -0.006750520784407854, -0.000493787694722414, -0.005539480596780777, 0.0073267738334834576, 0.009956225752830505, -0.002775592030957341, -0.0008875973871909082, 0.008174682967364788, 0.0037092992570251226, 0.006848775316029787, -0.0025813356041908264, 0.010968515649437904, 0.0050181797705590725, -4.8254558350890875e-05, 0.0030780304223299026, -0.00603526271879673, 0.000525550392922014, -0.0022102463990449905, 0.0052133663557469845, 0.009419908747076988, -0.003254547482356429, 0.0019202283583581448, -0.008583687245845795, -0.0028838342987000942, -0.007423379458487034, -0.0017793175065889955, 0.002978216391056776, -0.0037606440018862486, -0.005705946125090122, -0.006525769829750061, -0.006770244333893061, -0.006295713130384684, -0.010680760256946087, -0.007522829342633486, 0.0051296004094183445, -0.004378634970635176, -0.0051671299152076244, -0.001902528922073543, -0.007491930387914181, 0.004879023879766464, -0.005926075391471386, 0.002160730306059122, 0.008869948796927929, -0.002347029047086835, 0.006851151119917631, -0.005623443052172661, -0.00048426937428303063, -0.00387307140044868, -0.003769386326894164, 0.008129593916237354, -0.003081358503550291, 0.006933150812983513, -0.009225945919752121, 0.0017418491188436747, -0.0012134019052609801, 0.0029920449014753103, -0.0038701756857335567, -0.002149448497220874, -0.006417645141482353, 0.00033889099722728133, -0.0013199152890592813, -0.00021000838023610413, 0.002797594526782632, 0.013549279421567917, 0.008249432779848576, 0.0162705946713686, 0.0045274910517036915, -0.004210079554468393, 0.0013369047082960606, 0.0008263889467343688, 0.003690957324579358, 0.0030841119587421417, 0.0008038730593398213, 0.0032008737325668335, 0.002206140896305442, 0.00012406155292410403, -0.005148818716406822, -0.002517836634069681, 0.0014250203967094421, -0.0035906934645026922, 0.0017969529144465923, -0.004581732209771872, -0.0025926828384399414, 0.00428734440356493, -0.0016862527700141072, 0.0024748118594288826, 0.0024414018262177706, 0.0020572275388985872, -0.0012747322907671332, -0.005185131914913654, 0.003234903095290065, -0.0021667727269232273, -0.00016785608022473752, -0.0055903843604028225, -0.00522341625764966, -0.004619806073606014, 0.010330675169825554, -0.0017394361784681678, 0.001321697374805808, -0.0035824254155158997, 0.0008555714739486575, -0.002249405486509204, -0.009541507810354233, -0.0015482709277421236, -0.0026864672545343637, -0.01148840133100748, 0.006533750798553228, -0.011605367995798588, 0.0068174321204423904, -0.00497694406658411, -0.006050291936844587, -0.0002199960290454328, 0.004258832894265652, -0.0022112710867077112, 0.008684776723384857, 0.0007046923274174333, -0.0017766685923561454, -0.0001585986465215683, -0.00399606442078948, -0.010450989007949829, 0.005674646236002445, -0.010573538951575756, 0.007070966996252537, 0.0007936757756397128, -0.0012654238380491734, -8.600414730608463e-06, -0.002570366719737649, -0.0039693741127848625, -0.0010180951794609427, -0.0020126765593886375, -0.005096033681184053, -0.0011440141825005412, 0.0025925440713763237, -0.004157369025051594, 0.001368505647405982, -0.005465405527502298, 0.001904785167425871, -0.004625793546438217, 0.0055314162746071815, 0.005295326467603445, 0.007396331988275051, -0.0034155144821852446, 0.006887056864798069, -0.005983109585940838, 3.792589996010065e-05, 0.007774087134748697, 0.003542523132637143, 0.006215227767825127, 0.00037594494642689824, 0.007447133306413889, 0.0003241593367420137, 0.0029157069511711597, -0.003950789570808411, 0.0013714911183342338, -0.01097231637686491, -0.004375598859041929, -0.01231470052152872, -0.005441973451524973, -0.009273665025830269, -0.0003552570706233382, 0.000498895242344588, 0.0018431423231959343, 0.00701728742569685, 0.0010184968123212457, 0.011092664673924446, 0.00036654819268733263, 0.0023268589284271, -0.003855532966554165, 0.00047408606042154133, 0.0003909546067006886, 0.000733334047254175, -0.0016436558216810226, -0.002411599038168788, 0.006146609783172607, 0.001068134792149067, -0.0027704541571438313, -0.00047269731294363737, -0.0005241637118160725, -0.002363701583817601, -0.00946721900254488, -0.0005846836720593274, -0.004786856472492218, -0.002866501221433282, 0.001055317698046565, -0.004874034319072962, -0.001904066652059555, 0.005536812357604504, 0.003564707934856415, 0.0009779182728379965, -0.008797806687653065, 0.002495788037776947, -0.0059095825999975204, 0.004553893115371466, 0.009157038293778896, -0.00017437513452023268, -0.0001983071560971439, 0.0019057452445849776, 0.0013399752788245678, -0.000293755903840065, 0.006565058138221502, 0.0036168000660836697, 0.0011987016769126058, 0.0011871492024511099, -0.001884059514850378, 0.002640344901010394, -0.003312984947115183, -0.00019093448645435274, 0.004598680883646011, 0.002140879165381193, -0.0014307624660432339, 0.0017707718070596457, 0.0009012891678139567, 0.003906619735062122, -0.0011648978106677532, -0.0029075194615870714, -0.0018939668079838157, 4.312227247282863e-06, 0.0011047149309888482, 0.002401776844635606, 0.0010377583093941212, 0.005755975376814604, 0.0015179926995187998, -0.007039145100861788, 0.0019148156279698014, -0.003508219961076975, -0.0005635969573631883, -0.002223643474280834, -0.0003523753839544952, 0.003265600185841322, -0.002349809743463993, 0.0018769344314932823, 0.0037411071825772524, 0.0014569418272003531, 0.0012681478401646018, -0.00443278718739748, 0.00626435736194253, 0.00027509601204656065, -0.0006853524246253073, -0.006576174404472113, -0.00585915008559823, -0.003619131864979863, -0.0031573788728564978, -0.010060159489512444, 0.005785568617284298, 0.0012740385718643665, 0.00524086644873023, -0.0008072761120274663, 0.0029230457730591297, 0.001556695089675486, -0.013803734444081783, -0.0011259105522185564, -0.0017629038775339723, 0.006573968101292849, -0.00015440671995747834, 0.00794143881648779, 0.004918883554637432, -0.001888451399281621, -0.005507726222276688, -0.002769836224615574, 0.007436050102114677, -0.0034563331864774227, 0.006812296342104673, 0.002454183530062437, -0.008745569735765457, 0.003611268475651741, -0.00547776697203517, 0.0014655744889751077, -0.0006873751408420503, 0.005233910400420427, 0.003580204676836729, 0.00948959868401289, -0.009088988415896893, 0.0002742133510764688, -0.016048124060034752, 0.005529090762138367, -0.013092322275042534, 0.005407226737588644, 0.0026318158488720655, -0.001749234041199088, 0.0013036662712693214, 9.436719119548798e-05, -0.008932923898100853, 0.0059533026069402695, -0.002677526790648699, 0.006566507276147604, -0.0027052853256464005, -0.0008303704671561718, 0.005460556596517563, 0.0034885364584624767, 0.0030870293267071247, 0.00373254856094718, 0.0018911382649093866, 0.002024542074650526, 1.01133446150925e-06, -0.0057954732328653336, -0.00041473665623925626, -0.008345715701580048, 0.0007497705519199371, -0.0033456573728471994, -0.0022932803258299828, -0.0018368693999946117, -0.0013190241297706962, -0.006283721420913935, -0.0021408728789538145, -0.004701043479144573, -0.0018175356090068817, -0.0038935563061386347, 0.0024419333785772324, 0.0011991234496235847, 0.01075424998998642, -0.005200362764298916, 0.007330636028200388, 0.007552837487310171, 0.012807592749595642, -8.65117326611653e-05, -0.003138076514005661, -0.0053157503716647625, -0.004152643959969282, -0.006660109385848045, -0.010750219225883484, 0.005536532495170832, -0.0037613066378980875, 0.006936345249414444, -0.0036162969190627337, 0.008042578585445881, -0.00560701172798872, -0.001995805883780122, -0.002691023051738739, 0.0015252071898430586, -0.005240004509687424, 0.005499317776411772, -0.00869174674153328, 0.0010676562087610364, -0.00464096013456583, -0.0011622179299592972, 0.0018107655923813581, 0.0010379275772720575, -0.006107139401137829, 0.0008884722483344376, -0.008954625576734543, 1.852406421676278e-05, -0.0020575474482029676, 0.0007901693461462855, -0.006502936594188213, 0.0077859777957201, -0.009578829631209373, 0.009383425116539001, 0.004574939608573914, 0.003929368685930967, 0.002835444873198867, -0.0024450018536299467, 0.0037120673805475235, -0.0016752230003476143, 0.008900162763893604, 0.0042699179612100124, 0.001030446495860815, 0.0038926403503865004, -0.0016210650792345405, -0.0033929795026779175, 0.001963950227946043, -0.0011038784869015217, -0.004535183776170015, -0.003221508115530014, -0.0003000948636326939, -0.005517471116036177, -0.008087888360023499, -0.002861618995666504, -8.44376627355814e-05, -0.01035739853978157, -0.0015090556116774678, 0.005566030275076628, 0.0006117800367064774, 0.0025874702259898186, 0.0009397877147421241, 0.00600385433062911, -0.0007661939598619938, 0.004774800036102533, 0.0005883716512471437, -0.0019103616941720247, 0.007527314126491547, -0.004613237921148539, 0.007370631210505962, -0.012753010727465153, 0.0026441568043082952, 0.0016749424394220114, -0.005403692834079266, -0.0015968105290085077, -0.005636658985167742, -0.0006858604610897601, -0.004310492891818285, -0.009436972439289093, -0.004615540150552988, 0.0031282822601497173, 0.00013981165830045938, 0.009057397954165936, 0.004037540405988693, -0.012030737474560738, 0.0062727900221943855, 0.0008588089258410037, 0.007979754358530045, -0.001267802668735385, 0.008836488239467144, -0.0056235287338495255, -0.011558088473975658, -0.007508940063416958, 0.0013125617988407612, 0.006620452739298344, -0.0012779461685568094, 0.004816148430109024, -0.001420803600922227, 0.0012268534628674388, -0.0017369512934237719, -0.0038648757617920637, 0.016776030883193016, -0.012875700369477272, 0.019569620490074158, -0.008696373552083969, 0.017684971913695335, -0.005157147534191608, 0.0029526406433433294, 0.00026060425443574786, 0.009788881987333298, -0.0005801335209980607, 0.008197075687348843, -0.0028607447165995836, -0.004862488713115454, 0.0009939719457179308, 0.004855669569224119, -0.0001660914858803153, 0.00023494960623793304, -0.00047155021457001567, -0.014307666569948196, 0.0006408470799215138, 0.0010371363023295999, -0.0014823981327936053, 0.0011627727653831244, -0.008604000322520733, -0.0007554913172498345, 0.0076493266969919205, 0.003508157329633832, 0.0014652716927230358, 0.0029309692326933146, 0.0018475600518286228, 0.0009001246653497219, -0.0036229612305760384, -0.004571667406708002, -0.006236763671040535, 0.0014519158285111189, -0.00017078296514227986, 0.003945119213312864, -0.0045208437368273735, 0.0034622736275196075, -0.013259720988571644, -0.005028240382671356, -0.0032872366718947887, 0.003547205124050379, -0.002494074869900942, 0.010352736338973045, -0.005308319348841906, -0.0016727980691939592, -0.010445973835885525, -0.004433544352650642, -0.004765097983181477, 0.0009736045030876994, -0.001330657280050218, -0.004087110981345177, 0.0010562767274677753, -0.0032624241430312395, 0.002823698101565242, 0.0073792049661278725, 0.002166224177926779, 0.006352366413921118, 0.002897988073527813, 0.007061046082526445, -0.00595779437571764, 0.0014059185050427914, 0.023128654807806015, 0.007522629573941231, 0.019595090299844742, -0.005102432332932949, 0.004751373548060656, 0.007847954519093037, -0.0019035876030102372, -0.006999737583100796, 0.0031642387621104717, -0.004482735879719257, 0.0038693773094564676, -0.001166626112535596, -0.007374625187367201, -0.00011811006697826087, -0.007569514214992523, -0.00583516713231802, -0.006609679199755192, -0.0034812316298484802, -0.0029539160896092653, -0.0007856010342948139, 0.001164248795248568, 0.004718557931482792, -0.00013065477833151817, 0.002110569505020976, -0.005788521841168404, 0.006919709499925375, 0.007342033088207245, -0.0021988980006426573, 0.0004926925175823271, -0.003830854082480073, 0.001121165812946856, -0.002111357869580388, -0.00872464757412672, -0.003251810325309634, 0.0018157073063775897, -0.0029747774824500084, -0.00238315318711102, 0.0026085206773132086, -5.3677300456911325e-05, 0.001929809688590467, -0.0034454672131687403, -0.0004431587876752019, 0.0007412063423544168, 0.010651637800037861, -0.008156592026352882, 0.00783491600304842, 0.005683200433850288, 0.00882688444107771, 0.0004043445806019008, 0.009469716809689999, -0.003706448245793581, 0.00826241448521614, -0.0018595249857753515, 0.0025358020793646574, -2.0594976376742125e-05, 0.00048427016008645296, 0.00235926965251565, 0.0029562246054410934, 0.004370830021798611, -0.0031802307348698378, -0.009303457103669643, 0.0018576104193925858, 0.0007447158568538725, -0.0012049884535372257, 0.010823937132954597, -0.001123002148233354, 0.010342605412006378, 0.0036651098635047674, 0.0009609051630832255, 0.0009113508858717978, 0.00505702942609787, -0.0004772439133375883, 0.006741367280483246, 0.0007855300209484994, 0.0024478957056999207, -0.005432073958218098, 0.00026236323174089193, -0.004662643186748028, -0.0012778651434928179, -0.004245671909302473, 0.0033495479729026556, 0.0007136489730328321, -0.004436403047293425, -0.002649691654369235, 0.002536108950152993, -0.004132026340812445, 0.006041292566806078, 0.0015563665656372905, 0.004360581282526255, 0.0018091661622747779, 0.00074578239582479, 0.004023517947643995, -0.002609000774100423, 0.0038464830722659826, -0.007674206513911486, 0.015847021713852882, -0.00022223580162972212, -0.0012938370928168297, -0.00013796958955936134, -0.0006226608529686928, 0.005970160476863384, -0.0011720103211700916, 0.0005111625068821013, 0.006547862663865089, -0.0022849764209240675, -0.005643198266625404, 0.007333269342780113, -0.00692283920943737, 0.01368660293519497, -0.008569290861487389, -0.011224404908716679, -0.0040160417556762695, 0.003595777554437518, -0.003866271348670125, -0.0011617363197728992, -0.006138789001852274, -0.0039224689826369286, -0.0024631442502141, -0.0005842462414875627, 0.00025070959236472845, 0.0049502057954669, 0.0014832839369773865, 0.006355243735015392, -0.006046374328434467, -0.005267654079943895, -0.00013221368135418743, 0.012000678107142448, 0.002621864201501012, 0.015652505680918694, 0.0056448387913405895, -0.0027853352949023247, 0.00012286403216421604, -0.002080483827739954, -0.003973230719566345, -0.000954337592702359, -0.004977115895599127, -0.001738636288791895, 0.0020968690514564514, 0.0033663795329630375, -0.00019047102250624448, -0.008274313062429428, -0.0008630449883639812, -0.0073655447922647, 0.001679888810031116, -0.0017043286934494972, -0.006318831816315651, -0.0011109170736745, -0.00046973966527730227, -0.009506993927061558, 0.0011964378645643592, -0.011304618790745735, -0.004724816884845495, -0.0017951589543372393, 0.006957806181162596, 0.0024948150385171175, 0.00046662564272992313, -0.004710495937615633, 0.0015281859086826444, 0.0033162450417876244, 0.007073043379932642, -0.0003057207795791328, 0.0032436037436127663, -0.017114995047450066, 0.0005831667222082615, -0.016091225668787956, -0.0022275252267718315, 0.005654698237776756, -0.000600357772782445, 0.00208245194517076, -0.009093375876545906, -0.0006510890671052039, -0.006569764111191034, 0.002364400075748563, -0.00039031729102134705, 0.0032784934155642986, 0.00012652459554374218, -0.0022385711781680584, 0.00019868125673383474, -0.0028388246428221464, 0.004282145760953426, -0.0013562636449933052, 0.0072967251762747765, -0.007264979183673859, 0.00048592989332973957, -0.010307474061846733, 0.0013374972622841597, 0.0030310172587633133, 0.005034020636230707, -0.002690095454454422, -0.0006261441158130765, -0.0006741698598489165, -0.004608219023793936, -0.0009986964287236333, -0.006890377029776573, 0.007616197690367699, -0.003347289515659213, -0.0015617855824530125, 0.004583894740790129, -0.001038512447848916, 0.003281748853623867, -0.005900118499994278, -0.0016282822471112013, -0.0017355050658807158, 0.00034424179466441274, -0.005149904638528824, 0.006332008168101311, -0.007127276621758938, -0.006120389327406883, -0.004905198235064745, -0.001467872760258615, 0.004284712485969067, -0.011796167120337486, 0.0064072757959365845, -0.006737988442182541, 0.0006507244543172419, 0.00217821286059916, -0.005623494274914265, 0.00019914214499294758, 0.007566900923848152, 0.0014454778283834457, 0.011416108347475529, 0.011110185645520687, 0.002083745552226901, -0.000595369900111109, -0.004150960128754377, -0.00040237861685454845, -0.0022148408461362123, -0.004431679844856262, -0.003833681344985962, 0.004547730553895235, 0.0028092139400541782, -0.001324733137153089, -0.006317279301583767, 0.004534470848739147, 0.001907502650283277, -0.002882361179217696, -0.009377858601510525, -0.002446063095703721, 0.00030560570303350687, -0.005820887628942728, -0.000524166680406779, -0.00184910639654845, 0.002730322303250432, 0.0002948301553260535, -0.0019946256652474403, 0.0032231700606644154, 0.0014504826394841075, 0.003859307151287794, -0.0008739079348742962, -0.007307549938559532, -0.006828083656728268, 0.005360213574022055, -0.0056644463911652565, 0.0035395061131566763, -0.010231416672468185, 0.004324238281697035, 0.007462657056748867, 0.004840674810111523, -0.0036349524743855, 0.0022117323242127895, -0.004592309705913067, 0.002322353655472398, -0.005013658199459314, -0.005050749517977238, -0.002093355869874358, -0.0003446349874138832, 6.732829206157476e-05, 0.001638525864109397, -0.0005885002319701016, 7.337229908443987e-05, 0.007674336899071932, -0.0010363147594034672, 0.003065850120037794, 0.006085947621613741, 0.007657577749341726, 0.0050239865668118, 0.007538816425949335, -0.011202966794371605, -0.0058509791269898415, 0.006024945992976427, -0.006940153427422047, 0.005239504389464855, -0.01385037787258625, 0.0001231394853675738, 0.004614533856511116, -0.00555352633818984, -0.0012878209818154573, 0.00767644215375185, 0.0026607669424265623, 0.010255716741085052, 0.006054758094251156, 0.0022190590389072895, 7.1812974056229e-05, 0.000523633265402168, 0.004660662729293108, 0.005925373639911413, 0.0062681687995791435, 0.00819462537765503, 0.009927583858370781, 0.007314136251807213, 0.0008984146406874061, -0.00652583222836256, -0.004280065186321735, -0.0041266572661697865, 0.0004782503820024431, 0.00892692618072033, -0.014069860801100731, -0.008392584510147572, 0.003252313006669283, -0.0024891362991183996, 0.005889797583222389, 0.00022481042833533138, -0.003461667336523533, 0.004103579092770815, 0.002157210372388363, -0.007562830578535795, 3.847281914204359e-05, -0.004039186984300613, -0.0009172025602310896, -0.00324713415466249, -0.0017057175282388926, -1.987584982998669e-05, -0.00030985308694653213, 0.002041660947725177, 0.0025469299871474504, 0.00012122913904022425, 0.008272513747215271, 0.000885980436578393, 0.0021642257925122976, 0.01401802059262991, -0.003841440426185727, 0.009141869843006134, -0.0020150993950664997, 0.003596777096390724, 0.009466396644711494, 0.006998998112976551, 0.002738565905019641, 0.006986317690461874, 0.006432684604078531, 0.003447529161348939, -0.0017182317096740007, 0.009518934413790703, -0.000549991731531918, -0.0018151546828448772, 0.007637622766196728, -0.00045777118066325784, 0.0020788125693798065, -0.014953654259443283, -0.0013343249447643757, 0.0009391303174197674, -0.005875769536942244, 0.005592529196292162, -0.009588027372956276, 0.005765852984040976, -0.002171676140278578, -0.0005633407854475081, 4.279744462110102e-05, -0.008087488822638988, 0.00021901971194893122, -0.0018958476139232516, 0.0007610961329191923, -0.0017390850698575377, -0.0028965070378035307, -0.004015348386019468, -0.001650224905461073, 0.00566599378362298, -0.000208269280847162, 0.004142620135098696, -0.004980870522558689, -0.003079073503613472, 0.0008120840648189187, -0.007969362661242485, 0.004895487800240517, -0.0031528794206678867, 0.010573843494057655, -0.01295927818864584, 0.00043613495654426515, 0.0018091294914484024, -0.017439907416701317, 0.0007172087207436562, -0.015775466337800026, 0.0016535189934074879, -0.01334888581186533, -3.6106444895267487e-05, -0.006373388227075338, 0.0036647419910877943, 0.0012207893887534738, 0.006050505209714174, 0.0010817940346896648, -0.0026332170236855745, -0.002860471373423934, -0.0008783686207607388, 0.007846836000680923, 0.006494809873402119, 0.006708087399601936, 0.007627703249454498, 0.003687904682010412, -0.0012170070549473166, 0.002914265962317586, 0.0021622672211378813, 0.007506280671805143, 0.0025355396792292595, 0.0023722562473267317, -0.010234653949737549, 0.003521984675899148, 0.0017744010547176003, -0.014135723933577538, 0.0009877573465928435, -0.016058634966611862, -0.0018785877618938684, 0.00014923048729542643, 0.00442148745059967, -0.0019109486602246761, -0.0038165971636772156, 0.003522893413901329, 0.0031490870751440525, 0.004667539615184069, 0.005898728035390377, 0.0055351294577121735, 0.007897522300481796, 0.00823170691728592, 1.2112024705857038e-05, 0.009970827959477901, -0.0011528589529916644, 0.00601909589022398, 0.0043865228071808815, -0.007003339938819408, -0.0004248563782311976, -0.0035389226395636797, 0.002531354548409581, 0.0019292030483484268, -0.007913071662187576, -0.0007534991018474102, 0.005105799064040184, -0.0034073819406330585, -0.00414240313693881, 0.0018258478958159685, -0.0061815776862204075, -0.004021426662802696, -0.004093620926141739, 0.003623618045821786, 0.018368322402238846, 0.0019391464302316308, 0.02012583427131176, -0.01018382329493761, -0.009903259575366974, -0.0002488476748112589, 0.007534224074333906, 0.0041775270365178585, 0.0006806657183915377, 0.000507944670971483, 0.0011973227374255657, 0.0016516922041773796, 0.0038878938648849726, -0.004176483489573002, -0.011381466872990131, 0.00047622068086639047, -0.011856297962367535, 0.0011122024152427912, 0.0035339214373379946, 0.0060840779915452, -0.0017711909022182226, 0.00131867709569633, 0.004137870389968157, -0.002818132285028696, -0.0023785908706486225, 0.0055548944510519505, 0.003449071664363146, 0.0032831882126629353, -0.0038749470841139555, 0.0067124143242836, -0.003360159695148468, 0.005458448082208633, 0.0036369089502841234, 0.0015461884904652834, -0.0004982838872820139, -0.013538418337702751, -0.002011943608522415, -0.013540557585656643, -0.003373317886143923, 0.0030200984328985214, -0.00659123994410038, -0.007960929535329342, -0.0017659264849498868, -0.0009463485330343246, 0.0014793785521760583, -0.0029121958650648594, 0.0027034548111259937, 0.001074874890036881, -0.0036772368475794792, 0.006714204791933298, -0.010501285083591938, 0.011066028848290443, -0.0065701683051884174, 0.008825129829347134, -0.002799723297357559, -0.001524425344541669, 0.008842214941978455, -0.007446409203112125, 0.012557688169181347, -0.0021625508088618517, 0.006592314690351486, 0.0008671694668009877, -0.004002527333796024, -0.015228260308504105, 0.0017403189558535814, -0.010470718145370483, 0.0035399398766458035, -0.007701018825173378, 0.001391362282447517, -0.005859436001628637, -0.007843117229640484, 0.003875719616189599, -0.005644254852086306, 0.0032846166286617517, 0.0005145950708538294, 0.0019651229958981276, 0.002840588102117181, 0.000797117711044848, 0.008234946988523006, -0.0019602307584136724, 0.005556211806833744, 0.015933269634842873, -0.004253900609910488, 0.0042696259915828705, -0.004453939851373434, 0.0025671084877103567, -0.008800244890153408, 0.007954636588692665, -0.0012279527727514505, 0.014921510592103004, -0.003290507011115551, 0.002538707572966814, -0.006932735443115234, -0.0001965515548363328, -0.011572335846722126, -0.008304803632199764, 0.0031996755860745907, -0.003533905604854226, 0.00871998630464077, 0.0018164035864174366, 0.006828137207776308, 0.0049269478768110275, -0.007170320954173803, 0.0008114531519822776, 0.0038505832199007273, -0.0032695105765014887, -0.013037404045462608, -0.006201793905347586, -0.00942146871238947, -0.005208419635891914, -0.001916088629513979, 0.0008715639123693109, 0.0017721991753205657, -0.004482822958379984, 0.004380324389785528, -0.002449754858389497, 0.002132647903636098, -0.005039671435952187, 0.00041622709250077605, 0.004296929109841585, -0.0047307186760008335, 0.005389546975493431, -0.0011070315958932042, -0.008504523895680904, -0.0030120378360152245, 0.004372769966721535, 0.002010500989854336, -0.0028707534074783325, -0.003661364782601595, -0.010030390694737434, -0.00859059952199459, 0.003049691906198859, 0.00499221496284008, 0.007878039963543415, 0.0020699913147836924, 0.005373712163418531, -0.0002913697680924088, 4.518553032539785e-05, -0.0006465369369834661, 0.0026801784988492727, -0.0037832101806998253, 0.0035200954880565405, -0.0014126839814707637, 0.003776523983106017, 0.003218767000362277, 0.0029651783406734467, 0.0018682145746424794, -0.0033817177172750235, 0.00276207085698843, -0.002915745135396719, 0.002053807955235243, 0.002964576007798314, -0.010592295788228512, -6.551854312419891e-05, 0.0019802646711468697, -0.00034690037136897445, 0.001020748633891344, -0.007731493096798658, 0.009915237314999104, 0.003024537581950426, -0.005137381609529257, 0.0030215755105018616, -0.004334491211920977, 0.0043219272047281265, -0.005384305026382208, 0.01843465492129326, 0.0019273131620138884, -0.007075600791722536, 0.0062241991981863976, 0.00668233260512352, 0.007746740709990263, 0.005209439434111118, 0.015797525644302368, 0.0073034376837313175, -0.0012585895601660013, -0.010291066952049732, 0.00450860196724534, -0.007999887689948082, 0.010785302147269249, 0.003761143423616886, 0.0014530587941408157, -0.005782830994576216, 0.010364924557507038, -0.00241014058701694, 0.009328220970928669, -0.004358395002782345, 0.012168907560408115, 0.0051506017334759235, -0.0007186150178313255, 0.004313717130571604, 0.0005049840547144413, 0.0027544740587472916, 0.0019249154720455408, -0.00418960303068161, -0.0016434526769444346, -0.006369772832840681, -0.001738384598866105, 0.0018247384577989578, -0.0031642639078199863, -0.0001069724967237562, -0.0028847353532910347, 0.00869030226022005, -0.0033470196649432182, -0.0037994254380464554, -0.006276211701333523, -0.009591971524059772, -0.0032127699814736843, -0.0003309663152322173, 0.003973151091486216, -0.004903165157884359, -0.0017575602978467941, 0.001175380079075694, -0.0037374310195446014, -0.002088465727865696, 0.0019344533793628216, 0.0027842496056109667, 0.004980036057531834, -0.0015445062890648842, -0.01065741665661335, 0.005566006992012262, -0.003844640916213393, 0.001801562262699008, 0.0006426249747164547, 0.0071379635483026505, -0.009602595120668411, 0.014115015976130962, -0.011165945790708065, 0.01341194473206997, -0.008989321999251842, 0.002727417042478919, 0.0069771017879247665, 0.000303705339320004, 0.003433153498917818, 0.0004218314425088465, 0.0033476748503744602, -0.002202606061473489, -0.0034539648331701756, 0.009947489015758038, 0.015816275030374527, 0.000926039763726294, 0.01343884039670229, 0.00020074537314940244, 0.002668263390660286, -0.0068668476305902, 0.004380569793283939, 0.0028136433102190495, -0.0010165859712287784, 0.00024975952692329884, -0.0010839359601959586, -0.0058819991536438465, 0.0008675680728629231, 0.004130712244659662, -0.0017776103923097253, 0.006117408163845539, -0.004758778028190136, -0.0012840713607147336, 6.14581658737734e-05, 0.004683854058384895, 0.0011957031674683094, -0.0012739874655380845, -0.01641509309411049, 0.00037804991006851196, -0.011540156789124012, 0.006498223170638084, 0.002900932217016816, -0.001984843285754323, -0.0013688653707504272, 0.003991175442934036, -0.0001334772096015513, 0.0027988310903310776, -0.0018253106391057372, -0.00263841706328094, 0.0010082849767059088, -0.00550101837143302, 0.0061275106854736805, -0.003459441475570202, 0.006696740165352821, -0.010897660627961159, -0.002365575172007084, 0.004598486237227917, 0.0034568156115710735, -0.0007483591325581074, 0.0003981648478657007, 0.0035028443671762943, 0.00260075181722641, 0.0033920463174581528, -0.0014157514087855816, 0.0027222642675042152, -0.00013995748304296285, 0.004226729739457369, 0.002879224717617035, 0.001922120340168476, 0.004944732412695885, 0.0037520865444093943, 0.009078685194253922, -0.0023349893745034933, 0.011593276634812355, -0.005844502244144678, 0.006377638317644596, -0.008746670559048653, -0.0032737867441028357, -0.008233637548983097, 0.0012178190518170595, -0.005493577569723129, 0.0072885253466665745, 0.013052917085587978, -0.0037074158899486065, -0.002062651328742504, 0.000638397119473666, 0.0017758074682205915, -0.0018299021758139133, 1.874059671536088e-05, 0.0008259807364083827, 0.0028238529339432716, -0.0023407810367643833, 0.0006724903360009193, 0.004451492335647345, -0.0074839480221271515, -0.0021872620563954115, 0.00232256599701941, 0.009927492588758469, -0.003936735913157463, 0.005616172682493925, -0.0003429642820265144, 0.006166079547256231, 0.001172646414488554, 0.0005588755011558533, -0.0019390699453651905, 0.0004358590522315353, 0.006884878501296043, 0.003069598227739334, 0.0016907633980736136, 0.011936096474528313, -0.0033923687878996134, -0.005358407273888588, 0.0011141316499561071, -0.007596566807478666, 0.0014435353223234415, -0.0079506142064929, 0.006966813933104277, -0.0005195941776037216, -0.0021921030711382627, 0.002834738465026021, 0.00702625559642911, 0.0036398903466761112, 0.004339979961514473, 0.003083579707890749, 0.0062677995301783085, 0.00698206527158618, 0.0013607166474685073, 0.0017881455132737756, 0.0003705534618347883, -0.001964427065104246, -0.00468952301889658, -0.0012600058689713478, -0.001001487486064434, 0.0019380423473194242, -0.0040214634500443935, 0.0008218353032134473, -0.004562374670058489, 0.0017544073052704334, -0.010920446366071701, -0.005745698697865009, 0.008135265670716763, 0.009131726808845997, 2.923421561717987e-06, 0.010020955465734005, 0.00642314413562417, 0.0020880948286503553, -0.0020035309717059135, 0.008716758340597153, -0.003981656860560179, -7.222057320177555e-06, -0.009036758914589882, -0.008456596173346043, -0.007367593701928854, 0.0028110546991229057, -0.00465137604624033, -0.0069938115775585175, 0.00019639173115137964, -0.01238955557346344, -0.0025626386050134897, 0.00022529385751113296, 0.0005585579201579094, -0.005601407028734684, -0.0009247009875252843, -0.002505756448954344, 0.004014153499156237, -0.002455356763675809, -0.004785106051713228, 0.004964473657310009, 0.010010144673287868, 0.00855043064802885, 0.001026382902637124, 0.015009147115051746, -0.004917518235743046, -0.0021400372497737408, -0.004341535270214081, -0.0016678664833307266, -0.0020255986601114273, 0.0001419935142621398, -0.0030492644291371107, -0.0017423321260139346, -0.0011168858036398888, -0.002355573233217001, -0.006745943333953619, 0.0038212595973163843, 0.004980556666851044, 0.002694282215088606, 0.0021946169435977936, 0.00631339056417346, 0.005592635367065668, -8.213498222175986e-05, -0.0005039768293499947, -0.005783797707408667, -0.003449263283982873, -0.007043256424367428, 0.010799944400787354, -0.00023833525483496487, 0.003956129774451256, 5.969202902633697e-06, 0.0011201970046386123, -0.008696121163666248, 0.004044781904667616, -0.011671205051243305, -0.0001357083674520254, 0.0022305715829133987, -0.008115175180137157, 0.009039029479026794, -0.008603168651461601, 0.008820945397019386, 0.001662049675360322, -0.004198003094643354, -0.003081655129790306, -0.009875836782157421, -0.00014446189743466675, -0.008428169414401054, -0.0021512750536203384, -0.006979317869991064, 0.00012288871221244335, -0.0013127562124282122, -0.002875614445656538, -0.001875222777016461, -0.006915168836712837, -0.00237063504755497, -0.0017497874796390533, 0.000814313068985939, 0.0010992686729878187, 0.00096970668528229, 0.010844241827726364, -0.0006123073399066925, 0.006072500254958868, 0.0007980625377967954, 0.006678696256130934, 0.0020005283877253532, 0.00804482027888298, -0.0052032251842319965, 0.002988567342981696, -0.0021152582485228777, -0.004825379233807325, 0.0065887016244232655, -0.002450719475746155, -0.00020485959248617291, -0.006326818373054266, 0.001154493074864149, -0.006157016381621361, -0.016521047800779343, 0.004787548445165157, -0.00038523704279214144, -0.006988633424043655, 0.006830557715147734, -0.012148219160735607, 0.005943881813436747, 0.005685911513864994, -0.002814854495227337, 0.005005708895623684, -0.0034914417192339897, -0.0018955853302031755, 0.00021685456158593297, -0.002416435396298766, 0.002353892894461751, 0.0036428438033908606, 0.003089343197643757, -0.00472450302913785, -0.0029455998446792364, -0.005459676496684551, -0.0020535208750516176, 0.009704208932816982, -0.0036409059539437294, -0.004176309332251549, -0.0004432449350133538, -0.003175967140123248, -0.002922588726505637, -0.0028587172273546457, -0.005081756506115198, -0.0018819780088961124, -0.003092705737799406, 0.005254950374364853, -0.007179911248385906, 0.006916964892297983, -0.002599695697426796, 0.004459615796804428, -0.004390256945043802, -0.002629538532346487, 0.0035560878459364176, 0.005539136938750744, 0.010053783655166626, 0.006363971624523401, 0.009417454712092876, -0.000942694372497499, 0.006284301169216633, -0.00791922677308321, 0.004074302036315203, 0.0001716782571747899, 0.008123176172375679, -0.0026365313678979874, -0.0018682369263842702, 0.002513906918466091, 0.0030356093775480986, -0.007387587800621986, 0.0042723240330815315, -0.0035342045594006777, 0.002859320491552353, -0.005835114046931267, -0.003052055137231946, 0.004874104633927345, -0.0050745755434036255, 0.0016154574695974588, -0.007850837893784046, 0.008547168225049973, -0.0032035019248723984, -0.006220200099050999, -0.004061859101057053, -0.0014624345349147916, -0.006262963637709618, -0.0004097851924598217, -0.005310179200023413, -0.0020393168088048697, 0.01161440834403038, -0.0018764733104035258, -0.0033844367135316133, -0.0011940948897972703, -0.0021460417192429304, -0.0024510847870260477, -0.006964894011616707, -0.001518654404208064, -0.0006142186466604471, -0.006474741268903017, 0.003456189064309001, -0.004326344933360815, -0.005077069625258446, -0.002257729647681117, -0.0015378708485513926, 0.0036715934984385967, 0.0026682214811444283, 0.005595749244093895, -0.0010155430063605309, -0.0006740509998053312, 0.0006870458601042628, 0.0015697014750912786, -0.004422831814736128, -0.0032739241141825914, -0.0004412796115502715, -0.002827464137226343, -0.0075207180343568325, 0.004114482551813126, 0.00023342511849477887, 0.0012621692148968577, 0.003663552924990654, -0.0021715958137065172, 0.007585042621940374, 0.003416277701035142, 0.005220827646553516, 0.003073287196457386, 0.001280795899219811, -0.005771148484200239, 0.002159256488084793, -0.009113024920225143, 0.01071355864405632, -0.007456004619598389, -0.0066007040441036224, 0.007330120541155338, 0.0007976704509928823, 0.008254332467913628, 0.0016229662578552961, 0.009953483007848263, 0.010577858425676823, -0.0016081189969554543, 0.0035185045562684536, -0.001501426100730896, 0.0009005088941194117, -0.011617191135883331, 0.003882457036525011, 0.0032978442031890154, 0.0010653464123606682, -0.006614820100367069, 0.0008366971160285175, -0.0067268903367221355, -0.0020504281856119633, 3.066466888412833e-05, 0.0050128730945289135, 0.003547933418303728, 0.007654910907149315, -0.008484765887260437, 0.011666643433272839, -0.005697021260857582, -0.0011674852576106787, -0.00311815133318305, 0.0017966189188882709, 0.0046638501808047295, -0.0008934307261370122, 0.0034142364747822285, 0.0031372259836643934, -0.007326981984078884, 0.008365774527192116, -0.004640169441699982, 0.003122565569356084, 0.0006973698036745191, 0.004259084351360798, -0.0008377328049391508, -0.0014851837186142802, -9.075843263417482e-05, -0.0015754909254610538, 0.006176102440804243, -0.006226245779544115, 0.009594359435141087, -0.0007313560927286744, 0.0024535274133086205, -0.007610733155161142, 0.0016924059018492699, 0.011950124055147171, 0.0008387206471525133, 0.011233539320528507, -0.0031703554559499025, 0.001533582340925932, -0.0009452436352148652, -0.006505212746560574, 0.0009789034957066178, 0.0053448136895895, -0.003613699460402131, 0.0015420560957863927, 0.0038380271289497614, 0.005658616311848164, 0.004519326146692038, -0.0037178024649620056, -0.005511770956218243, 0.0002898881211876869, -0.0037894982378929853, 0.003772466443479061, -0.006876111030578613, 0.0028518387116491795, -0.0029531174805015326, -0.0007293729577213526, -0.0011092473287135363, 0.0026717083528637886, -0.0054168784990906715, -0.005196933634579182, -0.003074245061725378, 0.010367350652813911, 0.008161201141774654, 0.00735820084810257, 0.0035996693186461926, 5.326815880835056e-06, 8.934835204854608e-05, -0.0047522783279418945, -0.01051738765090704, -0.016781775280833244, -0.0038725966587662697, -0.009657979011535645, 0.010140077210962772, -0.0026225883048027754, -0.0025048558600246906, -0.009262756444513798, 0.001565924845635891, -0.008959190919995308, 0.005287019535899162, 0.0033505517058074474, 0.004702910780906677, -0.0025923741050064564, 0.006382714956998825, -0.0027125757187604904, 0.0037066377699375153, -0.007265211548656225, 0.005850217305123806, 0.004228830337524414, -0.0016413702396675944, -0.013267593458294868, -0.003607714083045721, -0.01413450762629509, -0.002741970121860504, -0.003918634727597237, -0.002906534820795059, -0.0016982199158519506, -0.011901047080755234, 0.013346128165721893, -0.010039072483778, 0.006727532017976046, -0.006047919858247042, -0.005144227296113968, 0.005687604192644358, 0.009166763164103031, -0.008963840082287788, 0.01959018036723137, -0.008345311507582664, 0.004899031948298216, 0.01450169924646616, -0.00035246071638539433, -0.004451324697583914, -4.036468453705311e-06, -0.0038666101172566414, -0.006382430903613567, 0.004468829371035099, 0.009101051837205887, 0.002026860835030675, -0.007418704219162464, -0.0026861042715609074, -0.008438285440206528, 0.0031869271770119667, -0.005948440171778202, -0.004176618065685034, -0.0013248386094346642, -0.0008764786762185395, -0.010410725139081478, 0.005566832609474659, -0.0005268387030810118, 0.0014763413928449154, -0.006337411236017942, -0.0017471439205110073, 0.0028033056296408176, -0.002056548837572336, 0.004523721523582935, -0.005895073059946299, 0.006791070103645325, -0.004960786551237106, 0.00015945680206641555, -0.008326055482029915, -0.005673359148204327, -0.004242484923452139, -0.0016167180147022009, -0.0005783080123364925, -0.005106316413730383, -0.006276363972574472, 0.0014006691053509712, -0.005929605104029179, -0.0050067841075360775, -0.0010608783923089504, -0.005952118895947933, -0.005625407677143812, -9.367224993184209e-05, 0.001214886549860239, -0.0027719910722225904, 0.0033910851925611496, -0.001968400552868843, 0.008010060526430607, 0.005149355158209801, -0.005010492168366909, -0.006194085814058781, 0.0004550342564471066, -0.011412244290113449, 0.0013869655085727572, -0.0006883962196297944, 0.005296385381370783, 0.0030208625830709934, -0.002759483177214861, 0.005837743636220694, 0.000239709930610843, 0.008594132028520107, 0.0004293389501981437, -0.0003079705638810992, -0.0052736178040504456, 0.005033664871007204, -0.007681084796786308, 0.009032796137034893, -0.006221976596862078, 0.0058167423121631145, -0.007550009060651064, -0.0036263347137719393, -0.002752801403403282, 0.006940903607755899, -0.006547146011143923, 0.007208008784800768, -0.011275972239673138, 0.0041161952540278435, -0.002394896699115634, -0.0036466000601649284, -0.004784699063748121, -0.0030731328297406435, -0.01124112494289875, -0.0022153265308588743, -0.004036520607769489, 0.0029421537183225155, 0.00842288974672556, -0.0011069115716964006, 0.010645626112818718, 0.0008265976211987436, 0.0006703294347971678, -0.0037520963232964277, 0.0015205885283648968, 0.0012923087924718857, 0.004119659774005413, 0.006202603690326214, 0.007300234399735928, 0.0053274426609277725, 0.004434681497514248, 0.00023852873709984124, 0.0036801337264478207, -0.0028242147527635098, 0.004595128353685141, 0.0030263573862612247, -0.00024566869251430035, -0.006133240181952715, -0.0005882815457880497, 0.0066393641754984856, -0.008197884075343609, 0.00856127217411995, -0.003986887168139219, -0.0032225088216364384, -0.0028672886546701193, -0.0026572956703603268, 0.009819786064326763, -0.006544570438563824, 0.007632413879036903, -0.01118099968880415, -0.003708468982949853, -0.0017995329108089209, -0.012828778475522995, 0.008995532058179379, -0.0034544800873845816, 0.004226472228765488, -0.004845095332711935, -0.0011397809721529484, 0.003855162300169468, -0.0011245675850659609, -0.00047575030475854874, 0.0020996893290430307, 0.0047567118890583515, 0.004034355282783508, -0.012649854645133018, -0.004917433951050043, 0.002778606489300728, -0.0012720453087240458, -0.00048524816520512104, -0.004862494301050901, 0.0031351945362985134, -0.0006469478830695152, -0.006477852817624807, 0.0027400776743888855, 0.0014812001027166843, -0.0040239207446575165, -0.0004588593728840351, -0.0033094908576458693, 0.010006122291088104, 0.009599885903298855, -0.0016393347177654505, -0.0014674303820356727, -0.0003973919665440917, -0.0052147312089800835, 0.0030256505124270916, -0.003432163968682289, -0.0066752443090081215, 0.0011045478750020266, -0.006254355888813734, -0.001814924762584269, -0.006853011902421713, -0.0013009047834202647, -0.007739030756056309, -0.0014247375074774027, -0.0011754055740311742, -0.0011338770855218172, -5.3559779189527035e-05, -0.0022579769138246775, -0.0014051736798137426, -0.0001654115621931851, -0.002138313138857484, -0.0014125225134193897, 0.007719128858298063, 0.00012008612975478172, 0.013952686451375484, -0.004051114898175001, 0.0017268616938963532, 0.003687076736241579, 0.002844448434188962, 6.466149352490902e-05, -0.006458768621087074, -0.00010959157953038812, 0.0018907528137788177, -0.0003578441101126373, -0.006481602787971497, -0.006826014257967472, 0.0020455734338611364, 0.0018354025669395924, 0.006450922228395939, 0.004119482357054949, 0.003252269933000207, -0.0062752761878073215, -0.0038428662810474634, -0.00084069644799456, -0.008066782727837563, 0.0013660592958331108, -0.005912323482334614, 0.007629171945154667, -0.001017285045236349, 0.000908040557987988, -0.0063787526451051235, -0.00720423785969615, -0.00624301191419363, -0.004181376192718744, -0.00276001519523561, -0.0010946649126708508, -0.0034792639780789614, -0.012399660423398018, -0.0005512486677616835, -0.012171592563390732, 0.0037193913012742996, -0.00414496473968029, -0.0072175669483840466, 0.003253824543207884, 0.002524295821785927, -0.006344334688037634, 0.003200151026248932, 0.0006206707912497222, -0.008300060406327248, 0.0008114610682241619, 0.002863067900761962, 0.0042810882441699505, 0.005416390486061573, 0.005701777059584856, 0.004502657800912857, -0.003539853263646364, -0.0042965649627149105, 0.003609932027757168, 0.002604671288281679, -0.004582060035318136, 0.005044437944889069, -0.00017299718456342816, -0.0006268682773225009, -0.010917576029896736, -0.003174060955643654, 0.0019076296593993902, -0.007454344537109137, 0.002614250872284174, -0.007689787074923515, -0.00662586372345686, -0.005927158519625664, -0.0027430334594100714, -0.0001716099213808775, -0.0013534220634028316, 0.0015215681632980704, 0.0006897756829857826, 0.012164231389760971, -0.0045558554120361805, 0.001320360228419304, 0.004879847634583712, 0.0009859122801572084, 0.004511609673500061, 0.0017785312375053763, 0.003648867132142186, -0.0003617097972892225, -0.002065961482003331, 0.003723487723618746, -0.007848006673157215, 0.0019785859622061253, -0.00774746248498559, 0.0013378179864957929, -0.0019475668668746948, 0.0050175790674984455, -0.011295377276837826, -0.003828962566331029, -0.006848637014627457, -0.003094408893957734, 0.002033923054113984, -0.002721221884712577, -0.0009512653341516852, 0.011382187716662884, -0.004361527040600777, 0.015731006860733032, -0.026315031573176384, -0.020246000960469246, -0.01056965533643961, -0.015381010249257088, -0.0019722520373761654, 0.002554333768785, -0.0010810171952471137, 0.0008281056652776897, -0.0047686342149972916, -0.0022504504304379225, -0.0010542909149080515, -0.0062549179419875145, 0.0005155939143151045, -0.009042124263942242, -0.0020247329957783222, 0.0007696425309404731, -0.009359330870211124, 0.003894966561347246, 0.0017188836354762316, 0.004931451287120581, -0.003713688114657998, -0.0021376400254666805, -0.004022146575152874, 0.005580216180533171, -0.0016151175368577242, 0.005177978426218033, -0.007295376621186733, 0.0038852114230394363, -0.0018216485623270273, -0.00029804743826389313, 5.334234447218478e-05, -0.004002696368843317, 0.0025135581381618977, -0.0031140686478465796, 0.0012796965893357992, -0.0026762085035443306, -0.003742767032235861, -0.002938560675829649, -0.007796670310199261, 0.004667944274842739, 9.690807200968266e-05, 0.006986084394156933, 0.005862855818122625, 0.004701192956417799, 0.0027632443234324455, -5.5747281294316053e-05, 0.009689850732684135, -0.0033851428888738155, 0.011587582528591156, -0.010878209955990314, 0.004134471993893385, -0.00254352786578238, 0.003517753444612026, -0.006945057772099972, -0.0023974415380507708, -0.0020018883515149355, -0.007175644394010305, -0.0010246041929349303, -0.003249382134526968, 0.00043582433136180043, -0.003351570339873433, -0.006381885148584843, -0.002186503726989031, 0.0031128893606364727, 0.000189659942407161, -0.00033265980891883373, -0.0008004189585335553, 0.011533708311617374, -0.0047817896120250225, 0.010299911722540855, -0.00443595414981246, 0.008480386808514595, -0.0026136150117963552, -0.0012076391139999032, -0.004819280467927456, 0.003613582579419017, -0.010362441651523113, 0.002167510101571679, -0.01175686251372099, -0.007646156474947929, 0.001944344025105238, 0.007725939154624939, -0.006490535102784634, 0.007202932145446539, -0.010564313270151615, -0.0004972020396962762, 0.0022775467950850725, 0.0006172154098749161, 0.006763435900211334, -0.004787936806678772, 0.005683702416718006, -0.0046273935586214066, -0.006048433016985655, -0.009622212499380112, 0.0019320882856845856, -0.002882125321775675, 0.004452546592801809, -0.004745538346469402, 0.003584127640351653, 0.0014692619442939758, 0.0043380167335271835, 0.0004207075107842684, 0.012447535060346127, 0.0015717826317995787, 0.00870528444647789, 0.00023805262753739953, 0.007250528316944838, -0.0017424029065296054, -0.0006937471334822476, 0.0011674431152641773, -0.003477084916085005, 0.004030958749353886, -0.003498559119179845, -0.001724995207041502, -0.0022380687296390533, -0.0035375566221773624, -0.007694592233747244, 0.011718948371708393, -0.006048715207725763, 0.007139950059354305, -0.004262290429323912, 0.00031984603265300393, 0.0034564451780170202, -0.0017789825797080994, 0.002854284830391407, -0.004410000517964363, 0.0012641167268157005, -0.00020615808898583055, -0.007100720424205065, -0.0010402975603938103, 0.005088504403829575, -0.0027570605743676424, 0.005587999243289232, 0.001180707709863782, 0.0034751570783555508, -0.0020615668036043644, -0.002222237642854452, 0.013935798779129982, -0.007067220751196146, 0.0153292091563344, -0.010013126768171787, -0.0010431210976094007, -0.0033539170399308205, -0.0020246505737304688, -0.0033427970483899117, 0.0016479967162013054, -0.004514364525675774, 0.0031521786004304886, -0.005109142046421766, 0.005009965039789677, -0.0007554960320703685, -0.00591678824275732, 0.0007427842356264591, -0.009695912711322308, 0.0014717529993504286, -0.0020800528582185507, -0.0008574207313358784, -0.0029818923212587833, -0.004187576938420534, -0.0002630731323733926, -0.007134928368031979, -0.0038045677356421947, 0.003772671101614833, -0.012436466291546822, -0.003214819123968482, -0.007124924100935459, 0.005671385210007429, -0.008944868110120296, -0.0006329312454909086, 0.02508716844022274, 0.011700406670570374, 0.00673151109367609, 0.0046328227035701275, -0.0033861093688756227, 0.003724715206772089, 0.0013955611502751708, -0.0013680994743481278, -0.006924681831151247, 0.002880654064938426, 0.0004193746135570109, 0.005053508561104536, 0.0005927307065576315, 0.009054035879671574, 4.60901646874845e-05, 0.004818017594516277, -0.00014927660231478512, -0.005710075609385967, 0.0028953019063919783, -0.005312363617122173, 0.0052954633720219135, -0.0073055727407336235, -0.004721315577626228, -0.000994757516309619, -0.0069169532507658005, 0.0020244603510946035, -0.006595986429601908, 0.004565631039440632, -0.005549889989197254, -0.0013022045604884624, 0.0001599173410795629, -0.017003491520881653, 0.003923620563000441, -0.01666882261633873, 0.012890073470771313, -0.005263826344162226, -0.010570377111434937, -0.0017765354132279754, 0.00027668965049088, -0.0013557304628193378, -0.0025307773612439632, -0.0016927728429436684, 0.013726610690355301, -0.006306238006800413, 0.00167358317412436, 0.006576787680387497, -0.01218927837908268, 0.008059623651206493, -0.013615894131362438, 0.00740768201649189, -0.010805378668010235, -0.003758601378649473, 0.008095202036201954, -0.0030211815610527992, 0.002952354494482279, 0.0016127187991514802, 0.010041061788797379, 0.007876144722104073, -0.0020573155488818884, -0.0025049110408872366, 0.00032995635410770774, -0.003061918541789055, -0.0012001795694231987, 0.004365968517959118, 0.005531515460461378, -0.002436739159747958, 0.009603522717952728, 0.0035812468267977238, 0.004986950196325779, 0.00031065329676494, 0.002941804938018322, -0.0027536889538168907, -0.0038515643682330847, -0.008690910413861275, 0.00523125845938921, -0.006304057314991951, 0.0008141223806887865, -0.008604181930422783, 0.0076047396287322044, -4.074280150234699e-05, 0.0016247032908722758, 0.0013042378704994917, 0.0015117317670956254, -0.0012427775654941797, 0.0025847405195236206, -0.0010433972347527742, 0.0013266701716929674, 0.0015177089953795075, -0.005707381758838892, 0.0030756189953535795, -0.0003099813766311854, -0.004879818297922611, -0.0028154735919088125, -0.0018455703975632787, 0.001179095241241157, -0.005395609885454178, 0.007809252478182316, -0.004296948201954365, 0.006972542032599449, -0.0005349796847440302, 0.0035229800269007683, -0.0154221560806036, -0.004616775084286928, -0.013956393115222454, 0.0012378219980746508, -0.016098884865641594, -0.00883879791945219, -0.007340129464864731, -0.0034314345102757215, 0.0036081038415431976, -0.003731049131602049, -0.0012463999446481466, -0.001114676590077579, -0.003013753332197666, 0.0021886047907173634, 0.0017678658477962017, 0.002752498257905245, 0.00509908189997077, -0.0024354453198611736, -0.0013489332050085068, 0.008392732590436935, 0.0054940092377364635, 0.009731506928801537, 0.008604519069194794, 0.004900112748146057, 0.0037139973137527704, -0.007335383910685778, -0.0018271940061822534, -0.0013822308974340558, 0.0008330259006470442, 0.0009225239045917988, 0.0005194719997234643, 0.0006028347415849566, -0.00510638440027833, 0.005228902213275433, 0.0014238120056688786, 0.0028678211383521557, 0.00466560572385788, 0.0013753018574789166, -0.0031568522099405527, 0.0033467623870819807, 0.005894809029996395, -0.0038472553715109825, 0.0031130218412727118, 0.0018970228265970945, 0.005664197262376547, 3.924340126104653e-05, -0.00039423094131052494, -0.0018897490808740258, 0.0025632015895098448, 0.0038932806346565485, 0.004403389990329742, -0.0009564271313138306, 0.006160155404359102, 0.010717020370066166, 0.007193355821073055, -0.004778941161930561, -0.006255301646888256, 0.0007407003431580961, -0.013855046592652798, 0.002739532617852092, -0.00023364531807601452, 0.00197607628069818, 0.0019019900355488062, 0.005238399375230074, -0.0019998138304799795, 0.006482464261353016, -0.0008604616741649806, 0.0036641957703977823, -0.003900093026459217, -0.0012354018399491906, 0.005891682580113411, -0.00046692340401932597, 0.004635483492165804, 0.002492385683581233, 0.00706799840554595, 0.008343820460140705, -0.0002731540589593351, -0.009240674786269665, -0.0009671149309724569, -0.010109417140483856, 0.0012190137058496475, 0.0016727116890251637, 0.004313962534070015, 0.00031735433731228113, -0.0052951364777982235, 0.009597385302186012, -0.003690933808684349, 0.0018506913911551237, -0.002785093616694212, 0.0069706314243376255, 0.006649169139564037, 0.0015887146582826972, -0.003639465430751443, -8.134560630423948e-05, -0.00889832153916359, -0.005778352729976177, 0.001360553316771984, -0.0018109169322997332, -0.00817828718572855, 0.004201752133667469, -0.011348121799528599, 0.008488276973366737, 0.0024650099221616983, -0.010734179988503456, -0.0023672496899962425, -0.0024475236423313618, 0.0016835503047332168, -0.004590769298374653, 0.002093047369271517, 0.0038218991830945015, 0.0023740879260003567, -0.00097865448333323, -0.0025839523877948523, 0.0005173967219889164, -0.0007987933931872249, 0.00016580654482822865, 0.0006111896364018321, 0.00024696439504623413, -0.003647448029369116, 0.002371323062106967, -0.0034921264741569757, 0.004609370604157448, -0.004124756436794996, 0.005900845862925053, 0.008294516243040562, 0.0005341266514733434, 0.0022195244673639536, -0.004684245213866234, -0.000288688694126904, -0.0013664774596691132, -0.006575181148946285, -0.005215289071202278, 8.896127837942913e-05, 0.0097685307264328, -0.0033882618881762028, 0.0087045356631279, -0.005722193978726864, 0.0011952981585636735, 0.007084945682436228, -0.003342913230881095, -0.008348498493432999, 6.982020568102598e-05, -0.006870042998343706, -0.005692510865628719, -0.004843487404286861, -0.0021041312720626593, -0.001047533005475998, 0.004500319249927998, -0.005087004974484444, 0.005522006191313267, 0.0020613123197108507, -0.00596168078482151, -0.006430486217141151, 0.00021197122987359762, 0.004877676721662283, 0.001896957983262837, 0.0028359084390103817, 0.0051641883328557014, -0.0023495005443692207, 0.0036153304390609264, -0.001381375128403306, 0.00740948598831892, -0.002343507017940283, 0.011757304891943932, -0.006070807110518217, -0.009089523926377296, 0.003983859904110432, 0.001218364224769175, 0.009435434825718403, -0.004597833380103111, 0.00902994628995657, -0.007589336950331926, 0.0051594325341284275, -0.003924844320863485, 0.00022988187265582383, -0.0011975659290328622, 0.003658305387943983, -0.0007156231440603733, -0.0014052458573132753, 0.007466295268386602, 0.012228433042764664, -0.004942646715790033, -0.0056973970495164394, -0.001106872921809554, -0.007655618246644735, 0.0009920260636135936, 0.00847671553492546, -0.004601872991770506, 0.0017911999020725489, 0.0014383228262886405, 0.0009533364791423082, 0.0014340493362396955, 0.000808762270025909, 0.009143062867224216, 0.002911825431510806, 0.003647909965366125, 0.0013492029393091798, 0.005232320167124271, 0.0003576176823116839, -0.011555210687220097, -0.000772206811234355, 0.008169283159077168, 0.006303737405687571, -0.0029426843393594027, -0.004195339512079954, -0.0008951151976361871, 0.0021574143320322037, -0.00019108732521999627, 0.0010229995241388679, -0.0016869553364813328, 0.005114189814776182, -0.005133061204105616, 0.003964117728173733, -0.0010096734622493386, -0.0043154810555279255, 0.0030576102435588837, 0.00020772154675796628, -0.0014879126101732254, 0.006788767874240875, -0.003376913722604513, 0.0015762274852022529, -0.010021891444921494, 0.000879221479408443, 0.006699475925415754, 0.007981349714100361, -0.009453397244215012, 0.011712971143424511, -0.0025781646836549044, -0.006623607128858566, -0.009239048697054386, 0.0018089830409735441, 0.006777351722121239, 0.002812623744830489, 0.011771558783948421, -0.00294674513861537, 0.003183720400556922, 0.0007226822781376541, 0.00026821845676749945, -0.005074189975857735, -0.0022802790626883507, -0.0048823365941643715, -0.0008833379833959043, -0.0009222032967954874, -0.010223768651485443, -0.006340159103274345, 0.010793555527925491, 0.003973058424890041, 0.009607241488993168, 0.007850059308111668, -0.011307969689369202, 0.0008277908782474697, 0.0015176956076174974, 0.009416822344064713, -0.004391138441860676, 0.005230708979070187, -0.0037273422349244356, 0.0018011365318670869, -0.001965635921806097, -0.0029762079939246178, -0.006501668132841587, 0.004073444753885269, -0.0047765495255589485, 0.004798432346433401, -0.000627204601187259, 0.0035917265340685844, -0.00333058531396091, -0.0008100746781565249, -0.004672362469136715, -0.004359391517937183, -0.0004030580457765609, 0.002448734827339649, -0.014058824628591537, 0.0015873444499447942, 0.0015705644618719816, 0.0003574984730221331, -0.006132739596068859, -0.0009135173750109971, 0.0014078539097681642, -0.00029141618870198727, 0.0022261254489421844, -0.0002969741472043097, 0.0009348287712782621, -0.0017306497320532799, 0.00027310571749694645, -0.0028712113853543997, -0.006775473244488239, -0.0018325059209018946, -0.0022862418554723263, -0.0015418065013363957, -0.0007092977175489068, -0.0022187584545463324, -0.014024371281266212, -0.006525717210024595, -0.01036104466766119, 0.007037002127617598, -0.006731745321303606, 0.005442455410957336, -0.0032172559294849634, 0.007146259304136038, 0.003052920801565051, 0.0009542172192595899, -0.004891288001090288, -0.005142740439623594, -0.00046401514555327594, -0.0011234375415369868, -0.0038754225242882967, -0.004581803921610117, -0.0027613069396466017, 0.0015639950288459659, -0.005451722536236048, 0.004200775641947985, -0.008292648009955883, 0.013056030496954918, 0.00485661206766963, -0.004594325553625822, -0.0002197600551880896, -0.004475458990782499, 0.0033000761177390814, -0.007044270634651184, 0.006254576146602631, 0.0059816003777086735, 0.002628720598295331, 0.0023971747141331434, 0.010778306983411312, 0.004994066432118416, 0.009927158243954182, 0.004944284446537495, -0.011775975115597248, 0.002965842839330435, 0.005249520298093557, -0.003407822921872139, 0.007958547212183475, -0.001630549319088459, 0.007631652522832155, -0.006755400914698839, -0.0023952629417181015, 0.001155733596533537, -0.00013002466585021466, -0.0008446000865660608, -0.00014402899250853807, 0.002706819213926792, -0.015621870756149292, -0.0022103614173829556, -0.0019251807825639844, 0.0048715341836214066, -0.003854079870507121, 0.011271299794316292, -0.011775357648730278, -0.0007514352910220623, -0.006200733594596386, 0.0011987248435616493, -0.0021738724317401648, 0.004210539627820253, -7.888382242526859e-05, -0.001653971616178751, -0.001529473694972694, 0.001208032015711069, -0.006102238316088915, -0.01005469635128975, -0.002045481465756893, -0.00232943007722497, 0.0010323189198970795, -0.001989454496651888, 0.0022696980740875006, 0.008538954891264439, -0.0011788373813033104, 0.004996512550860643, 0.0015080436132848263, -0.006431983783841133, -0.0019156716298311949, -4.560868546832353e-05, 0.0006358734099194407, 0.0006752559565939009, -0.0017295709112659097, -0.008897792547941208, -0.004337870050221682, -0.001831995090469718, 0.0029482569079846144, 0.0045652128756046295, 0.00507478229701519, 0.00665879063308239, -0.0008386706467717886, 0.00633998541161418, -0.005531931761652231, 0.0051041352562606335, -0.0063426257111132145, 0.00018047407502308488, -0.00271803280338645, 0.003652728395536542, -0.00425281748175621, 0.002091998467221856, -0.0003689905861392617, -0.0021699294447898865, 0.009013436734676361, -0.002458097878843546, 0.004929664544761181, -0.002245851792395115, 0.007252005860209465, 0.006680522579699755, 0.007254374213516712, 0.00255404831841588, 0.006784054916352034, -0.005246271379292011, 0.012408832088112831, 0.007990900427103043, -0.0025862061884254217, -0.000642285798676312, -0.007616736460477114, 0.0007001882186159492, -0.008641106076538563, 0.00879461970180273, 0.006732221692800522, 0.0007831595721654594, -0.003914104774594307, 0.0050113447941839695, -0.006268451455980539, 0.016634155064821243, 0.004107730463147163, -0.0035277081187814474, 0.006483694072812796, 0.012894326820969582, -0.004621252883225679, 0.006630691699683666, -0.011800684034824371, -0.006915218196809292, 0.00423438148573041, 0.0078645134344697, 0.006242085248231888, 0.012532112188637257, 0.004306684713810682, 0.0022820676676928997, -0.003220764920115471, 0.011531656607985497, -0.000177039357367903, 0.0003669607685878873, -0.0006547276861965656, -0.0029273424297571182, -0.002489970065653324, 0.004146077204495668, 0.0019063751678913832, -0.006226937752217054, 0.0004249573976267129, 0.011943468824028969, -0.004825605545192957, 0.0077404300682246685, 0.002942363265901804, 0.0003612163127399981, -0.004983707796782255, -0.00835877563804388, -0.003925638273358345, -0.008939600549638271, -0.000788555305916816, -0.010206370614469051, 0.0005506016896106303, -0.0009463652968406677, 0.0029433006420731544, 0.004364988766610622, 0.004111419897526503, 0.00273403013125062, 0.0028497984167188406, 0.0015965267084538937, 0.0038735074922442436, 0.0007452089339494705, -0.0029639871791005135, -0.00019290437921881676, 0.004476289730519056, 0.01464599184691906, 0.006515102460980415, -0.0027799131348729134, -0.0018972497200593352, -0.0053168898448348045, -0.005330707412213087, 0.0017797898035496473, 0.004529780242592096, -0.003375116502866149, -0.004994719289243221, 0.009677760303020477, -0.0021501295268535614, 0.00852987915277481, 0.006426576990634203, -0.0013943534577265382, 0.0007223774446174502, 0.0006591114797629416, -0.002932438626885414, -0.004232844337821007, -0.0025647147558629513, -0.004163489211350679, -0.000528733420651406, -0.005305479746311903, 0.002704991726204753, -0.005560672841966152, -0.0037636670749634504, -0.004615679383277893, -0.004588479176163673, -0.005210666451603174, 0.0030316284392029047, 0.006842159666121006, -0.007779340725392103, 0.0014502059202641249, -0.011288546957075596, 0.0020979121327400208, 0.0023322333581745625, 0.00322289508767426, -0.0005378103815019131, 0.012286396697163582, 0.001604206976480782, 0.009770614095032215, -0.003787390189245343, 0.012807251885533333, -0.0010146982967853546, -0.001471180934458971, 0.007683045230805874, 