0.0053977263160049915, 0.013126648962497711, 0.0581677109003067, -0.014460001140832901, -0.004712091758847237, -0.003926936537027359, 0.0018111206591129303, 0.002110040746629238, 0.02025122568011284, -0.0514083057641983, 0.01833326742053032, 0.028974585235118866, -0.013969698920845985, -0.036600347608327866, 0.014882773160934448, -0.005035514011979103, -0.01575247198343277, 0.016582291573286057, -0.007810303941369057, 0.004872976802289486, -0.015552084892988205, 0.005541383754462004, 0.008190108463168144, 0.011562921106815338, -0.0206878911703825, 0.01917170360684395, -0.0027792323380708694, 0.025897204875946045, -0.021487826481461525, 0.008928352035582066, 0.013715975917875767, -0.0018026100005954504, -0.008581537753343582, 0.025304818525910378, -0.03386307507753372, -0.0031210938468575478, -0.009393789805471897, 0.012388290837407112, -0.004202237352728844, -0.013585526496171951, -0.005420291796326637, 0.0021410612389445305, 0.015566445887088776, -0.004097205586731434, -0.02065644972026348, 0.001931099221110344, -0.009080919437110424, 0.032335951924324036, 0.041597992181777954, 0.11787287145853043